{
  "type": "dqn",
  "encoding": "v1",
  "hidden": 64,
  "epsilon": 0.6057704364907278,
  "weights": {
    "net.0.weight": [
      [
        0.39148959517478943,
        0.28521090745925903,
        -0.025911768898367882,
        0.4397069215774536,
        0.022397635504603386,
        0.0028708367608487606,
        -0.07035117596387863,
        0.22905166447162628,
        0.3168851435184479,
        -0.2285711169242859,
        0.2858884632587433,
        0.12985184788703918
      ],
      [
        0.3189883530139923,
        0.010460042394697666,
        0.18735897541046143,
        0.03209182247519493,
        0.2383238524198532,
        0.005991735961288214,
        -0.06948342174291611,
        0.15097565948963165,
        -0.06677528470754623,
        0.10810951888561249,
        -0.1447797566652298,
        0.21384745836257935
      ],
      [
        -0.1590409129858017,
        -0.15227165818214417,
        0.02500455267727375,
        -0.17628534138202667,
        0.07974903285503387,
        -0.22420993447303772,
        0.4170084595680237,
        -0.15680918097496033,
        0.32889324426651,
        0.20091448724269867,
        -0.06598193943500519,
        0.15030701458454132
      ],
      [
        0.10076291859149933,
        0.18221960961818695,
        0.09641816467046738,
        -0.035846732556819916,
        0.10869831591844559,
        -0.08414506167173386,
        0.3004416525363922,
        0.3324780762195587,
        0.2639031410217285,
        -0.06814359128475189,
        0.13108524680137634,
        0.09230107069015503
      ],
      [
        0.10063957422971725,
        -0.19264747202396393,
        -0.2857619524002075,
        -0.11153267323970795,
        -0.22142042219638824,
        0.1768762469291687,
        0.03136751800775528,
        0.08843502402305603,
        0.0912967324256897,
        -0.046680036932229996,
        0.18359436094760895,
        -0.20510759949684143
      ],
      [
        0.03581995889544487,
        -0.2856079041957855,
        0.14565858244895935,
        -0.1399896889925003,
        0.1439511775970459,
        -0.01234051026403904,
        0.4452902674674988,
        -0.05094580352306366,
        -0.2030561864376068,
        -0.03291260451078415,
        0.22815144062042236,
        0.1354711949825287
      ],
      [
        0.4241486191749573,
        -0.2406584918498993,
        -0.20502617955207825,
        -0.16164252161979675,
        -0.1313202679157257,
        0.08017660677433014,
        0.27054181694984436,
        0.3148205280303955,
        -0.08820060640573502,
        -0.09646131843328476,
        0.1179753839969635,
        -0.11362804472446442
      ],
      [
        0.29996487498283386,
        -0.1608644723892212,
        0.23832133412361145,
        -0.13341978192329407,
        -0.109908327460289,
        0.06512358784675598,
        0.2276899665594101,
        0.017973707988858223,
        0.22625036537647247,
        0.3179316818714142,
        -0.17947068810462952,
        -0.19012489914894104
      ],
      [
        0.426374226808548,
        -0.07674307376146317,
        -0.04562466964125633,
        -0.2176268845796585,
        -0.11993984133005142,
        0.01633065566420555,
        0.13910844922065735,
        -0.1409643292427063,
        0.04239807277917862,
        -0.19884122908115387,
        -0.20813745260238647,
        -0.20782384276390076
      ],
      [
        -0.1269245594739914,
        -0.1660335659980774,
        0.306061714887619,
        0.17469696700572968,
        0.06898099184036255,
        -0.29112306237220764,
        -0.2756330966949463,
        -0.1515221893787384,
        0.04555309936404228,
        -0.30706456303596497,
        -0.10967325419187546,
        -0.10488879680633545
      ],
      [
        -0.053583770990371704,
        -0.12405805289745331,
        -0.009138448163866997,
        -0.2508593499660492,
        -0.21742400527000427,
        -0.16841359436511993,
        0.07773325592279434,
        -0.22784575819969177,
        0.26749616861343384,
        -0.02253699116408825,
        0.21424461901187897,
        0.11010105907917023
      ],
      [
        -0.1481172889471054,
        0.23653359711170197,
        -0.06696384400129318,
        -0.09039156138896942,
        -0.21790951490402222,
        -0.3143393397331238,
        0.26648399233818054,
        0.07322696596384048,
        0.12626945972442627,
        -0.2853931784629822,
        0.230839341878891,
        -0.24536830186843872
      ],
      [
        0.10722631216049194,
        0.1297520250082016,
        0.11437847465276718,
        0.3503345549106598,
        0.2293480634689331,
        -0.3121436834335327,
        0.24670465290546417,
        -0.0032436151523143053,
        0.011485490016639233,
        -0.32037246227264404,
        0.21499569714069366,
        -0.17981459200382233
      ],
      [
        0.2823956310749054,
        0.06730282306671143,
        0.1815771907567978,
        -0.2088489830493927,
        0.2836403250694275,
        0.041824985295534134,
        0.21788358688354492,
        -0.2148076295852661,
        0.06723200529813766,
        0.09969323128461838,
        -0.14941291511058807,
        0.2213839292526245
      ],
      [
        0.15750746428966522,
        -0.14802676439285278,
        -0.015202587470412254,
        -0.02304386906325817,
        0.2314653843641281,
        -0.03661387041211128,
        -0.09001659601926804,
        -0.026038242504000664,
        -0.17621676623821259,
        0.3121391832828522,
        0.2052992880344391,
        -0.3235291540622711
      ],
      [
        0.1805020570755005,
        0.1320561170578003,
        0.18486802279949188,
        -0.09489468485116959,
        0.18316549062728882,
        0.16721709072589874,
        0.19008682668209076,
        0.013675606809556484,
        -0.0055393013171851635,
        0.21257822215557098,
        -0.07559584081172943,
        -0.10029073804616928
      ],
      [
        0.36327213048934937,
        0.22269777953624725,
        -0.024158252403140068,
        0.010150164365768433,
        0.04829312115907669,
        -0.09343786537647247,
        0.256201833486557,
        0.19258439540863037,
        -0.2917080223560333,
        -0.20076008141040802,
        0.24171455204486847,
        0.09811476618051529
      ],
      [
        0.0526694655418396,
        -0.16453668475151062,
        -0.17661291360855103,
        -0.2260858565568924,
        -0.06035872921347618,
        0.1928197741508484,
        0.3502608835697174,
        0.23969413340091705,
        -0.2551726698875427,
        -0.11148547381162643,
        -0.058194346725940704,
        0.32008427381515503
      ],
      [
        0.07367905229330063,
        -0.12059041112661362,
        0.22273632884025574,
        -0.10422400385141373,
        -0.08948252350091934,
        0.2527141273021698,
        -0.1065651997923851,
        0.031040431931614876,
        -0.2775815725326538,
        0.38443464040756226,
        0.1918891966342926,
        0.11398543417453766
      ],
      [
        -0.07241728901863098,
        -0.22444596886634827,
        -0.2914029657840729,
        0.3730233311653137,
        0.11198277026414871,
        0.17698433995246887,
        0.3621588945388794,
        0.14867177605628967,
        0.0989750400185585,
        -0.28498369455337524,
        -0.14479365944862366,
        -0.11298014968633652
      ],
      [
        0.23429542779922485,
        -0.08753036707639694,
        0.09140631556510925,
        -0.09456956386566162,
        0.08367843180894852,
        -0.11275216937065125,
        -0.13270437717437744,
        0.1940317302942276,
        -0.13545334339141846,
        0.42282769083976746,
        -0.0074829887598752975,
        -0.19221605360507965
      ],
      [
        0.05532161518931389,
        -0.08090338855981827,
        -0.09456431120634079,
        -0.28376057744026184,
        0.08301205933094025,
        -0.2718975841999054,
        0.2924458980560303,
        0.16486285626888275,
        0.21149097383022308,
        -0.3735085427761078,
        0.14126473665237427,
        -0.15976384282112122
      ],
      [
        0.19415231049060822,
        0.23917508125305176,
        0.09491555392742157,
        -0.005433246493339539,
        0.039774831384420395,
        -0.1293451189994812,
        0.16230908036231995,
        -0.2424180656671524,
        0.20253460109233856,
        0.4114866852760315,
        0.21883459389209747,
        -0.13708509504795074
      ],
      [
        -0.2712675631046295,
        0.006833767052739859,
        0.26287397742271423,
        -0.31279656291007996,
        0.005135498475283384,
        -0.25289368629455566,
        0.1404319405555725,
        -0.016134487465023994,
        -0.12292153388261795,
        0.058225199580192566,
        -0.2183145135641098,
        0.2245585173368454
      ],
      [
        0.3100457787513733,
        -0.10455399751663208,
        0.057385336607694626,
        -0.1577642261981964,
        -0.1886749118566513,
        -0.2722815275192261,
        0.2674189507961273,
        -0.08769822865724564,
        -0.17633096873760223,
        0.07194218039512634,
        -0.11911841481924057,
        -0.0755169466137886
      ],
      [
        0.06565500050783157,
        -0.04982895404100418,
        -0.05222347378730774,
        -0.17270375788211823,
        -0.22663134336471558,
        0.3536147177219391,
        -0.1264476627111435,
        0.09057189524173737,
        -0.10016042739152908,
        0.11511389166116714,
        0.3082680404186249,
        0.19717518985271454
      ],
      [
        -0.22929337620735168,
        0.08652151376008987,
        0.37390607595443726,
        0.14670583605766296,
        0.2515224814414978,
        0.335395485162735,
        0.035111203789711,
        0.13238561153411865,
        -0.13631825149059296,
        0.1321074217557907,
        0.19119195640087128,
        0.178786963224411
      ],
      [
        -0.1826704442501068,
        -0.23148426413536072,
        -0.19727009534835815,
        -0.28488704562187195,
        -0.22275298833847046,
        -0.0713886097073555,
        0.16801996529102325,
        0.04831909015774727,
        -0.21956788003444672,
        -0.23158209025859833,
        0.11680835485458374,
        -0.2147284746170044
      ],
      [
        0.02488178014755249,
        0.180155411362648,
        -0.1336023360490799,
        -0.0510738268494606,
        -0.025127576664090157,
        -0.06829573214054108,
        -0.04070185124874115,
        -0.2573360800743103,
        -0.23335255682468414,
        -0.16351285576820374,
        0.30841967463493347,
        -0.16175998747348785
      ],
      [
        -0.06228246912360191,
        0.04704979062080383,
        0.054587628692388535,
        0.2729260325431824,
        0.25141453742980957,
        0.18992170691490173,
        -0.29758602380752563,
        0.11974126100540161,
        0.24937200546264648,
        0.18104857206344604,
        -0.16473129391670227,
        0.33871492743492126
      ],
      [
        -0.08730745315551758,
        -0.14921173453330994,
        -0.2602565288543701,
        0.029934287071228027,
        0.18489105999469757,
        0.020165307447314262,
        0.18037840723991394,
        -0.21892759203910828,
        -0.26959002017974854,
        -0.07567392289638519,
        0.2968760132789612,
        0.18291577696800232
      ],
      [
        -0.1412181407213211,
        -0.09041518718004227,
        -0.20766814053058624,
        -0.08074379712343216,
        0.08247943967580795,
        0.13723935186862946,
        0.4311615526676178,
        -0.14480553567409515,
        0.28538379073143005,
        -0.2463567852973938,
        0.039469584822654724,
        0.2784461975097656
      ],
      [
        -0.04009149223566055,
        0.22881841659545898,
        -0.14128455519676208,
        -0.13656564056873322,
        0.23070202767848969,
        0.031675878912210464,
        0.005155924241989851,
        -0.06030217930674553,
        0.26449376344680786,
        0.3420628607273102,
        0.084254190325737,
        -0.15879489481449127
      ],
      [
        -0.1511341631412506,
        0.0029242453165352345,
        0.07756581157445908,
        -0.06581590324640274,
        -0.004251130390912294,
        0.17730440199375153,
        0.2391674816608429,
        0.09469810873270035,
        -0.11541830748319626,
        -0.2615855932235718,
        -0.1967981457710266,
        -0.035102762281894684
      ],
      [
        -0.037643469870090485,
        0.09162159264087677,
        -0.10084787756204605,
        -0.03833399713039398,
        0.3365147113800049,
        0.19154195487499237,
        0.38597407937049866,
        -0.09360016137361526,
        -0.12841114401817322,
        0.29299578070640564,
        -0.22490906715393066,
        -0.17352473735809326
      ],
      [
        0.027046741917729378,
        -0.1452176719903946,
        -0.1144658625125885,
        0.18946166336536407,
        0.2833591401576996,
        0.08201948553323746,
        0.045477427542209625,
        -0.23221231997013092,
        -0.03982482850551605,
        0.2707354724407196,
        0.10293081402778625,
        -0.0004417406162247062
      ],
      [
        -0.014540133066475391,
        0.1146167740225792,
        -0.2853083610534668,
        0.3657473921775818,
        -0.08716697245836258,
        0.0045990352518856525,
        -0.07919331640005112,
        0.10326851159334183,
        -0.010517491027712822,
        0.29630810022354126,
        -0.04507717490196228,
        0.29931163787841797
      ],
      [
        0.37191885709762573,
        -0.08861209452152252,
        -0.24375051259994507,
        0.21520057320594788,
        0.2177983969449997,
        -0.257112056016922,
        0.051135916262865067,
        -0.25328314304351807,
        -0.2598058581352234,
        0.08902701735496521,
        0.0993524044752121,
        0.06171136721968651
      ],
      [
        -0.04165944084525108,
        0.20797334611415863,
        0.0665677860379219,
        -0.15741701424121857,
        0.04307910054922104,
        0.0567919984459877,
        0.30299702286720276,
        -0.09980993717908859,
        0.14746218919754028,
        -0.05461077392101288,
        -0.18640504777431488,
        -0.07960488647222519
      ],
      [
        0.42263785004615784,
        0.2307077944278717,
        0.2972181737422943,
        0.2656884491443634,
        0.1903340220451355,
        -0.09144865721464157,
        -0.1722426563501358,
        0.1758011132478714,
        -0.08518077433109283,
        -0.1716306209564209,
        -0.1289597600698471,
        0.12802563607692719
      ],
      [
        0.25461345911026,
        -0.1348107010126114,
        -0.04790641367435455,
        0.044837940484285355,
        -0.10425014048814774,
        -0.17755138874053955,
        0.28962233662605286,
        0.040851615369319916,
        0.3224966824054718,
        0.45969897508621216,
        0.06670726090669632,
        0.10921188443899155
      ],
      [
        0.14121413230895996,
        -0.019651560112833977,
        -0.02099604904651642,
        0.03268196061253548,
        0.09951094537973404,
        0.36196935176849365,
        -0.024603383615612984,
        -0.06108975410461426,
        -0.06990697234869003,
        -0.017612114548683167,
        -0.015861568972468376,
        0.2649754285812378
      ],
      [
        0.4292789399623871,
        0.2302156537771225,
        -0.17864763736724854,
        -0.040102727711200714,
        -0.01668161153793335,
        -0.15858787298202515,
        0.19511014223098755,
        -0.19561776518821716,
        0.12769608199596405,
        -0.23987612128257751,
        -0.0704863891005516,
        -0.24947760999202728
      ],
      [
        0.3963448405265808,
        -0.22451545298099518,
        0.29178985953330994,
        -0.1083402931690216,
        -0.023677121847867966,
        0.1022992953658104,
        0.11402349919080734,
        0.20680831372737885,
        0.21131405234336853,
        -0.18759360909461975,
        0.08562107384204865,
        0.051658324897289276
      ],
      [
        0.14117637276649475,
        -0.009529303759336472,
        0.19338996708393097,
        -0.18069633841514587,
        0.020051343366503716,
        0.28188884258270264,
        0.37086042761802673,
        0.0698774978518486,
        -0.27393049001693726,
        0.15831893682479858,
        -0.18706052005290985,
        0.2156965285539627
      ],
      [
        -0.12243324518203735,
        -0.053834881633520126,
        -0.03632933273911476,
        0.1470373570919037,
        0.31367799639701843,
        0.018541468307375908,
        0.33675023913383484,
        0.3225739896297455,
        0.3230271339416504,
        -0.023553621023893356,
        -0.1049618050456047,
        0.16753016412258148
      ],
      [
        -0.07729994505643845,
        0.0968180000782013,
        0.06055387482047081,
        -0.25910061597824097,
        0.1555623561143875,
        0.07643667608499527,
        0.1452312022447586,
        0.33894240856170654,
        0.252578467130661,
        0.45975178480148315,
        -0.020611923187971115,
        -0.24009260535240173
      ],
      [
        -0.26290151476860046,
        -0.11836974322795868,
        -0.18571415543556213,
        -0.16875410079956055,
        -0.20962519943714142,
        -0.30238378047943115,
        -0.08409925550222397,
        -0.25370025634765625,
        -0.13814304769039154,
        0.302531898021698,
        0.22755013406276703,
        -0.1474914699792862
      ],
      [
        -0.054195206612348557,
        0.11013779789209366,
        -0.033594850450754166,
        -0.1080591082572937,
        0.23841775953769684,
        -0.1830456405878067,
        0.17467981576919556,
        0.34640565514564514,
        0.1441284716129303,
        0.27279189229011536,
        -0.20763948559761047,
        0.019091222435235977
      ],
      [
        0.14306093752384186,
        0.07021491974592209,
        0.18874548375606537,
        0.3569908142089844,
        -0.2006695717573166,
        -0.009643441066145897,
        -0.07759251445531845,
        -0.14927470684051514,
        0.038099225610494614,
        -0.16694751381874084,
        0.2038157433271408,
        0.1030450090765953
      ],
      [
        -0.10050974786281586,
        0.12110487371683121,
        -0.13496063649654388,
        -0.08295772224664688,
        0.06497223675251007,
        -0.22365406155586243,
        -0.16031846404075623,
        0.06846049427986145,
        0.295282244682312,
        0.5164047479629517,
        0.16348688304424286,
        -0.23197512328624725
      ],
      [
        -0.26929301023483276,
        0.2311304807662964,
        0.20115254819393158,
        0.009235329926013947,
        0.0636945590376854,
        -0.3023214042186737,
        -0.10816317051649094,
        0.3075520098209381,
        -0.003201382467523217,
        0.20246084034442902,
        -0.18558885157108307,
        -0.12007427960634232
      ],
      [
        0.06209065765142441,
        -0.14917819201946259,
        0.09376741200685501,
        0.14041823148727417,
        -0.21120311319828033,
        0.1289665549993515,
        -0.1449272334575653,
        -0.07561727613210678,
        0.1555575579404831,
        0.44305849075317383,
        -0.10594572126865387,
        -0.09443216025829315
      ],
      [
        -0.22736795246601105,
        -0.20352362096309662,
        -0.28023773431777954,
        -0.03150034695863724,
        0.0951109379529953,
        -0.22537460923194885,
        0.43035027384757996,
        0.241907998919487,
        -0.3259664475917816,
        -0.12204369157552719,
        0.05548095703125,
        -0.035807956010103226
      ],
      [
        0.08195651322603226,
        -0.10426937788724899,
        0.282135546207428,
        -0.27079346776008606,
        0.27732473611831665,
        0.021739304065704346,
        0.2778376042842865,
        0.31264087557792664,
        -0.04756373167037964,
        -0.2504228353500366,
        -0.05289880558848381,
        0.23456521332263947
      ],
      [
        -0.12961030006408691,
        0.10279817879199982,
        -0.30749934911727905,
        0.2295992076396942,
        0.17178255319595337,
        -0.00025956699391826987,
        0.3109990358352661,
        0.10984788089990616,
        0.21855050325393677,
        -0.20028485357761383,
        -0.05272640287876129,
        0.20898234844207764
      ],
      [
        0.38848090171813965,
        0.17890241742134094,
        -0.1442750245332718,
        0.34241119027137756,
        0.013916994445025921,
        -0.055537715554237366,
        -0.18328642845153809,
        0.040744438767433167,
        0.25170499086380005,
        0.20472465455532074,
        -0.1627206951379776,
        0.18391627073287964
      ],
      [
        -0.12149877846240997,
        0.1911143660545349,
        -0.13623572885990143,
        -0.009490536525845528,
        -0.1907796412706375,
        0.0068880366161465645,
        0.18400664627552032,
        0.3664970099925995,
        0.14687339961528778,
        0.493853896856308,
        -0.004848918877542019,
        0.19807076454162598
      ],
      [
        0.37361910939216614,
        0.1948336958885193,
        -0.14031900465488434,
        0.3584595322608948,
        0.1280677169561386,
        -0.22129204869270325,
        -0.08549120277166367,
        -0.17993557453155518,
        0.128310427069664,
        -0.34680792689323425,
        0.11657753586769104,
        0.12819208204746246
      ],
      [
        -0.18874943256378174,
        0.08337627351284027,
        -0.06100083142518997,
        0.18681569397449493,
        0.20307475328445435,
        -0.2504270076751709,
        0.43514543771743774,
        0.3297395408153534,
        0.10664119571447372,
        -0.18266449868679047,
        -0.04800346493721008,
        -0.022502703592181206
      ],
      [
        0.05640803650021553,
        0.12005805224180222,
        0.1354711353778839,
        0.3004615604877472,
        -0.10481040179729462,
        0.06369136273860931,
        0.20319122076034546,
        -0.14570799469947815,
        -0.21552236378192902,
        -0.12178962677717209,
        0.1490653157234192,
        -0.2232692390680313
      ],
      [
        -0.21001379191875458,
        0.13903911411762238,
        0.2124909907579422,
        0.30905023217201233,
        -0.2677243649959564,
        -0.2559721767902374,
        0.24537509679794312,
        0.34505683183670044,
        0.2579878866672516,
        0.21733461320400238,
        0.07439898699522018,
        0.31187257170677185
      ],
      [
        -0.10788457095623016,
        -0.1770191490650177,
        0.2629638910293579,
        -0.22076468169689178,
        -0.1025417149066925,
        0.1861371099948883,
        0.27276065945625305,
        0.1906137615442276,
        -0.12625612318515778,
        -0.020197616890072823,
        0.21075399219989777,
        -0.17200039327144623
      ],
      [
        0.1126144528388977,
        0.1354994922876358,
        -0.1257116049528122,
        0.38418301939964294,
        -0.08615468442440033,
        -0.06708399951457977,
        -0.09269779175519943,
        -0.09302779287099838,
        -0.2111530303955078,
        0.3364734947681427,
        0.06646954268217087,
        -0.15032172203063965
      ]
    ],
    "net.0.bias": [
      -0.03562363609671593,
      0.3508363664150238,
      0.18477120995521545,
      0.17380979657173157,
      -0.22878196835517883,
      0.009068164974451065,
      0.05707315355539322,
      0.08178751915693283,
      -0.031623855233192444,
      0.15446512401103973,
      0.05288033187389374,
      0.09057620167732239,
      0.18355554342269897,
      -0.016200000420212746,
      0.17316915094852448,
      0.17905718088150024,
      -0.010892663151025772,
      -0.13157203793525696,
      0.2303251326084137,
      0.2331501841545105,
      0.07429875433444977,
      0.3433622717857361,
      -0.022747470065951347,
      0.3016544282436371,
      0.2083524614572525,
      -0.15449360013008118,
      0.266956627368927,
      -0.2922292649745941,
      -0.1298055201768875,
      0.09263341128826141,
      -0.11901374906301498,
      0.3385179042816162,
      0.05133134499192238,
      0.25453439354896545,
      -0.09336332231760025,
      0.2696296274662018,
      0.03199116513133049,
      -0.15411654114723206,
      0.16119693219661713,
      0.19408270716667175,
      0.33660730719566345,
      -0.1408054530620575,
      0.061343658715486526,
      0.103584423661232,
      0.16126736998558044,
      0.1924912929534912,
      0.2283628135919571,
      0.09979195147752762,
      0.2511475086212158,
      0.29023534059524536,
      0.11218687891960144,
      0.29262426495552063,
      0.25704729557037354,
      0.3224160969257355,
      -0.004906236659735441,
      0.010877421125769615,
      0.0346168577671051,
      0.1259191632270813,
      0.24048297107219696,
      -0.016623811796307564,
      0.2141866534948349,
      0.011918029747903347,
      0.22133414447307587,
      0.09647178649902344
    ],
    "net.2.weight": [
      [
        -0.09847892075777054,
        -0.03208855912089348,
        0.045197371393442154,
        0.1273866444826126,
        -0.07950958609580994,
        0.10633265227079391,
        0.022645218297839165,
        0.0031801220029592514,
        -0.07670654356479645,
        -0.08811387419700623,
        -0.10013148933649063,
        -0.08355100452899933,
        0.021155666559934616,
        -0.012645426206290722,
        0.04115994647145271,
        0.034896790981292725,
        -0.007087734993547201,
        0.2699245512485504,
        0.07886212319135666,
        0.08455541729927063,
        -0.13122229278087616,
        0.08182885497808456,
        -0.031666070222854614,
        0.17071175575256348,
        0.12086150795221329,
        -0.026310965418815613,
        0.19896472990512848,
        0.14287084341049194,
        -0.05389448255300522,
        0.01144189853221178,
        0.10067765414714813,
        0.03268466889858246,
        -0.018109142780303955,
        0.20631535351276398,
        0.24688898026943207,
        0.11057159304618835,
        0.14994880557060242,
        -0.12858013808727264,
        0.07245314121246338,
        0.12366802245378494,
        0.11541921645402908,
        0.07216762751340866,
        -0.1586112082004547,
        -0.05640832707285881,
        0.16221196949481964,
        0.13008125126361847,
        0.16917920112609863,
        0.02139809913933277,
        0.149590864777565,
        0.08039069920778275,
        0.10834429413080215,
        0.1664918214082718,
        0.16219310462474823,
        0.22299379110336304,
        0.2096262276172638,
        0.10761532932519913,
        -0.053733114153146744,
        0.13847102224826813,
        -0.007606802973896265,
        0.07769568264484406,
        0.04146226868033409,
        0.15039607882499695,
        0.16860009729862213,
        0.12136198580265045
      ],
      [
        -0.044386789202690125,
        -0.051403120160102844,
        -0.030953913927078247,
        -0.048312872648239136,
        0.11240285634994507,
        0.06620566546916962,
        0.11287195980548859,
        0.0003992021083831787,
        0.025208860635757446,
        0.04334558546543121,
        -0.11831913888454437,
        0.01116207242012024,
        -0.008361250162124634,
        -0.07008175551891327,
        -0.09699341654777527,
        0.11065930128097534,
        0.10163325071334839,
        0.05793358385562897,
        0.11928121745586395,
        -0.05072598159313202,
        -0.02159033715724945,
        0.047327324748039246,
        -0.020653322339057922,
        -0.0245293527841568,
        -0.1033201813697815,
        0.0335826575756073,
        -0.07554090023040771,
        0.004545778036117554,
        0.1218719482421875,
        -0.038476914167404175,
        -0.03939896821975708,
        0.07541410624980927,
        -0.04595665633678436,
        -0.0107346773147583,
        0.11671730875968933,
        -0.05124671757221222,
        -0.08942627906799316,
        -0.06995546817779541,
        -0.03465570509433746,
        -0.05931234359741211,
        -0.06486646831035614,
        0.050493061542510986,
        0.021242216229438782,
        -0.04000769555568695,
        -0.09711392223834991,
        -0.03935748338699341,
        -0.05275489389896393,
        -0.04067736864089966,
        -0.112765371799469,
        0.026928633451461792,
        -0.09184044599533081,
        -0.09734989702701569,
        -0.10212914645671844,
        0.052172958850860596,
        -0.07525333762168884,
        -0.051593855023384094,
        0.0979800820350647,
        0.06637053191661835,
        0.07167389988899231,
        -0.11868831515312195,
        -0.08963747322559357,
        -0.04718887805938721,
        0.10326220095157623,
        0.012787550687789917
      ],
      [
        -0.09348714351654053,
        0.0007827281951904297,
        -0.09708385169506073,
        -0.027387410402297974,
        -0.03437188267707825,
        0.10820770263671875,
        0.03871709108352661,
        -0.021796390414237976,
        0.021116092801094055,
        -0.03608319163322449,
        0.04911254346370697,
        0.04944548010826111,
        0.03356826305389404,
        -0.04872211813926697,
        0.10664384067058563,
        -0.018046244978904724,
        -0.04866458475589752,
        0.07828925549983978,
        0.10188208520412445,
        0.1243949681520462,
        0.037032291293144226,
        -0.042611733078956604,
        0.0634865015745163,
        0.10724431276321411,
        -0.12260426580905914,
        -0.015485867857933044,
        -0.08524568378925323,
        0.023294970393180847,
        0.05169810354709625,
        -0.02582348883152008,
        -0.010457143187522888,
        0.05626384913921356,
        -0.02100871503353119,
        -0.10497243702411652,
        0.1000169962644577,
        -0.06291431188583374,
        -0.013732314109802246,
        0.011790797114372253,
        -0.007512107491493225,
        -0.11758574843406677,
        0.05734999477863312,
        -0.056778937578201294,
        -0.06483244895935059,
        0.02986443042755127,
        -0.06523275375366211,
        -0.057769954204559326,
        -0.04211874306201935,
        -0.04695969820022583,
        -0.0522046834230423,
        -0.03371073305606842,
        0.032484471797943115,
        -0.10115224123001099,
        -0.07566003501415253,
        0.0018239319324493408,
        0.01738351583480835,
        0.0690365582704544,
        -0.08780549466609955,
        0.039899617433547974,
        0.07104872167110443,
        0.06940752267837524,
        -0.11642768979072571,
        -0.04770052433013916,
        -0.10744570195674896,
        -0.07910142838954926
      ],
      [
        0.057381656020879745,
        -0.03370961174368858,
        0.053490880876779556,
        -0.0876542255282402,
        0.007174528669565916,
        -0.08035259693861008,
        0.05134641379117966,
        -0.06757158786058426,
        -0.03853077068924904,
        -0.11896761506795883,
        -0.01129810232669115,
        0.12881609797477722,
        0.04572814702987671,
        -0.07345939427614212,
        -0.009012487716972828,
        -0.02766488492488861,
        -0.09531072527170181,
        0.09245579689741135,
        -0.012733636423945427,
        0.0080740787088871,
        -0.0651821419596672,
        -0.07050639390945435,
        0.008398097939789295,
        0.043907616287469864,
        0.025702737271785736,
        -0.06729338318109512,
        0.10148743540048599,
        -0.01239803433418274,
        -0.08354201912879944,
        -0.07654863595962524,
        0.11998070776462555,
        -0.013520014472305775,
        -0.014698564074933529,
        -0.0679219514131546,
        -0.04109782725572586,
        -0.11939581483602524,
        -0.11125821620225906,
        0.0662263035774231,
        0.09740900993347168,
        0.10298705101013184,
        -0.10613102465867996,
        0.0596785843372345,
        -0.0824228897690773,
        0.060415271669626236,
        0.07592982053756714,
        0.08010189980268478,
        0.07357488572597504,
        0.06787073612213135,
        -0.004168516490608454,
        0.0402272492647171,
        -0.06829309463500977,
        0.03819241374731064,
        -0.05635606497526169,
        -0.01258457638323307,
        -0.10679534822702408,
        -0.035906605422496796,
        -0.07567272335290909,
        -0.050305675715208054,
        -0.09057187288999557,
        -0.12022215127944946,
        -0.010859831236302853,
        0.06492666900157928,
        0.09635697305202484,
        0.060447994619607925
      ],
      [
        0.06930845230817795,
        -0.0249498151242733,
        -0.021379776298999786,
        0.09496879577636719,
        -0.10662651062011719,
        -0.0371638759970665,
        0.18252699077129364,
        0.12190708518028259,
        0.047270286828279495,
        0.18681210279464722,
        0.014363533817231655,
        0.020173396915197372,
        -0.04455064237117767,
        0.13513998687267303,
        0.031213367357850075,
        0.16873396933078766,
        0.025600938126444817,
        -0.07829239219427109,
        0.1154046580195427,
        0.018405724316835403,
        0.1625499576330185,
        0.02081882581114769,
        0.004890056326985359,
        -0.20194518566131592,
        0.04071380943059921,
        0.044617991894483566,
        -0.02002827264368534,
        0.021974069997668266,
        -0.022331442683935165,
        0.1899256557226181,
        -0.007836119271814823,
        0.023389292880892754,
        -0.0375271774828434,
        -0.16982051730155945,
        -0.07323594391345978,
        -0.006424979772418737,
        0.19829241931438446,
        0.055597249418497086,
        2.5172425011987798e-05,
        0.24519211053848267,
        0.13310740888118744,
        0.024099009111523628,
        0.04153575375676155,
        0.21873338520526886,
        -0.013237055391073227,
        -0.12684637308120728,
        0.13872280716896057,
        -0.053418856114149094,
        0.014851249754428864,
        0.20464302599430084,
        -0.036821216344833374,
        -0.05760384351015091,
        0.13150914013385773,
        -0.047118086367845535,
        -0.07268445938825607,
        -0.18203064799308777,
        0.15939290821552277,
        -0.04847528412938118,
        0.05677827447652817,
        -0.21179115772247314,
        0.10629180818796158,
        0.01223871298134327,
        -0.14161543548107147,
        0.20913781225681305
      ],
      [
        0.017516370862722397,
        -0.01445669587701559,
        -0.06738895922899246,
        -0.019177725538611412,
        0.11301029473543167,
        0.08866677433252335,
        -0.13168400526046753,
        0.07976343482732773,
        -0.021613145247101784,
        0.022832877933979034,
        0.09520726650953293,
        0.09017200767993927,
        -0.12828220427036285,
        0.06601741164922714,
        -0.12224997580051422,
        -0.0383986234664917,
        -0.11510799080133438,
        -0.009688511490821838,
        -0.04269394278526306,
        -0.04499230533838272,
        -0.03929923474788666,
        -0.01219186931848526,
        0.08811861276626587,
        0.06896723806858063,
        0.026248255744576454,
        0.051846351474523544,
        0.06016373261809349,
        0.006906246300786734,
        0.013202907517552376,
        0.0010017066961154342,
        -0.09669893234968185,
        -0.1210668608546257,
        -0.022655846551060677,
        -0.07585415989160538,
        -0.046256907284259796,
        -0.06217103824019432,
        -0.017140239477157593,
        0.059358421713113785,
        -0.09726263582706451,
        0.059778857976198196,
        0.06432410329580307,
        -0.10577620565891266,
        -0.13391989469528198,
        -0.13521575927734375,
        -0.11224210262298584,
        -0.07497542351484299,
        -0.04350270703434944,
        -0.03829485550522804,
        -0.10391701012849808,
        -0.07375668734312057,
        -0.07453005015850067,
        0.07995536178350449,
        -0.08379071205854416,
        -0.1181805357336998,
        0.04948002099990845,
        -0.021227901801466942,
        0.05816101282835007,
        0.04810739681124687,
        0.0846937745809555,
        -0.12310966849327087,
        0.04154297709465027,
        0.08183160424232483,
        -0.08627796918153763,
        0.07353536784648895
      ],
      [
        0.22162795066833496,
        0.0817294791340828,
        0.05400928482413292,
        -0.00362045387737453,
        -0.10003523528575897,
        -0.00081392761785537,
        0.07989967614412308,
        -0.009472458623349667,
        0.10581066459417343,
        0.00882362574338913,
        0.07850970327854156,
        0.09419099241495132,
        0.10539510846138,
        -0.05437859147787094,
        0.13925829529762268,
        0.06331534683704376,
        0.058003973215818405,
        -0.0072366464883089066,
        0.15582412481307983,
        0.013061913661658764,
        0.07952014356851578,
        0.01604842208325863,
        0.0506247840821743,
        0.07829123735427856,
        -0.005374824162572622,
        -0.06614185124635696,
        0.07083304971456528,
        -0.028594279661774635,
        0.06269198656082153,
        0.1533069908618927,
        -0.18673498928546906,
        0.006439384073019028,
        -0.03818903863430023,
        -0.005300653167068958,
        -0.02332877740263939,
        -0.04588190093636513,
        0.11752259731292725,
        0.1145210787653923,
        -0.0583844929933548,
        0.2187080979347229,
        0.04705313965678215,
        0.11417488008737564,
        0.11260932683944702,
        -0.04303351789712906,
        0.05543673783540726,
        0.15279173851013184,
        -0.04727558791637421,
        -0.08326952904462814,
        0.1685221791267395,
        0.19496028125286102,
        -0.013778339140117168,
        0.13794520497322083,
        0.09157586842775345,
        -0.09676623344421387,
        -0.04199528321623802,
        0.05454440414905548,
        0.10279068350791931,
        0.09266609698534012,
        0.0010659806430339813,
        0.0680011734366417,
        0.17214109003543854,
        0.14315557479858398,
        0.018892589956521988,
        0.16594542562961578
      ],
      [
        -0.1092032864689827,
        -0.04897646978497505,
        -0.028544189408421516,
        -0.08825041353702545,
        -0.10847558081150055,
        0.06647052615880966,
        0.06922124326229095,
        -0.12308953702449799,
        0.03516904264688492,
        0.033001162111759186,
        0.09973518550395966,
        0.054929375648498535,
        0.09435296058654785,
        -0.05148548632860184,
        0.0685177892446518,
        0.08728811144828796,
        -0.13549518585205078,
        -0.10545411705970764,
        0.006284339353442192,
        0.04917733743786812,
        -0.06210163235664368,
        -0.004151498898863792,
        -0.019203979521989822,
        0.021916387602686882,
        -0.08345437794923782,
        0.05520014092326164,
        0.06296776235103607,
        -0.10174600780010223,
        -0.015967298299074173,
        -0.017642386257648468,
        0.02151021547615528,
        0.09702277928590775,
        0.019949408248066902,
        -0.039248477667570114,
        0.10494844615459442,
        -0.06795020401477814,
        -0.057564958930015564,
        -0.00408530468121171,
        -0.10481143742799759,
        -0.0046087936498224735,
        -0.10452176630496979,
        -0.00019555632025003433,
        0.0021548147778958082,
        0.0015559684252366424,
        -0.11825618892908096,
        -0.13706238567829132,
        0.04042798653244972,
        0.09483707696199417,
        -0.1277172565460205,
        0.025353725999593735,
        -0.10357482731342316,
        -0.012676887214183807,
        0.0963636189699173,
        0.0739741399884224,
        -0.09672237932682037,
        0.06663206219673157,
        0.04896460846066475,
        -0.018074210733175278,
        0.10139492899179459,
        -0.05988325923681259,
        -0.05000883713364601,
        -0.08397996425628662,
        -0.0006663394742645323,
        0.012552023865282536
      ],
      [
        -0.041731081902980804,
        -0.045962855219841,
        0.11100337654352188,
        0.14725583791732788,
        -0.09180349856615067,
        0.15490882098674774,
        0.05904200300574303,
        0.051449865102767944,
        -0.033651188015937805,
        -0.03930510953068733,
        0.08991069346666336,
        0.09571515768766403,
        -0.0023543010465800762,
        0.1572052389383316,
        0.0013031266862526536,
        0.05640725791454315,
        -0.09216442704200745,
        0.2021510750055313,
        -0.11905835568904877,
        0.19869422912597656,
        -0.011924595572054386,
        0.0015967509243637323,
        -0.03253921866416931,
        0.053872913122177124,
        0.19582319259643555,
        0.014459929428994656,
        0.08673053979873657,
        0.13189169764518738,
        -0.10693876445293427,
        -0.12698936462402344,
        0.06956611573696136,
        0.1768423467874527,
        0.1538025140762329,
        0.16147056221961975,
        0.26459863781929016,
        0.13715526461601257,
        0.1683529168367386,
        -0.21870259940624237,
        0.2666977345943451,
        -0.15141120553016663,
        0.20680966973304749,
        0.02813834138214588,
        -0.2055560052394867,
        0.04488084465265274,
        0.10714281350374222,
        0.03769920766353607,
        0.0646289810538292,
        0.016484906896948814,
        0.21648693084716797,
        -0.040109604597091675,
        0.10131164640188217,
        0.09823106229305267,
        0.029759075492620468,
        0.16664989292621613,
        0.08890093117952347,
        0.07376255095005035,
        -0.08174974471330643,
        0.005402036011219025,
        -0.11543115228414536,
        0.16973191499710083,
        -0.0026806946843862534,
        0.10436806082725525,
        0.0997953712940216,
        -0.014909191057085991
      ],
      [
        0.0917721539735794,
        0.09315701574087143,
        -0.06935552507638931,
        0.1141536608338356,
        0.011309071443974972,
        0.0011657053837552667,
        0.10962830483913422,
        0.10266577452421188,
        0.09798582643270493,
        0.07564463466405869,
        -0.02104131132364273,
        0.11142846196889877,
        0.1493266075849533,
        0.17542310059070587,
        0.034822914749383926,
        -0.04944923147559166,
        0.21905657649040222,
        -0.07747860997915268,
        -0.04921695217490196,
        0.00011925428407266736,
        -0.017049437388777733,
        0.054756782948970795,
        0.1302410066127777,
        -0.009342596866190434,
        0.16883376240730286,
        -0.013637763448059559,
        -0.14866667985916138,
        0.0006980394828133285,
        0.12779289484024048,
        0.04816067963838577,
        -0.11508230119943619,
        0.07375060021877289,
        -0.15047410130500793,
        -0.003945597447454929,
        -0.13540644943714142,
        -0.07195455580949783,
        -0.1605014055967331,
        0.0669039711356163,
        0.08571118116378784,
        0.19272784888744354,
        -0.05208541825413704,
        -0.14471319317817688,
        0.2177625149488449,
        0.03385353833436966,
        0.10872627794742584,
        0.12081337720155716,
        -0.03037836402654648,
        -0.23254622519016266,
        0.021493881940841675,
        0.15096786618232727,
        -0.03563990443944931,
        -0.0977153405547142,
        -0.11352730542421341,
        0.07493840157985687,
        0.04321614280343056,
        -0.05032221972942352,
        0.07130837440490723,
        -0.13612793385982513,
        0.25470513105392456,
        -0.03911711275577545,
        0.17073218524456024,
        0.07114095240831375,
        0.004616244696080685,
        0.04608937352895737
      ],
      [
        -0.15351688861846924,
        0.15307268500328064,
        -0.028281206265091896,
        0.028218669816851616,
        -0.03888021409511566,
        -0.012520181946456432,
        -0.05870679020881653,
        0.11322128772735596,
        -0.11529214680194855,
        -0.049907784909009933,
        -0.07202430814504623,
        -0.20475523173809052,
        -0.13598112761974335,
        -0.016343209892511368,
        0.2034033089876175,
        0.18578428030014038,
        -0.10472722351551056,
        0.04940822347998619,
        0.11327511817216873,
        -0.1852252036333084,
        0.1498779058456421,
        -0.1857430338859558,
        0.07022980600595474,
        0.0017249556258320808,
        -0.07952955365180969,
        0.06480978429317474,
        0.14690838754177094,
        0.12652646005153656,
        0.014633267186582088,
        0.07910288870334625,
        -0.06348168104887009,
        -0.10893986374139786,
        0.2287086844444275,
        -0.27209365367889404,
        0.1801147609949112,
        0.12029694765806198,
        0.16761429607868195,
        -0.0023980445694178343,
        -0.09652422368526459,
        0.07803455740213394,
        0.16288185119628906,
        0.11948089301586151,
        -0.10045042634010315,
        0.01734614558517933,
        0.15924055874347687,
        0.033775974065065384,
        0.2390269935131073,
        0.17091363668441772,
        0.18615975975990295,
        -0.005906019359827042,
        0.27316996455192566,
        0.23881302773952484,
        0.18908682465553284,
        -0.08130773901939392,
        -0.09677525609731674,
        -0.1028188094496727,
        0.07353002578020096,
        0.11054322123527527,
        0.017365984618663788,
        -0.06756669282913208,
        -0.1128460019826889,
        0.003657823195680976,
        0.034619059413671494,
        0.05002661794424057
      ],
      [
        0.0911441519856453,
        0.02044066973030567,
        0.06961747258901596,
        0.07058364152908325,
        -0.009965082630515099,
        0.2863658666610718,
        0.17476271092891693,
        0.23471321165561676,
        0.13662607967853546,
        0.07238054275512695,
        0.06094156950712204,
        0.13413794338703156,
        0.020718775689601898,
        0.03821294382214546,
        -0.03011535108089447,
        0.08496621251106262,
        0.15216027200222015,
        0.20965160429477692,
        0.09184584021568298,
        0.18149259686470032,
        -0.13053953647613525,
        0.03171134367585182,
        -0.06451187282800674,
        0.017718857154250145,
        0.16287407279014587,
        -0.02714894339442253,
        0.16094915568828583,
        -0.025067050009965897,
        -0.03666139394044876,
        -0.029382480308413506,
        0.031581830233335495,
        0.16685380041599274,
        -0.04332806169986725,
        0.14750634133815765,
        0.14007318019866943,
        0.10476159304380417,
        0.012877003289759159,
        0.01357512641698122,
        0.1756194829940796,
        0.04714818671345711,
        0.03437004238367081,
        0.05532417073845863,
        0.1398751139640808,
        0.08976206183433533,
        0.057956356555223465,
        0.11849292367696762,
        -0.04511367529630661,
        -0.04460323601961136,
        0.09390196204185486,
        0.1371614634990692,
        -0.05853060260415077,
        0.047431036829948425,
        0.04855053126811981,
        0.22804930806159973,
        0.10705729573965073,
        0.25028085708618164,
        0.0787539929151535,
        -0.02451903373003006,
        0.10962632298469543,
        0.061115339398384094,
        0.05773397162556648,
        0.06328798830509186,
        0.014763073064386845,
        0.1166660264134407
      ],
      [
        -0.12268111854791641,
        0.044967085123062134,
        -0.12097983807325363,
        -0.031924549490213394,
        -0.0038981158286333084,
        0.0705786719918251,
        -0.058361515402793884,
        0.014273319393396378,
        0.008263368159532547,
        0.07354810833930969,
        -0.008840537630021572,
        0.046805575489997864,
        -0.09582974016666412,
        -0.10257139056921005,
        0.0916636511683464,
        -0.11004678905010223,
        -0.03259861841797829,
        -0.015110015869140625,
        0.10230561345815659,
        -0.03849167004227638,
        -0.11968663334846497,
        -0.04502595216035843,
        0.04090253263711929,
        0.04176728054881096,
        0.08572012186050415,
        -0.04229063540697098,
        0.038107600063085556,
        -0.1176300048828125,
        0.04043608531355858,
        0.045384619385004044,
        0.06898315250873566,
        -0.08459281176328659,
        -0.05156055465340614,
        0.018822329118847847,
        -0.08882683515548706,
        -0.11795981973409653,
        -0.13291314244270325,
        -0.01108847837895155,
        0.06941983103752136,
        0.015762854367494583,
        -0.011841820552945137,
        0.03434756398200989,
        -0.09069348871707916,
        -0.0003431829682085663,
        -0.04917694255709648,
        -0.07060545682907104,
        0.0879182294011116,
        -0.10916613042354584,
        0.0015019127167761326,
        -0.12471679598093033,
        -0.02138456143438816,
        -0.06981673836708069,
        0.020314469933509827,
        -0.08180729299783707,
        0.07400143146514893,
        -0.10143336653709412,
        0.05757192522287369,
        -0.11251309514045715,
        0.05319838598370552,
        -0.05263330042362213,
        -0.017072193324565887,
        -0.043476130813360214,
        0.06130198761820793,
        0.023099558427929878
      ],
      [
        -0.08614601939916611,
        0.04094637185335159,
        0.06803741306066513,
        0.2181822508573532,
        0.057259637862443924,
        0.15458469092845917,
        0.07110283523797989,
        0.1504126340150833,
        0.019581666216254234,
        0.02726171538233757,
        0.08488015085458755,
        0.2304239124059677,
        0.15393979847431183,
        0.01150796189904213,
        0.033570654690265656,
        0.04972951486706734,
        0.09844763576984406,
        0.16223303973674774,
        0.03828021511435509,
        0.2579047381877899,
        -0.10451531410217285,
        0.2010999619960785,
        -0.09423942863941193,
        0.12467837333679199,
        0.023612728342413902,
        -0.0643056109547615,
        -0.04924590885639191,
        -0.020924091339111328,
        0.056190501898527145,
        0.05164274573326111,
        -0.018288660794496536,
        0.069298654794693,
        -0.05673132464289665,
        0.21747218072414398,
        0.12418553978204727,
        -0.008167019113898277,
        -0.1118834912776947,
        0.05761012062430382,
        0.3011130094528198,
        -0.04836396872997284,
        0.14546266198158264,
        0.035431768745183945,
        0.22238650918006897,
        0.08870479464530945,
        0.13883928954601288,
        0.23224864900112152,
        0.14374284446239471,
        0.01853528805077076,
        0.0599997453391552,
        0.0778263583779335,
        -0.02312208153307438,
        -0.07037292420864105,
        -0.016464602202177048,
        0.11202094703912735,
        0.2708604335784912,
        0.1432960331439972,
        -0.026378056034445763,
        0.13933256268501282,
        -0.0929432362318039,
        0.061144765466451645,
        0.03391760587692261,
        0.19891910254955292,
        0.20375163853168488,
        -0.13655763864517212
      ],
      [
        -0.004991487134248018,
        -0.09359544515609741,
        -0.08589306473731995,
        0.07531064003705978,
        0.033270638436079025,
        -0.06519235670566559,
        -0.014455570839345455,
        0.005109218880534172,
        0.012765003368258476,
        -0.05548296868801117,
        -0.09405184537172318,
        0.050629839301109314,
        -0.010906359180808067,
        0.03994637355208397,
        -0.07064779847860336,
        0.032320234924554825,
        0.05932429060339928,
        0.05764410272240639,
        0.008284922689199448,
        0.0948963388800621,
        -0.022492216899991035,
        -0.0044689723290503025,
        0.09015613049268723,
        0.09408082813024521,
        -0.08259597420692444,
        0.09115445613861084,
        0.017377182841300964,
        -0.033365167677402496,
        0.08650289475917816,
        -0.08237279951572418,
        0.061053209006786346,
        0.09387556463479996,
        -0.10776978731155396,
        -0.10643071681261063,
        -0.13891419768333435,
        -0.04911990091204643,
        -0.13465823233127594,
        -0.054951608180999756,
        0.00947332289069891,
        0.06272348016500473,
        0.04103001579642296,
        0.059362754225730896,
        0.0403532013297081,
        -0.10550665110349655,
        -0.1282253861427307,
        -0.02380005270242691,
        0.09066998958587646,
        -0.0019343052990734577,
        -0.04083626717329025,
        -0.11241939663887024,
        -0.07857739925384521,
        -0.12318529933691025,
        0.07722552120685577,
        -0.05036512762308121,
        -0.14069433510303497,
        -0.009545402601361275,
        -0.01098927017301321,
        -0.04522961378097534,
        0.01863032765686512,
        0.03645326942205429,
        -0.1466396003961563,
        -0.12275570631027222,
        -0.0361202098429203,
        -0.13673530519008636
      ],
      [
        -0.13347534835338593,
        0.08312790840864182,
        -0.032137591391801834,
        -0.08908125013113022,
        -0.061016716063022614,
        -0.12506863474845886,
        0.06376737356185913,
        -0.05343751236796379,
        -0.10382521152496338,
        -0.11499439179897308,
        0.052088454365730286,
        -0.03016720712184906,
        -0.03342851996421814,
        -0.06393031775951385,
        -0.08628430217504501,
        -0.003920221701264381,
        0.06720396131277084,
        -0.09381812065839767,
        -0.019718360155820847,
        -0.11636440455913544,
        -0.06921591609716415,
        0.08356070518493652,
        -0.016274549067020416,
        0.09884032607078552,
        -0.05309826135635376,
        -0.08485259115695953,
        -0.09652327746152878,
        0.10875765979290009,
        -0.11454852670431137,
        0.04818436875939369,
        0.0053816442377865314,
        0.011020994745194912,
        0.05176737159490585,
        -0.050300877541303635,
        0.06859779357910156,
        -0.1241348385810852,
        -0.06349273025989532,
        0.07843764126300812,
        0.020366184413433075,
        -0.04421578347682953,
        -0.055572930723428726,
        -0.09813378751277924,
        0.039007533341646194,
        -0.033368200063705444,
        -0.0314013846218586,
        0.00899046566337347,
        0.0708838403224945,
        -0.07247209548950195,
        -0.06678295135498047,
        0.05850941315293312,
        0.04984897002577782,
        -0.0807577446103096,
        -0.14684367179870605,
        0.00034228170989081264,
        0.05979963392019272,
        0.021022288128733635,
        0.06408822536468506,
        -0.12080426514148712,
        0.03808252140879631,
        -0.09095476567745209,
        0.04639448970556259,
        0.07466018199920654,
        0.016819152981042862,
        0.08152660727500916
      ],
      [
        -0.10822653025388718,
        -0.03938394412398338,
        -0.08095227181911469,
        0.10062135756015778,
        0.052440907806158066,
        -0.12108636647462845,
        0.10959993302822113,
        0.27346545457839966,
        -0.08006907999515533,
        0.05254381150007248,
        0.026889780536293983,
        -0.07341612130403519,
        0.06941870599985123,
        0.1839156597852707,
        0.18173477053642273,
        0.18238046765327454,
        0.051757000386714935,
        -0.034256596118211746,
        0.018300112336874008,
        -0.029256653040647507,
        0.12779635190963745,
        0.011077090166509151,
        0.16493168473243713,
        0.05580808222293854,
        -0.0027772255707532167,
        -0.08465373516082764,
        0.1227572038769722,
        0.04240730032324791,
        0.04752422869205475,
        0.003193496959283948,
        -0.10731115192174911,
        -0.04565530642867088,
        0.24522216618061066,
        -0.12618021667003632,
        0.14023731648921967,
        0.15090727806091309,
        -0.0426977276802063,
        0.0676083043217659,
        -0.04782826453447342,
        -0.027078384533524513,
        0.13874183595180511,
        -0.0012762005208060145,
        0.1298036277294159,
        -0.03465336933732033,
        0.12459135055541992,
        -0.10969826579093933,
        0.055119194090366364,
        0.17685602605342865,
        0.1848401129245758,
        0.07115492224693298,
        0.07228373736143112,
        0.08968290686607361,
        0.053645968437194824,
        -3.4864351619035006e-05,
        -0.14552369713783264,
        -0.14379583299160004,
        0.1767248511314392,
        -0.0019263033755123615,
        -0.12380030751228333,
        -0.0588424950838089,
        0.01335834339261055,
        -0.030435409396886826,
        0.14650915563106537,
        0.011719637550413609
      ],
      [
        -0.07588502764701843,
        -0.09343451261520386,
        -0.02326531708240509,
        -0.031900614500045776,
        0.07734335958957672,
        -0.007018625736236572,
        0.03991919755935669,
        -0.051944583654403687,
        0.10139904916286469,
        0.10537734627723694,
        -0.11194612085819244,
        -0.03212495148181915,
        -0.10606217384338379,
        0.053103357553482056,
        -0.10921040177345276,
        -0.05910147726535797,
        0.12489655613899231,
        -0.1193649023771286,
        0.0922255665063858,
        0.010559886693954468,
        0.09995433688163757,
        -0.06343616545200348,
        0.08210356533527374,
        0.015081718564033508,
        0.009614050388336182,
        0.08531652390956879,
        -0.11881589889526367,
        -0.10068140923976898,
        0.12072043120861053,
        -0.07506206631660461,
        -0.090100958943367,
        -0.006111830472946167,
        -0.04001280665397644,
        -0.017101481556892395,
        -0.08374819159507751,
        0.04510235786437988,
        -0.10756020247936249,
        0.010124117136001587,
        0.07294243574142456,
        0.024017006158828735,
        0.01660872995853424,
        0.01828300952911377,
        -0.03661881387233734,
        -0.023812279105186462,
        -0.052711665630340576,
        -0.08444106578826904,
        -0.06618201732635498,
        0.12357006967067719,
        -0.0209195613861084,
        0.04378700256347656,
        0.08644425868988037,
        -0.00976473093032837,
        -0.06724676489830017,
        -0.08469237387180328,
        -0.04605041444301605,
        0.04461705684661865,
        -0.10526981949806213,
        -0.015262097120285034,
        0.0475483238697052,
        0.10198189318180084,
        0.0376163125038147,
        0.02472083270549774,
        0.08557383716106415,
        0.05776098370552063
      ],
      [
        0.03225558251142502,
        -0.061998337507247925,
        -0.11773436516523361,
        -0.04567738249897957,
        -0.039511166512966156,
        -0.006234730593860149,
        -0.02925962209701538,
        0.026276573538780212,
        0.07330511510372162,
        -0.05067753791809082,
        -0.1338045597076416,
        -0.0641324520111084,
        -0.07616035640239716,
        0.053104158490896225,
        -0.10381581634283066,
        -0.035094380378723145,
        -0.03678859770298004,
        -0.07586653530597687,
        0.032871063798666,
        -0.07031930238008499,
        -0.029882485046982765,
        -0.10327892005443573,
        -0.03340569883584976,
        -0.003741908585652709,
        -0.027879737317562103,
        -0.07361605763435364,
        0.014255154877901077,
        -0.03238719701766968,
        -0.0692998617887497,
        -0.10937263816595078,
        -0.03996839374303818,
        -0.13869376480579376,
        0.0832868367433548,
        -0.0790582150220871,
        -0.05977548658847809,
        -0.011086486279964447,
        0.009970019571483135,
        -0.03228021785616875,
        0.07104557752609253,
        -0.09289268404245377,
        0.021902618929743767,
        -0.010954062454402447,
        -0.11234685778617859,
        -0.0638464093208313,
        0.007922695018351078,
        0.009023855440318584,
        0.06817987561225891,
        0.06575195491313934,
        -0.09021986275911331,
        -0.07055022567510605,
        -0.04801487177610397,
        -0.1111249104142189,
        -0.0577075369656086,
        -0.12024358659982681,
        0.047542765736579895,
        0.08844491839408875,
        -0.010605861432850361,
        -0.11270095407962799,
        -0.11248467117547989,
        -0.048662394285202026,
        0.01673264615237713,
        -0.012536789290606976,
        0.000456080655567348,
        0.09602127969264984
      ],
      [
        0.19792774319648743,
        0.1689831167459488,
        -0.12450174242258072,
        0.03778932988643646,
        0.020784083753824234,
        -0.2626245319843292,
        -0.07589852064847946,
        0.11271203309297562,
        0.08678752183914185,
        0.18594658374786377,
        -0.10941926389932632,
        -0.23655135929584503,
        0.02553764544427395,
        0.003226853907108307,
        0.21830344200134277,
        0.023392358794808388,
        0.10480254888534546,
        -0.14586232602596283,
        0.23998165130615234,
        -0.1356002241373062,
        0.25115856528282166,
        -0.08372839540243149,
        0.02875184454023838,
        0.028094761073589325,
        -0.08768908679485321,
        0.15230710804462433,
        0.08348997682332993,
        -0.007598470896482468,
        0.08962409943342209,
        0.18493802845478058,
        -0.04595539718866348,
        -0.011412085965275764,
        0.06362830847501755,
        -0.04860496520996094,
        -0.0767408013343811,
        0.10270819067955017,
        0.1825333833694458,
        0.2518370449542999,
        -0.18762768805027008,
        0.07748211175203323,
        0.16029861569404602,
        -0.054000843316316605,
        0.1437065750360489,
        0.05130811408162117,
        -6.89256121404469e-05,
        0.046219225972890854,
        -8.19360138848424e-05,
        0.0713265910744667,
        0.11311136186122894,
        0.13505734503269196,
        0.15668919682502747,
        0.025020813569426537,
        0.2860569357872009,
        -0.08502154052257538,
        -0.1501702517271042,
        -0.17798271775245667,
        0.16942429542541504,
        0.10623825341463089,
        0.14006392657756805,
        -0.038487207144498825,
        0.033900000154972076,
        -0.04572766646742821,
        0.008907840587198734,
        0.17387273907661438
      ],
      [
        -0.047443754971027374,
        0.014609255827963352,
        0.0688197985291481,
        0.0013805374037474394,
        0.062384046614170074,
        0.04946380481123924,
        0.006224769167602062,
        0.01784053072333336,
        0.017322758212685585,
        0.0010618052911013365,
        0.07882829010486603,
        0.08657495677471161,
        0.016525551676750183,
        -0.03486384451389313,
        0.08547569811344147,
        -0.12544120848178864,
        0.06465635448694229,
        0.03798700124025345,
        0.05334538593888283,
        -0.0396617092192173,
        -0.11856193095445633,
        0.059840839356184006,
        -0.07925982773303986,
        0.0025977103505283594,
        0.04234549403190613,
        -0.14667010307312012,
        -0.021115828305482864,
        -0.06285996735095978,
        0.06871775537729263,
        -0.09687615931034088,
        0.04766131564974785,
        0.047440413385629654,
        0.045444637537002563,
        0.08871752768754959,
        -0.004173943307250738,
        -0.14162220060825348,
        0.06551484763622284,
        -0.00986342504620552,
        -0.026820188388228416,
        -0.14406825602054596,
        -0.05656687542796135,
        -0.0868893563747406,
        0.09788845479488373,
        0.062351126223802567,
        0.06322981417179108,
        0.05588040500879288,
        -0.10501392930746078,
        -0.07879688590765,
        -0.07801298052072525,
        -0.07839345186948776,
        0.07073865830898285,
        0.014900224283337593,
        0.07410743087530136,
        -0.03625664860010147,
        -0.13796329498291016,
        -0.06380444765090942,
        0.06554704159498215,
        0.04735724627971649,
        0.014467371627688408,
        -0.06660337746143341,
        -0.14613911509513855,
        -0.09453880041837692,
        0.03566525876522064,
        -0.07326104491949081
      ],
      [
        -0.10282852500677109,
        0.06564680486917496,
        0.12167618423700333,
        0.14987264573574066,
        -0.03066437318921089,
        0.149240642786026,
        0.02384268492460251,
        0.052715253084897995,
        -0.01646917685866356,
        -0.12759172916412354,
        -0.03558214008808136,
        0.07491735368967056,
        -0.19110846519470215,
        -0.015821345150470734,
        -0.00926966592669487,
        0.07555849850177765,
        -0.04088212549686432,
        0.12475519627332687,
        0.15961800515651703,
        -0.07844819128513336,
        0.13954505324363708,
        0.09519825130701065,
        0.13663116097450256,
        0.28201279044151306,
        0.18443359434604645,
        -0.13424894213676453,
        -0.04955741763114929,
        -0.01875680312514305,
        -0.13284948468208313,
        -0.02810908854007721,
        -0.003967604134231806,
        0.1985950618982315,
        0.1686055064201355,
        0.058902885764837265,
        0.1398184597492218,
        0.0793977603316307,
        -0.006029917858541012,
        -0.03260710835456848,
        0.012891053222119808,
        -0.012153222225606441,
        0.024557344615459442,
        -0.09763786941766739,
        -0.09012756496667862,
        0.0623064748942852,
        0.23779669404029846,
        0.1349944919347763,
        0.11023565381765366,
        0.13783392310142517,
        0.0788087323307991,
        -0.08737315982580185,
        0.13806438446044922,
        0.16780292987823486,
        0.13298852741718292,
        0.007804699242115021,
        0.17840610444545746,
        -0.07327089458703995,
        -0.10108381509780884,
        0.04169020429253578,
        -0.08267710357904434,
        -0.03289558365941048,
        0.09741055965423584,
        0.17035716772079468,
        0.029323462396860123,
        -0.1569932997226715
      ],
      [
        0.004877209663391113,
        -0.034893959760665894,
        0.03069053590297699,
        -0.09061926603317261,
        0.051167652010917664,
        -0.10796867311000824,
        -0.0659712553024292,
        -0.07171785086393356,
        0.06048642098903656,
        -0.0032726526260375977,
        -0.12613290548324585,
        -0.07139000296592712,
        -0.05784711241722107,
        -0.12177986651659012,
        0.016005858778953552,
        0.03853749856352806,
        -0.022934705018997192,
        -0.04974310100078583,
        -0.0007580667734146118,
        -0.09928521513938904,
        -0.07611268758773804,
        -0.008855980820953846,
        0.10504201054573059,
        -0.03843854367733002,
        0.0559547021985054,
        -0.04919379949569702,
        -0.03327472507953644,
        -0.11899305880069733,
        0.10356062650680542,
        0.12171594798564911,
        -0.002625405788421631,
        0.07341600209474564,
        0.09623779356479645,
        0.062089696526527405,
        0.06437741219997406,
        -0.12500280141830444,
        -0.11745883524417877,
        -0.09594254195690155,
        0.03309393674135208,
        -0.1081220805644989,
        -0.10142339766025543,
        -0.06058785319328308,
        -0.11521066725254059,
        0.00016842782497406006,
        0.012037464417517185,
        -0.07915521413087845,
        0.07584038376808167,
        -0.04745560884475708,
        -0.041195958852767944,
        0.09523439407348633,
        0.1013140007853508,
        -0.020340120419859886,
        -0.09573978185653687,
        -0.06871264427900314,
        0.015917405486106873,
        0.07327406108379364,
        0.062230587005615234,
        -0.0612030066549778,
        -0.118170827627182,
        -0.10939337313175201,
        -0.039769530296325684,
        -0.004437002819031477,
        -0.06215151771903038,
        -0.09883815050125122
      ],
      [
        0.07036393880844116,
        0.006019429303705692,
        -0.07976579666137695,
        -0.10171158611774445,
        -0.054664283990859985,
        -0.01861312985420227,
        -0.07773438096046448,
        0.022571932524442673,
        -0.1029505729675293,
        0.1363731175661087,
        -0.03685876727104187,
        -0.23676519095897675,
        -0.07226680219173431,
        -0.12455608695745468,
        0.13107824325561523,
        -0.02244020812213421,
        -0.15421728789806366,
        -0.16187292337417603,
        0.263837993144989,
        0.1313246339559555,
        0.23881059885025024,
        -0.14385086297988892,
        0.06729494780302048,
        0.09834011644124985,
        -0.14497992396354675,
        0.04032188281416893,
        0.09013598412275314,
        -0.041421812027692795,
        -0.1495828777551651,
        0.20964527130126953,
        0.027781492099165916,
        -0.11671625077724457,
        0.1825341284275055,
        -0.09870362281799316,
        0.10244053602218628,
        0.12277287989854813,
        0.2670303285121918,
        -0.0037212208844721317,
        -0.13948194682598114,
        0.02768951654434204,
        0.15558287501335144,
        0.1376236379146576,
        -0.12640607357025146,
        -0.11702112853527069,
        -0.040542371571063995,
        0.020469455048441887,
        0.055964209139347076,
        0.1532967984676361,
        0.15912170708179474,
        0.16805630922317505,
        0.1449197679758072,
        0.14247789978981018,
        0.22493812441825867,
        0.045758333057165146,
        -0.10806453227996826,
        0.010008911602199078,
        0.15268023312091827,
        0.031210312619805336,
        0.040858928114175797,
        -0.12973147630691528,
        0.1534605324268341,
        0.21780672669410706,
        0.011714189313352108,
        0.2501944899559021
      ],
      [
        -0.17265723645687103,
        0.14592057466506958,
        0.2656758725643158,
        0.04056388884782791,
        -0.08669716119766235,
        0.04456879943609238,
        -0.04112561419606209,
        0.14127767086029053,
        -0.22936995327472687,
        -0.13192063570022583,
        -0.03665708750486374,
        -0.06936613470315933,
        -0.15581829845905304,
        0.0258355550467968,
        -0.021185562014579773,
        0.03670772910118103,
        -0.05115911364555359,
        0.1927957832813263,
        0.2445181906223297,
        -0.09648461639881134,
        0.20559607446193695,
        -0.06877836585044861,
        0.03122790716588497,
        0.14168861508369446,
        -0.019369905814528465,
        -0.12352186441421509,
        -0.041021235287189484,
        -0.08661650866270065,
        0.03476427495479584,
        0.12064734846353531,
        -0.09189506620168686,
        -0.03127683326601982,
        0.06990889459848404,
        -0.07666665315628052,
        0.08713182806968689,
        0.16214539110660553,
        0.15697167813777924,
        -0.15016931295394897,
        0.1369025558233261,
        -0.1380467563867569,
        0.00981726124882698,
        0.0776456892490387,
        -0.21020963788032532,
        -0.005814717151224613,
        0.22644779086112976,
        0.0325198769569397,
        0.06142539903521538,
        0.20884546637535095,
        0.027676502242684364,
        0.05846536532044411,
        0.10761211812496185,
        0.15175645053386688,
        0.027511347085237503,
        -0.012289710342884064,
        0.1303092986345291,
        0.003903160337358713,
        0.08650302141904831,
        0.2725110650062561,
        -0.09927669912576675,
        -0.012113080359995365,
        -0.013817206025123596,
        0.06392654031515121,
        0.09263112396001816,
        -0.0578867569565773
      ],
      [
        -0.038205500692129135,
        0.14696307480335236,
        0.022153295576572418,
        0.1669309437274933,
        0.04136904329061508,
        0.13630101084709167,
        0.18707406520843506,
        0.03369094803929329,
        0.025157302618026733,
        0.08436908572912216,
        0.04308180883526802,
        -0.08530784398317337,
        0.11275840550661087,
        -0.0001134492049459368,
        0.06782663613557816,
        0.15115907788276672,
        0.02357335574924946,
        0.13483385741710663,
        0.035444483160972595,
        0.20201808214187622,
        0.12046000361442566,
        0.0738479495048523,
        -0.020275598391890526,
        0.0023998466785997152,
        0.18078425526618958,
        0.027221916243433952,
        0.12751320004463196,
        -0.07394054532051086,
        0.07018826901912689,
        0.07023222744464874,
        0.08098853379487991,
        0.17904338240623474,
        0.050862692296504974,
        0.0143862534314394,
        0.22816148400306702,
        0.002720143413171172,
        0.18631719052791595,
        -0.052920907735824585,
        0.03306540474295616,
        -0.04842274263501167,
        0.021831566467881203,
        0.08469945937395096,
        -0.034012842923402786,
        -0.04834767431020737,
        0.1704062521457672,
        0.1554170697927475,
        0.06678371131420135,
        -0.0694393664598465,
        0.045375511050224304,
        0.018125168979167938,
        0.1265355795621872,
        0.020917564630508423,
        0.03865085169672966,
        -0.00844508409500122,
        0.04535697028040886,
        0.15872953832149506,
        0.16676662862300873,
        0.09786886721849442,
        0.006502213422209024,
        0.18827976286411285,
        0.09064704924821854,
        0.050504107028245926,
        0.016490036621689796,
        0.0598459467291832
      ],
      [
        0.10268468409776688,
        0.03588994964957237,
        0.06785532832145691,
        -0.0187749732285738,
        0.08943068236112595,
        -0.07356176525354385,
        -0.065726138651371,
        -0.053083717823028564,
        -0.10098918527364731,
        -0.07177885621786118,
        -0.12365762144327164,
        -0.017098231241106987,
        -0.005629031918942928,
        -0.03414575010538101,
        -0.09119011461734772,
        0.10032319277524948,
        -0.017594490200281143,
        0.041383612900972366,
        0.07750699669122696,
        -0.10519971698522568,
        -0.004522028379142284,
        0.053496088832616806,
        0.12737098336219788,
        -0.03702140972018242,
        0.07600556313991547,
        -0.06917670369148254,
        -0.09819669276475906,
        0.09093602746725082,
        0.004565844777971506,
        0.12644822895526886,
        -0.011000847443938255,
        -0.07233083993196487,
        0.1250922679901123,
        0.08882542699575424,
        -0.005027146078646183,
        -0.09219267219305038,
        -0.010788149200379848,
        -0.06448064744472504,
        0.08140651136636734,
        0.012424389831721783,
        0.00970872025936842,
        0.07002053409814835,
        0.07300663739442825,
        -0.08324893563985825,
        0.08613429218530655,
        0.05703502148389816,
        -0.09474126249551773,
        0.09408107399940491,
        0.01921551302075386,
        -0.02654976211488247,
        -0.09224153310060501,
        -0.03306489437818527,
        -0.1313348114490509,
        0.04912714660167694,
        0.08466442674398422,
        -0.06237805634737015,
        0.1324256956577301,
        -0.06177874282002449,
        0.024504678323864937,
        -0.10792533308267593,
        -0.019559789448976517,
        0.030297959223389626,
        0.03169161081314087,
        0.011638795956969261
      ],
      [
        -0.02178504690527916,
        0.16388927400112152,
        0.14358927309513092,
        0.058844391256570816,
        -0.04236888885498047,
        0.032351914793252945,
        0.03889203444123268,
        0.24952858686447144,
        0.032342325896024704,
        0.04745268076658249,
        -0.009076652117073536,
        0.020167576149106026,
        0.005639746785163879,
        0.15407760441303253,
        0.16951227188110352,
        -0.023690978065133095,
        -0.021732313558459282,
        -0.08637700974941254,
        0.006307984236627817,
        0.05283768102526665,
        0.2018876075744629,
        -0.02889547124505043,
        0.20880156755447388,
        -0.016866406425833702,
        0.01883808895945549,
        -0.06551084667444229,
        0.0510663203895092,
        -0.007204713765531778,
        0.05982936546206474,
        0.05767148733139038,
        -0.13769468665122986,
        0.03003050573170185,
        0.2034899890422821,
        0.00831563863903284,
        0.1442568600177765,
        0.10331182926893234,
        0.2390192300081253,
        0.1579141914844513,
        0.0906967893242836,
        0.04577448219060898,
        -0.012546468526124954,
        -0.026105724275112152,
        0.04214033856987953,
        0.12714773416519165,
        0.016030240803956985,
        0.1521254926919937,
        0.1145847961306572,
        0.11766842007637024,
        0.08969638496637344,
        0.02002381905913353,
        0.2642981708049774,
        0.08894598484039307,
        0.2051011621952057,
        -0.07242759317159653,
        -0.061174485832452774,
        -0.02422628551721573,
        0.21474428474903107,
        0.16517069935798645,
        0.05687370151281357,
        -0.15532301366329193,
        0.03584706410765648,
        -0.009909971617162228,
        -0.07692836970090866,
        0.13198332488536835
      ],
      [
        -0.11011666804552078,
        0.08296402543783188,
        -0.08405691385269165,
        0.006959181744605303,
        0.046269629150629044,
        -0.11927983909845352,
        0.02823876030743122,
        -0.04934214428067207,
        0.02870490960776806,
        0.10105262696743011,
        -0.07393152266740799,
        -0.05413798987865448,
        0.08159042149782181,
        -0.020785603672266006,
        -0.04192350432276726,
        0.062200356274843216,
        -0.09551434218883514,
        -0.014296368695795536,
        0.05600614845752716,
        0.030856426805257797,
        -0.11209385842084885,
        0.0034662364050745964,
        -0.11924634128808975,
        -0.08861082792282104,
        0.045555394142866135,
        -0.06559765338897705,
        -0.08531700074672699,
        0.008860290050506592,
        0.019048837944865227,
        -0.09410214424133301,
        -0.08429542183876038,
        -0.14925573766231537,
        0.01516740396618843,
        -0.10784833878278732,
        -0.003079973394051194,
        -0.05334727093577385,
        -0.0993712842464447,
        -0.060638830065727234,
        -0.12236905843019485,
        -0.09746814519166946,
        -0.033330272883176804,
        -0.13392560184001923,
        -0.14717568457126617,
        0.06052431836724281,
        -0.021310636773705482,
        -0.07329797744750977,
        -0.029260903596878052,
        0.08030097931623459,
        -0.1321149468421936,
        -0.09414523094892502,
        -0.10665715485811234,
        -0.029589306563138962,
        -0.032204486429691315,
        -0.11767303198575974,
        0.060695830732584,
        -0.10568619519472122,
        0.08559584617614746,
        -0.11010328680276871,
        -0.044084254652261734,
        0.01188097894191742,
        -0.08014024049043655,
        0.0978047177195549,
        -0.11232171207666397,
        -0.024809453636407852
      ],
      [
        -0.11478668451309204,
        0.09146148711442947,
        0.19034171104431152,
        0.13299168646335602,
        0.013949893414974213,
        -0.08620090782642365,
        0.06524677574634552,
        0.10030165314674377,
        -0.0374954529106617,
        -0.034344349056482315,
        -0.07592985779047012,
        -0.16759268939495087,
        0.10248012095689774,
        0.022062992677092552,
        0.011982526630163193,
        0.07319367676973343,
        -0.15892581641674042,
        0.04579184949398041,
        0.1516781747341156,
        -0.01898849569261074,
        0.18749885261058807,
        -0.13071534037590027,
        0.11456864327192307,
        -0.04012317582964897,
        0.020264480262994766,
        0.11716058850288391,
        0.20925377309322357,
        0.06225113198161125,
        0.0014374896418303251,
        0.2725740969181061,
        -0.03379564732313156,
        0.06019619479775429,
        0.155068039894104,
        0.08599337935447693,
        0.23111318051815033,
        0.039592891931533813,
        0.15951019525527954,
        -0.0827130526304245,
        0.03534132242202759,
        -0.10868657380342484,
        0.1313629299402237,
        0.04211372137069702,
        -0.09051917493343353,
        -0.010129252448678017,
        -0.007782954256981611,
        0.13736318051815033,
        0.1689382940530777,
        0.04697815701365471,
        0.2233904004096985,
        0.1307474821805954,
        0.2503237724304199,
        0.1104307547211647,
        0.18809747695922852,
        -0.025617439299821854,
        -0.07288236171007156,
        0.04949690401554108,
        0.14672881364822388,
        0.18242207169532776,
        -0.13626089692115784,
        0.08794961124658585,
        -0.027456028386950493,
        0.23179154098033905,
        0.14385098218917847,
        0.18213360011577606
      ],
      [
        0.2991577982902527,
        0.20525385439395905,
        -0.021255362778902054,
        -0.006284991279244423,
        0.09597494453191757,
        -0.08682860434055328,
        0.1229829415678978,
        0.026903240010142326,
        0.18869443237781525,
        0.2544061243534088,
        -0.13723835349082947,
        0.037217311561107635,
        0.02788575179874897,
        -0.06535104662179947,
        0.025829339399933815,
        0.06968994438648224,
        -0.04327581450343132,
        -0.19221317768096924,
        0.024230636656284332,
        0.07328154891729355,
        0.03172934055328369,
        -0.09949206560850143,
        0.018826229497790337,
        -0.10098560899496078,
        0.01081342063844204,
        0.019360119476914406,
        -0.028818869963288307,
        -0.11538530886173248,
        -0.015426321886479855,
        0.0910913348197937,
        0.02795586921274662,
        -0.10062302649021149,
        -0.01931399665772915,
        -0.008500708267092705,
        -0.19647878408432007,
        0.20338976383209229,
        0.08892341703176498,
        0.1372411847114563,
        -0.14699053764343262,
        0.11228416860103607,
        0.03536035865545273,
        -0.10231605917215347,
        0.19869278371334076,
        0.10984029620885849,
        0.0932513102889061,
        0.10494433343410492,
        0.09468470513820648,
        -0.008680881932377815,
        0.08783984929323196,
        0.25982072949409485,
        0.10735070705413818,
        -0.03353182226419449,
        0.10563686490058899,
        -0.14571940898895264,
        -0.09844112396240234,
        -0.059731997549533844,
        0.2861262261867523,
        -0.004589076619595289,
        0.16831137239933014,
        -0.18087726831436157,
        -0.019061265513300896,
        0.04165419191122055,
        -0.11414272338151932,
        0.09054426848888397
      ],
      [
        0.06281323730945587,
        -0.08415684849023819,
        -0.060909248888492584,
        0.07510893791913986,
        0.03934955224394798,
        -0.0820322185754776,
        0.025231031700968742,
        0.05889967083930969,
        -0.11703033000230789,
        0.010159661993384361,
        0.013233989477157593,
        -0.007997295819222927,
        0.10161532461643219,
        -0.0932927057147026,
        0.053992584347724915,
        -0.07930023223161697,
        -0.11446569114923477,
        0.0851898193359375,
        -0.07184617221355438,
        -0.01834242418408394,
        0.05989077314734459,
        -0.11546647548675537,
        -0.1211322695016861,
        0.03327947482466698,
        0.09518611431121826,
        -0.01909208670258522,
        0.0727582722902298,
        0.043925076723098755,
        0.03746892884373665,
        -0.0898422822356224,
        0.11487657576799393,
        0.04222181439399719,
        0.012746605090796947,
        0.08196982741355896,
        -0.11339078843593597,
        0.009092123247683048,
        -0.07705704867839813,
        -0.0361173152923584,
        0.019707091152668,
        0.031446997076272964,
        0.009829709306359291,
        -0.10737400501966476,
        -0.08461812138557434,
        -0.01941787265241146,
        -0.027091680094599724,
        -0.13219432532787323,
        0.11229386925697327,
        0.007139943540096283,
        -0.10507704317569733,
        0.03384384140372276,
        0.04406151548027992,
        -0.08370683342218399,
        0.043471094220876694,
        -0.09194480627775192,
        0.043310150504112244,
        0.10465003550052643,
        0.05105621740221977,
        0.04888790473341942,
        -0.047451674938201904,
        -0.0016742268344387412,
        0.025214700028300285,
        0.01636309176683426,
        -0.036473438143730164,
        -0.0011285300133749843
      ],
      [
        -0.06987643986940384,
        -0.0895264595746994,
        -0.12813130021095276,
        -0.11991745233535767,
        -0.09104371070861816,
        0.10742656141519547,
        0.006104441825300455,
        -0.13070803880691528,
        -0.08201684057712555,
        0.011907102540135384,
        -0.053716037422418594,
        -0.04509618505835533,
        -0.06427856534719467,
        -0.04914509132504463,
        -0.003147744107991457,
        -0.009653734043240547,
        0.06161944568157196,
        0.06942655891180038,
        0.0848843976855278,
        -0.022136803716421127,
        -0.07265486568212509,
        -0.01541746873408556,
        -0.09846130013465881,
        0.035797201097011566,
        -0.033663101494312286,
        -0.0513761043548584,
        -0.12375522404909134,
        0.060239553451538086,
        0.060071974992752075,
        0.09690981358289719,
        -0.05655544251203537,
        0.020069818943738937,
        -0.007482079789042473,
        -0.08579517155885696,
        -0.08474192023277283,
        0.04546090587973595,
        -0.09208746254444122,
        0.07360147684812546,
        0.03587193042039871,
        0.02349260449409485,
        0.0633581355214119,
        0.043212492018938065,
        0.035950593650341034,
        0.04590070992708206,
        -0.07150386273860931,
        -0.08362404257059097,
        -0.03923690691590309,
        0.05906063690781593,
        0.06987980753183365,
        0.07271990925073624,
        -0.05383230000734329,
        -0.03464494273066521,
        -0.10549788177013397,
        0.060106050223112106,
        -0.09827275574207306,
        -0.06346172839403152,
        0.08297444134950638,
        0.011589731089770794,
        -0.07103392481803894,
        -0.09431388974189758,
        -0.10457637161016464,
        0.08243872970342636,
        -0.12717071175575256,
        0.08867763727903366
      ],
      [
        0.1774624139070511,
        0.07975497841835022,
        0.019508834928274155,
        0.07640494406223297,
        0.031249981373548508,
        -0.001789534231647849,
        -0.02481701597571373,
        -0.08518580347299576,
        -0.08993547409772873,
        0.17732016742229462,
        -0.1441909372806549,
        -0.06033766642212868,
        -0.03517445921897888,
        -0.15033383667469025,
        0.1008194088935852,
        -0.005977271590381861,
        -0.18105442821979523,
        -0.13043652474880219,
        0.17527636885643005,
        0.22154562175273895,
        0.09352273494005203,
        -0.21907056868076324,
        0.01018594391644001,
        -0.08027946949005127,
        -0.17176714539527893,
        -0.025678513571619987,
        0.18950000405311584,
        -0.085378497838974,
        -0.12023847550153732,
        0.1272212117910385,
        -0.21357256174087524,
        -0.04801667854189873,
        0.08345367014408112,
        -0.08602370321750641,
        0.15205340087413788,
        0.17031796276569366,
        0.2691379189491272,
        0.078279510140419,
        -0.06353610754013062,
        0.12493792176246643,
        0.009251303039491177,
        0.1524641364812851,
        -0.13050243258476257,
        -0.13050033152103424,
        -0.027123428881168365,
        -0.004251520149409771,
        -0.025700915604829788,
        0.11513001471757889,
        0.106003038585186,
        0.05362644046545029,
        0.20704863965511322,
        0.03982090950012207,
        0.09240588545799255,
        0.09349934011697769,
        -0.23862195014953613,
        0.07081525027751923,
        0.25287795066833496,
        0.2175370305776596,
        0.09088272601366043,
        -0.14944124221801758,
        0.06013847142457962,
        0.0997968465089798,
        -0.0810495913028717,
        0.2572171092033386
      ],
      [
        -0.2089756578207016,
        -0.046308960765600204,
        0.03210382163524628,
        0.10635891556739807,
        -0.001657660584896803,
        0.19386817514896393,
        0.051127925515174866,
        0.04926101490855217,
        -0.012674781493842602,
        -0.047589607536792755,
        0.09849429130554199,
        -0.04721623659133911,
        -0.19735458493232727,
        -0.0021815842483192682,
        0.20255176723003387,
        0.024547846987843513,
        -0.03734847158193588,
        0.0676669180393219,
        0.17282253503799438,
        -0.07975593954324722,
        0.09737168252468109,
        -0.04269631952047348,
        0.2538434863090515,
        0.14853613078594208,
        0.14679701626300812,
        -0.08066801726818085,
        0.1383722871541977,
        -0.03217199444770813,
        -0.11305949836969376,
        -0.02555667981505394,
        -0.10892307013273239,
        -0.036086685955524445,
        0.15122152864933014,
        -0.06387697160243988,
        0.07271136343479156,
        0.1000826358795166,
        -0.0961335152387619,
        -0.018015487119555473,
        0.1622544825077057,
        -0.03737698122859001,
        0.06607963144779205,
        -0.0977649986743927,
        -0.022393152117729187,
        0.07821092009544373,
        0.21897995471954346,
        0.02538243681192398,
        0.18978753685951233,
        0.2876415252685547,
        0.1360805779695511,
        -0.13513310253620148,
        0.06276072561740875,
        0.14024049043655396,
        0.1653691679239273,
        0.14188425242900848,
        0.020273510366678238,
        -0.06555947661399841,
        -0.08986368775367737,
        0.10874873399734497,
        -0.03489571064710617,
        -0.17737051844596863,
        0.03983752429485321,
        0.05460254102945328,
        0.023775804787874222,
        0.08566943556070328
      ],
      [
        0.074299156665802,
        0.1428268551826477,
        -0.07854601740837097,
        -0.14526836574077606,
        -0.05096080154180527,
        -0.08955536037683487,
        -0.11850813031196594,
        0.005168006755411625,
        -0.12020578980445862,
        0.15922486782073975,
        -0.05705332010984421,
        -0.2232455313205719,
        -0.0648530051112175,
        -0.0586971752345562,
        0.21791863441467285,
        0.15521882474422455,
        -0.12806597352027893,
        -0.07143168896436691,
        0.2451324611902237,
        -0.04974070563912392,
        0.16613654792308807,
        -0.047516413033008575,
        0.16382399201393127,
        0.06362181156873703,
        -0.14040791988372803,
        0.13855867087841034,
        0.016319194808602333,
        0.050204887986183167,
        -0.043344784528017044,
        0.23267149925231934,
        -0.22605635225772858,
        -0.10452555119991302,
        0.2108319103717804,
        -0.013829420320689678,
        -0.040079813450574875,
        0.24910302460193634,
        0.16263435781002045,
        -0.002140836091712117,
        -0.15476714074611664,
        0.1271008998155594,
        0.08109647780656815,
        0.1571401059627533,
        -0.19176085293293,
        -0.07110951095819473,
        -0.14785389602184296,
        0.12410980463027954,
        0.07032172381877899,
        0.06038866564631462,
        0.08238396048545837,
        0.11502120643854141,
        0.2317124903202057,
        0.13814130425453186,
        0.26463353633880615,
        -0.08242467045783997,
        -0.16436511278152466,
        -0.06665629893541336,
        0.20473209023475647,
        0.22516940534114838,
        0.08307433873414993,
        -0.008801113814115524,
        0.13389019668102264,
        0.04163907840847969,
        -0.058019913733005524,
        0.1276269257068634
      ],
      [
        0.03801500424742699,
        -0.07045983523130417,
        0.012780684977769852,
        -0.017086276784539223,
        -0.09524106979370117,
        -0.10442404448986053,
        -0.14180487394332886,
        -0.09868999570608139,
        0.034919291734695435,
        -0.007788475137203932,
        0.07089945673942566,
        -0.12763509154319763,
        -0.024049675092101097,
        -0.12590767443180084,
        -0.029675282537937164,
        0.01870613358914852,
        -0.1259220838546753,
        0.10351286083459854,
        -0.06937526911497116,
        0.0904577448964119,
        -0.05158396065235138,
        0.04895147681236267,
        0.08428748697042465,
        -0.0722479522228241,
        -0.05539877340197563,
        0.03924443945288658,
        -0.1340017467737198,
        0.06553909927606583,
        -0.08859222382307053,
        0.09836217761039734,
        -0.10146990418434143,
        -0.0751059278845787,
        0.06223602592945099,
        -0.07448842376470566,
        0.09162210673093796,
        0.05813563987612724,
        0.08371160179376602,
        -0.13797789812088013,
        -0.02089582569897175,
        -0.061824798583984375,
        0.0010918889893218875,
        -0.10214748233556747,
        0.0436510294675827,
        -0.022949006408452988,
        -0.08424930274486542,
        -0.1349157691001892,
        0.03641752898693085,
        -0.07500454038381577,
        0.06274820864200592,
        0.0008385270484723151,
        0.002101755701005459,
        -0.04807044565677643,
        -0.04855485260486603,
        -0.06684911251068115,
        -0.11850927025079727,
        0.061442527920007706,
        -0.09732307493686676,
        0.04066403955221176,
        -0.06113263964653015,
        0.058145929127931595,
        0.08424817770719528,
        -0.09946354478597641,
        0.07676307111978531,
        -0.024581266567111015
      ],
      [
        -0.13691852986812592,
        0.07849939167499542,
        0.22617298364639282,
        0.2564137578010559,
        -0.0974808856844902,
        0.2973400056362152,
        0.27391865849494934,
        0.2737453579902649,
        0.2322116643190384,
        -0.1493789106607437,
        0.19343727827072144,
        0.2812049090862274,
        0.06651528179645538,
        0.1448967456817627,
        0.05431227385997772,
        0.2182333916425705,
        0.2675752341747284,
        0.26656287908554077,
        -0.13081057369709015,
        0.10350120067596436,
        -0.15222665667533875,
        0.23551617562770844,
        0.1023656576871872,
        0.04128279164433479,
        0.15859748423099518,
        -0.21907126903533936,
        -0.13882678747177124,
        0.1026335284113884,
        -0.015472525730729103,
        -0.13317739963531494,
        0.06953228265047073,
        0.1277061253786087,
        -0.040641386061906815,
        0.2665448784828186,
        0.10103464126586914,
        0.07374315708875656,
        -0.09017608314752579,
        0.09066960215568542,
        0.05968780815601349,
        -0.05275382101535797,
        -0.01861448399722576,
        -0.12243623286485672,
        0.1724383533000946,
        0.18157748878002167,
        0.2685054838657379,
        0.1744927167892456,
        -0.02834661304950714,
        -0.14395873248577118,
        0.18560285866260529,
        -0.003988573327660561,
        -0.09229645878076553,
        -0.12853169441223145,
        -0.14514194428920746,
        0.18566852807998657,
        0.09333305805921555,
        0.23275820910930634,
        -0.06043896824121475,
        -0.045977938920259476,
        -0.05072228983044624,
        0.13380730152130127,
        0.11473993957042694,
        -0.04030967876315117,
        0.2695070803165436,
        -0.24237050116062164
      ],
      [
        -0.07064993679523468,
        -0.08833567798137665,
        0.021419163793325424,
        0.004721073433756828,
        -0.03561951220035553,
        0.09673400223255157,
        -0.11781727522611618,
        0.045202646404504776,
        -0.06878145039081573,
        -0.02846357226371765,
        -0.12003051489591599,
        -0.10354480147361755,
        -0.116371750831604,
        0.055578649044036865,
        -0.05893884599208832,
        0.05277756601572037,
        -0.06774361431598663,
        -0.03097057342529297,
        -0.004896719940006733,
        0.09292371571063995,
        -0.03368920087814331,
        0.06176966056227684,
        0.03611864894628525,
        0.06471408158540726,
        0.06734783947467804,
        0.0507269948720932,
        -0.04946361109614372,
        -0.035083308815956116,
        0.048662662506103516,
        0.06813031435012817,
        -0.006671682000160217,
        0.05100799351930618,
        -0.07442515343427658,
        0.060494258999824524,
        -0.020666049793362617,
        -0.10034194588661194,
        -0.06952447444200516,
        -0.09546227753162384,
        0.011981801129877567,
        -0.07413259148597717,
        -0.04835221916437149,
        -0.007831871509552002,
        -0.07627008855342865,
        -0.013048048131167889,
        -0.02754514105618,
        0.02681412175297737,
        0.0777285173535347,
        -0.07545864582061768,
        0.05483716353774071,
        -0.014105419628322124,
        -0.06943916529417038,
        -0.07022157311439514,
        0.033848073333501816,
        0.015119241550564766,
        -0.004037529230117798,
        -0.06223069131374359,
        0.034234847873449326,
        0.004609250463545322,
        -0.13152951002120972,
        -0.033679936081171036,
        -0.04408780485391617,
        -0.0679810494184494,
        -0.0809643492102623,
        -0.09552396088838577
      ],
      [
        -0.02940535731613636,
        -0.03945938125252724,
        0.23936712741851807,
