{
  "type": "dqn",
  "encoding": "v1",
  "hidden": 64,
  "epsilon": 0.01,
  "weights": {
    "net.0.weight": [
      [
        0.6608879566192627,
        0.27907541394233704,
        0.09563341736793518,
        1.116794466972351,
        0.1666867882013321,
        0.17920798063278198,
        -0.05485242232680321,
        0.22082114219665527,
        0.3269736170768738,
        -0.30834388732910156,
        0.29656052589416504,
        -0.0854022428393364
      ],
      [
        1.026354193687439,
        -0.13145418465137482,
        0.1750626266002655,
        0.4973643124103546,
        0.13048991560935974,
        -0.09755276143550873,
        -0.0422271266579628,
        0.0781584233045578,
        -0.05548961088061333,
        0.4443841278553009,
        -0.17676809430122375,
        0.1814257651567459
      ],
      [
        -0.15936246514320374,
        0.03082428313791752,
        0.09851142764091492,
        -0.026155054569244385,
        0.004453691188246012,
        -0.04167249798774719,
        0.8992733359336853,
        -0.11796142160892487,
        0.32406914234161377,
        0.5613484382629395,
        0.04668503627181053,
        0.14965932071208954
      ],
      [
        0.24172821640968323,
        0.0879855826497078,
        0.01677246019244194,
        0.1368357390165329,
        0.22055499255657196,
        0.15176306664943695,
        0.7076695561408997,
        0.15771746635437012,
        0.23765060305595398,
        -0.10795551538467407,
        0.09167854487895966,
        -0.20399697124958038
      ],
      [
        0.3996034562587738,
        -0.09189145267009735,
        -0.3261374831199646,
        -0.5446606874465942,
        0.1456730216741562,
        -0.04854130744934082,
        -0.41163185238838196,
        0.08707224577665329,
        0.2976149320602417,
        -0.1288105696439743,
        0.040895603597164154,
        -0.1307554394006729
      ],
      [
        0.08740673214197159,
        -0.2856251001358032,
        0.04021324962377548,
        -0.08991413563489914,
        -0.6162528395652771,
        -0.15057235956192017,
        1.0057309865951538,
        0.032959096133708954,
        -0.02220984362065792,
        -0.01787812076508999,
        -0.10437238216400146,
        -0.042216669768095016
      ],
      [
        1.1234618425369263,
        0.08315117657184601,
        -0.19078867137432098,
        -0.156171515583992,
        -0.22615717351436615,
        0.004153336398303509,
        0.7110846042633057,
        0.18475840985774994,
        -0.060232363641262054,
        0.02615010179579258,
        -0.01283387839794159,
        -0.14865724742412567
      ],
      [
        0.8800830841064453,
        -0.09392344951629639,
        0.11519964039325714,
        0.15453511476516724,
        -0.03191337734460831,
        -0.008558042347431183,
        0.6830373406410217,
        -0.0532388873398304,
        0.03727245330810547,
        0.761413037776947,
        -0.0524250790476799,
        0.006757596507668495
      ],
      [
        1.2518781423568726,
        -0.059811901301145554,
        -0.05522892624139786,
        -0.18061000108718872,
        0.07001922279596329,
        -0.02665090002119541,
        0.4473697245121002,
        -0.03059522435069084,
        -0.0015998727176338434,
        -0.16809524595737457,
        0.01893533021211624,
        0.08513714373111725
      ],
      [
        -0.012711204588413239,
        0.008158313110470772,
        0.030000509694218636,
        0.8720561861991882,
        0.157533198595047,
        -0.16979527473449707,
        -0.6177262663841248,
        0.07332617044448853,
        -0.019416552037000656,
        -0.504988431930542,
        -0.20196668803691864,
        -0.1352962851524353
      ],
      [
        -0.08148875832557678,
        0.10530928522348404,
        -0.17153026163578033,
        -0.590084969997406,
        0.2753077447414398,
        -0.44822177290916443,
        0.5122798085212708,
        -0.0963304415345192,
        0.3048020303249359,
        -0.004063855390995741,
        0.22723519802093506,
        0.3408362567424774
      ],
      [
        -0.1575707048177719,
        0.016021279618144035,
        -0.21919755637645721,
        -0.27476975321769714,
        -0.1752530038356781,
        -0.191402867436409,
        0.7442526817321777,
        0.12688075006008148,
        0.11432762444019318,
        -0.09782853722572327,
        -0.16022278368473053,
        -0.21636715531349182
      ],
      [
        0.2650148868560791,
        0.027989353984594345,
        -0.028782997280359268,
        1.0802992582321167,
        0.005602687131613493,
        -0.12367077171802521,
        0.5835599303245544,
        0.1217525377869606,
        0.13015618920326233,
        -0.47068724036216736,
        0.19262568652629852,
        0.15666453540325165
      ],
      [
        1.0074723958969116,
        0.045740049332380295,
        0.19329863786697388,
        -0.1847718060016632,
        0.2536858916282654,
        0.1439417600631714,
        0.6756314635276794,
        -0.026332668960094452,
        0.12828245759010315,
        0.4163757264614105,
        -0.03010733611881733,
        0.2630680203437805
      ],
      [
        0.4802274703979492,
        -0.10690993815660477,
        -0.40664002299308777,
        -0.05918486416339874,
        -0.3617219030857086,
        -0.21782471239566803,
        0.015872184187173843,
        -0.16312634944915771,
        0.03196731582283974,
        0.6952870488166809,
        0.11816299706697464,
        -0.4467411935329437
      ],
      [
        0.667273223400116,
        0.010617194697260857,
        0.058335091918706894,
        -0.012324647977948189,
        0.1905740201473236,
        0.12051987648010254,
        0.5805774331092834,
        -0.1442394107580185,
        -0.11281067878007889,
        0.6230621337890625,
        -0.09466153383255005,
        -0.007165238261222839
      ],
      [
        0.961281955242157,
        0.1471746563911438,
        0.08950085937976837,
        -0.05969388037919998,
        0.17827904224395752,
        -0.0467916801571846,
        0.6219913363456726,
        -0.023273294791579247,
        -0.28091445565223694,
        -0.3149937689304352,
        0.16274073719978333,
        0.17827367782592773
      ],
      [
        -0.055977605283260345,
        -0.0850885808467865,
        -0.4347767233848572,
        0.004314593970775604,
        -0.012062710709869862,
        0.17639349400997162,
        0.9067631959915161,
        0.46970871090888977,
        0.2711738049983978,
        -0.02656722068786621,
        -0.0795370414853096,
        0.16138754785060883
      ],
      [
        0.28485462069511414,
        -0.006897475570440292,
        0.17513713240623474,
        -0.08886142075061798,
        0.16286663711071014,
        0.16006463766098022,
        -0.15905311703681946,
        0.03898933157324791,
        -0.12314367294311523,
        0.7371343970298767,
        0.008504059165716171,
        0.17001885175704956
      ],
      [
        -0.25134024024009705,
        -0.12737171351909637,
        0.020531753078103065,
        1.1185423135757446,
        0.07790772616863251,
        -0.17983302474021912,
        0.7826374769210815,
        0.010460094548761845,
        0.16594573855400085,
        -0.3109108507633209,
        -0.19106115400791168,
        -0.09039940685033798
      ],
      [
        0.6341869235038757,
        0.12350363284349442,
        0.13263249397277832,
        -0.15943220257759094,
        -0.15458528697490692,
        -0.20631574094295502,
        -0.18484486639499664,
        0.23373368382453918,
        -0.049301471561193466,
        0.8135185241699219,
        0.15578284859657288,
        -0.14429764449596405
      ],
      [
        0.22821305692195892,
        -0.23897534608840942,
        -0.12351429462432861,
        -0.39311683177948,
        0.06487055867910385,
        0.14385589957237244,
        0.6020287871360779,
        0.08052833378314972,
        0.037301305681467056,
        -0.8353642821311951,
        0.09398368746042252,
        -0.14931975305080414
      ],
      [
        0.6166806817054749,
        0.1353788673877716,
        0.032837022095918655,
        0.12258791923522949,
        -0.04855354130268097,
        -0.15427085757255554,
        0.4782608449459076,
        -0.0038223324809223413,
        -0.010171491652727127,
        0.8561320304870605,
        0.23913908004760742,
        0.06215140223503113
      ],
      [
        -0.35824811458587646,
        0.1105450689792633,
        0.07887071371078491,
        -0.4829951822757721,
        0.16061925888061523,
        0.22936542332172394,
        0.5219035148620605,
        -0.1019117683172226,
        0.012888786382973194,
        0.41220924258232117,
        -0.14218173921108246,
        0.09021119028329849
      ],
      [
        0.9500576257705688,
        -0.14188122749328613,
        0.01853163167834282,
        0.010827988386154175,
        -0.0737336054444313,
        -0.13362133502960205,
        0.699591338634491,
        -0.05304534733295441,
        -0.12176914513111115,
        0.2945064604282379,
        -0.12191301584243774,
        -0.07065276801586151
      ],
      [
        0.0813053697347641,
        0.15750284492969513,
        0.2722994089126587,
        -0.4473300278186798,
        0.3910282552242279,
        0.19498668611049652,
        -0.8110936880111694,
        0.3355225920677185,
        -0.04456838592886925,
        0.3714180290699005,
        -0.001438433537259698,
        0.6507360339164734
      ],
      [
        -0.5199828743934631,
        0.054501842707395554,
        0.30211472511291504,
        0.8183479309082031,
        0.19394129514694214,
        0.49572232365608215,
        0.28106507658958435,
        -0.12227140367031097,
        -0.07728399336338043,
        0.5572894215583801,
        0.06019371747970581,
        -0.3365281820297241
      ],
      [
        -0.1826704442501068,
        -0.23148426413536072,
        -0.19727009534835815,
        -0.28488704562187195,
        -0.22275298833847046,
        -0.0713886097073555,
        0.1551278680562973,
        0.01925479993224144,
        -0.21956788003444672,
        -0.23158209025859833,
        0.10391619056463242,
        -0.2147284746170044
      ],
      [
        0.8512995839118958,
        0.008105957880616188,
        0.2393186092376709,
        0.02959982119500637,
        -0.18985164165496826,
        0.08809104561805725,
        -0.43864673376083374,
        0.12114234268665314,
        0.09179195016622543,
        -0.35201016068458557,
        0.1367325335741043,
        -0.07421554625034332
      ],
      [
        -0.036203913390636444,
        0.05390886589884758,
        0.1775110960006714,
        0.8873372077941895,
        0.09382966160774231,
        0.2913784682750702,
        -0.5002186894416809,
        0.20886926352977753,
        0.23814713954925537,
        0.533555805683136,
        -0.02332165837287903,
        0.359991192817688
      ],
      [
        -0.16081403195858002,
        0.005997973494231701,
        -0.045550018548965454,
        -0.026012051850557327,
        0.3027735948562622,
        0.22319406270980835,
        0.6607460379600525,
        -0.020466074347496033,
        0.07064829021692276,
        -0.24371181428432465,
        0.4550648033618927,
        -0.08728987723588943
      ],
      [
        -0.3673248887062073,
        0.2488352209329605,
        0.4167598783969879,
        -0.11151685565710068,
        0.2676779329776764,
        0.018431372940540314,
        0.871216356754303,
        -0.3537065386772156,
        0.04438542202115059,
        -0.21532957255840302,
        0.02200760319828987,
        0.24563181400299072
      ],
      [
        -0.12443386763334274,
        0.18679533898830414,
        0.026350338011980057,
        -0.1465190351009369,
        0.37511029839515686,
        0.03300189599394798,
        -0.13004951179027557,
        0.08903228491544724,
        0.20668083429336548,
        0.7602040767669678,
        -0.018873559311032295,
        0.2918184697628021
      ],
      [
        -0.194082573056221,
        0.11362557858228683,
        0.08517462015151978,
        -0.09892481565475464,
        -0.10515011847019196,
        0.19113387167453766,
        0.6806893348693848,
        -0.17200735211372375,
        -0.4807078242301941,
        -0.21053573489189148,
        0.08763615041971207,
        -0.1984931081533432
      ],
      [
        -0.043996378779411316,
        -0.0848381370306015,
        0.155191108584404,
        0.26165151596069336,
        0.1490819752216339,
        0.0990884006023407,
        0.9040491580963135,
        0.08100786805152893,
        -0.308917760848999,
        0.7237353920936584,
        0.14108851552009583,
        -0.20120389759540558
      ],
      [
        0.13190314173698425,
        -0.17305094003677368,
        -0.2678973972797394,
        0.8507187366485596,
        0.0931217148900032,
        0.17674340307712555,
        0.28873834013938904,
        -0.31268927454948425,
        -0.1690109372138977,
        0.6977502703666687,
        -0.011846235021948814,
        -0.041412342339754105
      ],
      [
        -0.13226039707660675,
        -0.09157313406467438,
        -0.0553881898522377,
        1.1598634719848633,
        -0.07377707958221436,
        -0.3127729892730713,
        -0.09740690886974335,
        -0.15308822691440582,
        0.03523704782128334,
        0.738527774810791,
        0.037538956850767136,
        0.2657061219215393
      ],
      [
        1.26567804813385,
        -0.06368556618690491,
        -0.2259797751903534,
        0.6549771428108215,
        0.052400700747966766,
        -0.1302657276391983,
        0.03745686262845993,
        0.09671815484762192,
        0.13808540999889374,
        0.0065477630123496056,
        -0.0033760403748601675,
        0.03794530779123306
      ],
      [
        -0.11258742213249207,
        0.2437581717967987,
        0.2857308089733124,
        0.02026219666004181,
        -0.1289718747138977,
        -0.04528125748038292,
        0.8376295566558838,
        -0.3444148898124695,
        0.18403668701648712,
        -0.22773756086826324,
        -0.12765879929065704,
        -0.07827651500701904
      ],
      [
        0.9582438468933105,
        -0.005432689096778631,
        0.15802571177482605,
        0.8232297897338867,
        0.19626954197883606,
        0.27104926109313965,
        -0.2156396508216858,
        0.2313111573457718,
        -0.09223899990320206,
        -0.37169015407562256,
        -0.0885404646396637,
        -0.1467503011226654
      ],
      [
        0.7137513160705566,
        -0.287608802318573,
        -0.3468318283557892,
        0.4058610796928406,
        -0.22613832354545593,
        -0.19688302278518677,
        0.6900602579116821,
        -0.25081971287727356,
        0.10087870806455612,
        0.8603361248970032,
        -0.09098935127258301,
        0.07968418300151825
      ],
      [
        0.298687219619751,
        0.006688300054520369,
        -0.0063433898612856865,
        0.5494937300682068,
        0.09134703129529953,
        0.42159923911094666,
        0.29940009117126465,
        -0.06529484689235687,
        -0.19210480153560638,
        0.28002434968948364,
        -0.08307688683271408,
        0.2609729468822479
      ],
      [
        1.1563307046890259,
        0.045766327530145645,
        -0.08991721272468567,
        0.06504617631435394,
        -0.0340685099363327,
        -0.026000553742051125,
        0.38510817289352417,
        -0.0625929981470108,
        0.0195544995367527,
        -0.3609451353549957,
        -0.12702032923698425,
        -0.11478208750486374
      ],
      [
        1.234348177909851,
        -0.114924855530262,
        0.3314308822154999,
        -0.17425251007080078,
        -0.0480666384100914,
        0.12343935668468475,
        0.45460787415504456,
        0.004304938483983278,
        0.07476628571748734,
        -0.22477459907531738,
        0.08206839859485626,
        0.08624188601970673
      ],
      [
        0.42999163269996643,
        0.0708395317196846,
        0.12885616719722748,
        -0.07529085874557495,
        0.008347976952791214,
        0.23944702744483948,
        0.8262413740158081,
        -0.14101819694042206,
        -0.22280363738536835,
        0.5169585347175598,
        -0.0650404542684555,
        0.1636500060558319
      ],
      [
        -0.31126177310943604,
        -0.11365734040737152,
        0.011068710125982761,
        0.8459698557853699,
        -0.022937646135687828,
        -0.09043633937835693,
        0.8028173446655273,
        0.08423071354627609,
        0.280168741941452,
        0.06568439304828644,
        -0.05298074334859848,
        -0.05194355919957161
      ],
      [
        -0.04357028007507324,
        0.09641196578741074,
        -0.02622915431857109,
        -0.3163784444332123,
        0.2937828302383423,
        0.14531567692756653,
        0.38895168900489807,
        0.22702331840991974,
        0.1867360919713974,
        0.8714601397514343,
        -0.05315446853637695,
        -0.13465124368667603
      ],
      [
        -0.25678038597106934,
        -0.05042353272438049,
        -0.10920677334070206,
        -0.19576725363731384,
        -0.12476938217878342,
        -0.34717413783073425,
        -0.14686596393585205,
        -0.30591320991516113,
        -0.09560717642307281,
        0.7402594089508057,
        0.13316765427589417,
        0.18640971183776855
      ],
      [
        0.04581650346517563,
        0.05736877769231796,
        -0.24467621743679047,
        0.030268996953964233,
        0.21034325659275055,
        0.03773367777466774,
        0.5469599962234497,
        0.10958675295114517,
        0.08856070786714554,
        0.6527225375175476,
        -0.19201932847499847,
        -0.09133125841617584
      ],
      [
        0.425370991230011,
        0.014508797787129879,
        0.1417965143918991,
        1.1653183698654175,
        -0.3265080153942108,
        0.06666382402181625,
        -0.15533891320228577,
        -0.010494038462638855,
        0.06066330894827843,
        -0.2231588512659073,
        0.13348457217216492,
        0.2510712742805481
      ],
      [
        -0.09885133057832718,
        0.08967383950948715,
        0.04513607546687126,
        -0.03500721603631973,
        -0.4693583846092224,
        0.05223221704363823,
        -0.04787440970540047,
        0.057665906846523285,
        0.23536422848701477,
        0.9291168451309204,
        0.1120193675160408,
        -0.5171718001365662
      ],
      [
        -0.5646585822105408,
        0.044631652534008026,
        0.13659527897834778,
        0.17163048684597015,
        0.005447431933134794,
        -0.18353168666362762,
        -0.25318998098373413,
        0.3479119539260864,
        -0.266128271818161,
        0.5378263592720032,
        -0.14408954977989197,
        0.11679843813180923
      ],
      [
        0.1564057618379593,
        -0.08632073551416397,
        0.05476947873830795,
        0.5207822918891907,
        -0.13393408060073853,
        0.09820204973220825,
        -0.07083688676357269,
        -0.12096679210662842,
        -0.02885475382208824,
        0.8415228724479675,
        -0.06450805813074112,
        -0.06979615986347198
      ],
      [
        -0.2637491226196289,
        -0.1594923734664917,
        -0.2856408655643463,
        0.3499184548854828,
        -0.1190665140748024,
        -0.10701052099466324,
        0.8663061857223511,
        -0.005609935149550438,
        -0.41096603870391846,
        -0.10939101874828339,
        -0.04635080695152283,
        0.04638879746198654
      ],
      [
        0.11736353486776352,
        0.12839019298553467,
        0.17085716128349304,
        -0.3796488642692566,
        0.290271133184433,
        0.16823484003543854,
        0.748223066329956,
        -0.0010699331760406494,
        0.10587836802005768,
        -0.12564925849437714,
        -0.04448039084672928,
        0.3084655702114105
      ],
      [
        -0.14896832406520844,
        0.12684324383735657,
        -0.0019118376076221466,
        0.8674553632736206,
        -0.1413937211036682,
        0.2500517666339874,
        0.781890332698822,
        -0.02093108743429184,
        -0.01491812989115715,
        -0.2137812077999115,
        0.15871068835258484,
        0.260675311088562
      ],
      [
        0.7844823598861694,
        0.1046629324555397,
        0.03941689804196358,
        0.9893147349357605,
        0.011922495439648628,
        0.15655794739723206,
        -0.2801400423049927,
        0.07861392945051193,
        0.060379236936569214,
        0.5023837685585022,
        0.019200751557946205,
        0.12241169810295105
      ],
      [
        -0.14360179007053375,
        0.1360635608434677,
        -0.17518462240695953,
        0.3243888020515442,
        0.03523815795779228,
        -0.12931829690933228,
        0.550447940826416,
        0.15206070244312286,
        -0.0024011421483010054,
        0.9389124512672424,
        0.1333511471748352,
        0.19397930800914764
      ],
      [
        0.7897242903709412,
        0.11742644011974335,
        -0.058596860617399216,
        0.9891493320465088,
        0.0753120630979538,
        0.0036505002062767744,
        -0.13997796177864075,
        -0.20130911469459534,
        0.10632175952196121,
        -0.361765593290329,
        0.09811238944530487,
        -0.007659978698939085
      ],
      [
        -0.1046040803194046,
        0.0823938399553299,
        0.012579791247844696,
        0.4948230981826782,
        0.1148759052157402,
        -0.39411622285842896,
        0.9249434471130371,
        0.16025513410568237,
        0.2775580883026123,
        -0.1889500617980957,
        -0.20229783654212952,
        -0.09836689382791519
      ],
      [
        -0.008215268142521381,
        -0.0672374963760376,
        0.07299893349409103,
        1.1684423685073853,
        -0.07109999656677246,
        -0.12230771780014038,
        0.6377307772636414,
        -0.09983065724372864,
        -0.30503252148628235,
        -0.2776193916797638,
        0.13167418539524078,
        -0.07641470432281494
      ],
      [
        -0.12781940400600433,
        0.05275576934218407,
        0.06811070442199707,
        1.1244785785675049,
        -0.17518669366836548,
        -0.20442424714565277,
        0.7160787582397461,
        0.06063874810934067,
        0.15098674595355988,
        0.5980920791625977,
        0.08531743288040161,
        0.2151160091161728
      ],
      [
        -0.4344569742679596,
        -0.12044773250818253,
        0.10369677096605301,
        -0.4805176258087158,
        0.06353980302810669,
        0.18975844979286194,
        0.7313560247421265,
        0.10152894258499146,
        -0.11383463442325592,
        0.1133405938744545,
        0.12672078609466553,
        0.12304356694221497
      ],
      [
        0.2949877083301544,
        0.170449361205101,
        0.06246957555413246,
        1.0607811212539673,
        0.09533675760030746,
        0.09370475262403488,
        -0.15821637213230133,
        -0.15399402379989624,
        -0.13647666573524475,
        0.7295575141906738,
        -0.12277589738368988,
        -0.2577590048313141
      ]
    ],
    "net.0.bias": [
      0.2525063753128052,
      0.344911128282547,
      0.18078133463859558,
      -0.15134498476982117,
      0.39639154076576233,
      -0.038614317774772644,
      0.0918763279914856,
      -0.03872699290513992,
      0.27240100502967834,
      0.49018394947052,
      0.36366018652915955,
      0.33486711978912354,
      0.2730026841163635,
      0.017070019617676735,
      0.13164439797401428,
      0.05504196509718895,
      0.10731862485408783,
      -0.008975674398243427,
      0.32675325870513916,
      0.2054746001958847,
      0.2250969409942627,
      0.44792523980140686,
      -0.204002246260643,
      0.4087093472480774,
      0.19222146272659302,
      0.28450149297714233,
      0.2636604309082031,
      -0.30512118339538574,
      0.2854868173599243,
      0.30447351932525635,
      0.223909392952919,
      0.32527750730514526,
      0.1673346310853958,
      0.43037083745002747,
      -0.20596623420715332,
      0.11638092249631882,
      0.07750605046749115,
      -0.09195220470428467,
      0.18710872530937195,
      0.35455814003944397,
      0.06182755157351494,
      -0.3056681156158447,
      0.2200944721698761,
      0.2703147530555725,
      0.06302694231271744,
      0.1359613835811615,
      0.2613395154476166,
      0.40594926476478577,
      0.13687703013420105,
      0.2800055742263794,
      0.3447944223880768,
      0.5045323371887207,
      0.23450352251529694,
      0.3429664969444275,
      0.1912909746170044,
      0.05964740738272667,
      0.08508710563182831,
      0.07494112104177475,
      0.4988241493701935,
      0.08523498475551605,
      0.10587197542190552,
      0.08818648010492325,
      0.12099622935056686,
      0.1337527632713318
    ],
    "net.2.weight": [
      [
        -0.032818518579006195,
        -0.12017327547073364,
        0.34712380170822144,
        0.3909205496311188,
        -0.29853391647338867,
        0.4292915463447571,
        -0.07627812772989273,
        0.1416279673576355,
        -0.41483327746391296,
        0.07202864438295364,
        0.008378407917916775,
        0.15232184529304504,
        0.36220502853393555,
        0.013569366186857224,
        -0.10767955332994461,
        0.12622924149036407,
        -0.09762660413980484,
        0.7785719037055969,
        -0.08905921131372452,
        0.5542538166046143,
        -0.4356960952281952,
        0.018507735803723335,
        0.1680646687746048,
        0.361563116312027,
        0.08641168475151062,
        -0.5196216106414795,
        0.572456419467926,
        0.17079855501651764,
        -0.598275899887085,
        0.16937793791294098,
        0.41769033670425415,
        0.2891848385334015,
        0.05367421731352806,
        0.4190245568752289,
        0.7108361124992371,
        0.4178042709827423,
        0.6026708483695984,
        -0.2588164806365967,
        0.4147663414478302,
        -0.00456723477691412,
        0.2954416871070862,
        0.38177382946014404,
        -0.3750091791152954,
        -0.34422698616981506,
        0.35603323578834534,
        0.5561306476593018,
        0.2699745297431946,
        -0.059629376977682114,
        0.3509160876274109,
        0.2758704721927643,
        0.08858084678649902,
        0.25936928391456604,
        0.30281591415405273,
        0.501474916934967,
        0.4000408351421356,
        0.6659913659095764,
        -0.013712209649384022,
        0.47522687911987305,
        -0.02081078477203846,
        0.5300963521003723,
        0.48729026317596436,
        0.6581601500511169,
        0.36720138788223267,
        0.4227203130722046
      ],
      [
        -0.056997716426849365,
        -0.06707809120416641,
        -0.030953913927078247,
        -0.06438370794057846,
        0.09372936189174652,
        0.03931733965873718,
        0.0969018042087555,
        -0.009659809991717339,
        0.016837846487760544,
        0.03085014596581459,
        -0.13234125077724457,
        0.009536519646644592,
        -0.017141947522759438,
        -0.07987020909786224,
        -0.10075438767671585,
        0.10671643167734146,
        0.08975570648908615,
        0.031038442626595497,
        0.10450077056884766,
        -0.07760710269212723,
        -0.03159055858850479,
        0.036638110876083374,
        -0.013577107340097427,
        -0.0245293527841568,
        -0.11229317635297775,
        0.01813020557165146,
        -0.09231986850500107,
        0.004545778036117554,
        0.11678051948547363,
        -0.05706088989973068,
        -0.06629061698913574,
        0.04852180555462837,
        -0.0273390244692564,
        -0.0013709483901038766,
        0.1353108286857605,
        -0.05709937587380409,
        -0.11399296671152115,
        -0.08309419453144073,
        -0.01604987494647503,
        -0.07306293398141861,
        -0.07987282425165176,
        0.025529390200972557,
        0.017304478213191032,
        -0.054879408329725266,
        -0.11280812323093414,
        -0.06625384092330933,
        -0.05817117169499397,
        -0.02206197753548622,
        -0.13547968864440918,
        0.014526422135531902,
        -0.07322856783866882,
        -0.106276735663414,
        -0.1134619265794754,
        0.02528626285493374,
        -0.09574214369058609,
        -0.07319082319736481,
        0.08440524339675903,
        0.04601874575018883,
        0.06135626882314682,
        -0.14238479733467102,
        -0.08718251436948776,
        -0.06950395554304123,
        0.0835253894329071,
        0.005326996557414532
      ],
      [
        -0.34215736389160156,
        -0.050383273512125015,
        0.234883114695549,
        0.2913570702075958,
        -0.2464313805103302,
        0.45380836725234985,
        0.3570359945297241,
        0.29069459438323975,
        0.13769006729125977,
        -0.409103661775589,
        0.38583478331565857,
        0.42578887939453125,
        0.12123800814151764,
        0.2762005925178528,
        0.08144077658653259,
        0.26797521114349365,
        0.19689513742923737,
        0.553434431552887,
        0.039594169706106186,
        0.2780103385448456,
        0.02210296131670475,
        0.13902148604393005,
        0.40373852849006653,
        0.29204216599464417,
        0.16957728564739227,
        -0.3462273180484772,
        0.07821989059448242,
        0.05239062011241913,
        -0.14500367641448975,
        -0.2626256048679352,
        0.2062867432832718,
        0.380309522151947,
        0.14776211977005005,
        0.1541374772787094,
        0.5380069017410278,
        0.037576403468847275,
        -0.052894722670316696,
        -0.16424143314361572,
        0.3757879436016083,
        -0.40164315700531006,
        0.3013371229171753,
        0.06177752837538719,
        -0.0037310882471501827,
        0.16068097949028015,
        0.28625601530075073,
        0.20464684069156647,
        0.20922110974788666,
        -0.09155648201704025,
        0.20737537741661072,
        -0.25400426983833313,
        0.139274463057518,
        -0.15031860768795013,
        -0.07827503979206085,
        0.24076688289642334,
        0.3318735361099243,
        0.34260252118110657,
        -0.2546488344669342,
        0.35372424125671387,
        -0.19355233013629913,
        0.3628076910972595,
        0.06567829847335815,
        0.20507855713367462,
        0.22876517474651337,
        -0.1650451421737671
      ],
      [
        0.04209255799651146,
        -0.03648688644170761,
        0.0272098109126091,
        -0.10273075848817825,
        -0.00212439289316535,
        -0.10816165804862976,
        0.03520558029413223,
        -0.08440769463777542,
        -0.06047411262989044,
        -0.11896761506795883,
        -0.03801330551505089,
        0.10119868814945221,
        0.02915980853140354,
        -0.09798385202884674,
        -0.013276948593556881,
        -0.03882300481200218,
        -0.12325863540172577,
        0.06400454789400101,
        -0.01896539144217968,
        -0.004880909807980061,
        -0.09329790621995926,
        -0.08868627995252609,
        -0.005945883691310883,
        0.017677199095487595,
        0.012480294331908226,
        -0.09561200439929962,
        0.09188263863325119,
        -0.01239803433418274,
        -0.08354201912879944,
        -0.08830941468477249,
        0.09163375198841095,
        -0.026225319132208824,
        -0.03822774812579155,
        -0.08662757277488708,
        -0.06818000227212906,
        -0.12548159062862396,
        -0.11125826090574265,
        0.0662263035774231,
        0.07655416429042816,
        0.10211052000522614,
        -0.11303551495075226,
        0.0397949293255806,
        -0.1098610907793045,
        0.04851413145661354,
        0.06359054893255234,
        0.06553345173597336,
        0.05971129983663559,
        0.04205283150076866,
        -0.01764443889260292,
        0.03595437481999397,
        -0.07222528755664825,
        0.03716049715876579,
        -0.058008115738630295,
        -0.027103081345558167,
        -0.13482728600502014,
        -0.06314790993928909,
        -0.07567281275987625,
        -0.07000315189361572,
        -0.09193698316812515,
        -0.1374422013759613,
        -0.020812219008803368,
        0.052890192717313766,
        0.08274725824594498,
        0.05938740074634552
      ],
      [
        0.5037115216255188,
        0.3312913179397583,
        -0.21987700462341309,
        0.10065567493438721,
        0.006250534672290087,
        -0.27314653992652893,
        0.5905256271362305,
        0.5340939164161682,
        0.5984295606613159,
        0.3915872871875763,
        -0.40986713767051697,
        -0.3497696816921234,
        0.15625248849391937,
        0.5549240708351135,
        0.2971932291984558,
        0.423022598028183,
        0.36845147609710693,
        -0.4949309527873993,
        0.24359361827373505,
        0.110540971159935,
        0.4713430106639862,
        -0.07499198615550995,
        0.40228012204170227,
        -0.6027025580406189,
        0.39352190494537354,
        -0.09580721706151962,
        -0.10073279589414597,
        0.021974069997668266,
        0.38571634888648987,
        0.3818378746509552,
        -0.4359821081161499,
        -0.35067319869995117,
        -0.09423234313726425,
        -0.5844936370849609,
        0.08118546009063721,
        0.16918206214904785,
        0.5259841680526733,
        0.8235768675804138,
        -0.16692940890789032,
        0.7392534017562866,
        0.3711701035499573,
        0.5358213186264038,
        0.5016452074050903,
        0.6764793992042542,
        0.09646397829055786,
        -0.1505572497844696,
        0.03737534582614899,
        -0.2873961925506592,
        -0.029108591377735138,
        0.5226683020591736,
        -0.15335287153720856,
        -0.26145556569099426,
        0.33833855390548706,
        -0.3339623510837555,
        -0.3116995692253113,
        -0.17200127243995667,
        0.6486989855766296,
        -0.06564730405807495,
        0.43522775173187256,
        -0.1999858319759369,
        0.280065655708313,
        0.12168851494789124,
        -0.41092449426651,
        0.6129997372627258
      ],
      [
        0.2202552855014801,
        -0.15566028654575348,
        -0.13753707706928253,
        0.25618812441825867,
        0.32534676790237427,
        -0.13131631910800934,
        -0.4000781178474426,
        -0.2751203775405884,
        -0.12224362045526505,
        0.17273162305355072,
        0.6835488080978394,
        0.06743323057889938,
        0.06405346840620041,
        0.05777139961719513,
        -0.4906193017959595,
        -0.26103657484054565,
        0.1411929428577423,
        0.37210553884506226,
        0.09604807198047638,
        -0.14435648918151855,
        -0.10475662350654602,
        0.23086228966712952,
        -0.00390883581712842,
        -0.11671391874551773,
        -0.35695773363113403,
        0.602729082107544,
        0.10862717032432556,
        0.006906246300786734,
        0.24970386922359467,
        0.15093259513378143,
        0.5944560170173645,
        0.1987222135066986,
        0.32463350892066956,
        -0.14623071253299713,
        -0.36992505192756653,
        -0.09675534814596176,
        -0.15167565643787384,
        0.011258697137236595,
        -0.4928523898124695,
        0.0365922711789608,
        -0.3230748474597931,
        0.19989566504955292,
        -0.3355187177658081,
        -0.12362683564424515,
        -0.25023242831230164,
        -0.13617753982543945,
        0.1828150451183319,
        -0.3509206175804138,
        -0.3117174208164215,
        -0.16914162039756775,
        -0.1745191216468811,
        0.07100110501050949,
        -0.37024664878845215,
        -0.1319580078125,
        0.5085397362709045,
        0.06818114966154099,
        -0.015025030821561813,
        0.07386516034603119,
        0.14871908724308014,
        -0.07427725195884705,
        0.03742435574531555,
        0.05346330627799034,
        0.023581158369779587,
        -0.12149899452924728
      ],
      [
        0.6546860337257385,
        0.1664658784866333,
        -0.01734922267496586,
        0.0062089827843010426,
        -0.58299720287323,
        -0.016848823055624962,
        -0.047181740403175354,
        0.04900146275758743,
        -0.16840727627277374,
        0.5625427961349487,
        -0.4470365345478058,
        -0.19566050171852112,
        0.4948359429836273,
        -0.20530015230178833,
        0.007280992344021797,
        -0.025243349373340607,
        -0.15075048804283142,
        0.09362544864416122,
        -0.06631061434745789,
        0.5785192251205444,
        -0.25437334179878235,
        -0.3601277470588684,
        0.11088971048593521,
        -0.2312522679567337,
        -0.13416752219200134,
        -0.7562877535820007,
        0.36319345235824585,
        -0.02833053097128868,
        -0.4739300012588501,
        0.5512579083442688,
        -0.45768260955810547,
        -0.08075976371765137,
        -0.3853200376033783,
        -0.1819590926170349,
        0.2440250664949417,
        0.285721093416214,
        0.8198464512825012,
        0.6070369482040405,
        -0.11593476682901382,
        0.5229511857032776,
        0.22889111936092377,
        0.7236247062683105,
        0.0012537044240161777,
        -0.3070005476474762,
        0.007280558347702026,
        0.5418573617935181,
        -0.31825771927833557,
        -0.6034758687019348,
        0.12450071424245834,
        0.7540887594223022,
        -0.37979254126548767,
        0.12962427735328674,
        0.35127586126327515,
        -0.026081135496497154,
        -0.4133760631084442,
        0.6480065584182739,
        0.5681138634681702,
        0.27523621916770935,
        0.30728673934936523,
        0.39960068464279175,
        0.661388635635376,
        0.7287012338638306,
        -0.16004887223243713,
        0.731471836566925
      ],
      [
        -0.12267196923494339,
        -0.06317383050918579,
        -0.0392620749771595,
        -0.09512334316968918,
        -0.11884941160678864,
        0.0672382041811943,
        0.05963646247982979,
        -0.1480857878923416,
        0.022917015478014946,
        0.025150388479232788,
        0.0959203839302063,
        0.04788797348737717,
        0.08061540871858597,
        -0.05167256295681,
        0.06475584954023361,
        0.08137597888708115,
        -0.1440240740776062,
        -0.1053401529788971,
        -0.004027063492685556,
        0.033827152103185654,
        -0.06474427878856659,
        -0.011928168125450611,
        -0.0219532810151577,
        0.007280382327735424,
        -0.09440489858388901,
        0.044985413551330566,
        0.050153691321611404,
        -0.10174600780010223,
        -0.02222949080169201,
        -0.0298794973641634,
        0.02171524427831173,
        0.0861603245139122,
        0.01123800314962864,
        -0.05619087442755699,
        0.10320939123630524,
        -0.07853776961565018,
        -0.07075335085391998,
        -0.019265063107013702,
        -0.12324999272823334,
        -0.0199288260191679,
        -0.11493194848299026,
        0.005283729638904333,
        -0.00479520158842206,
        -0.0062674786895513535,
        -0.1279410719871521,
        -0.15083816647529602,
        0.03329268470406532,
        0.0825168713927269,
        -0.14440488815307617,
        0.010192407295107841,
        -0.11841347068548203,
        -0.030017584562301636,
        0.07976862788200378,
        0.06142400950193405,
        -0.10356900840997696,
        0.06330039352178574,
        0.03344075754284859,
        -0.035935208201408386,
        0.08691435307264328,
        -0.07115855813026428,
        -0.06393258273601532,
        -0.10276065021753311,
        -0.0043895975686609745,
        -0.002592167118564248
      ],
      [
        -0.2345176637172699,
        -0.18514761328697205,
        0.43387970328330994,
        0.47339698672294617,
        -0.15829917788505554,
        0.4936105012893677,
        0.1969727724790573,
        0.2669636011123657,
        -0.10347100347280502,
        -0.34234818816185,
        0.4905947744846344,
        0.471098393201828,
        0.1851651668548584,
        0.3735120892524719,
        -0.08907447010278702,
        0.26044562458992004,
        0.05076706409454346,
        0.6942059397697449,
        -0.2605252265930176,
        0.48356854915618896,
        -0.18608073890209198,
        0.14903929829597473,
        0.23496563732624054,
        0.28446853160858154,
        0.31967663764953613,
        -0.42767035961151123,
        0.30653417110443115,
        0.15983285009860992,
        -0.4579821228981018,
        -0.3524607717990875,
        0.5045565962791443,
        0.51091068983078,
        0.2629016935825348,
        0.47360992431640625,
        0.699039101600647,
        0.3057752847671509,
        0.25670331716537476,
        -0.4894123673439026,
        0.6739972829818726,
        -0.4666502773761749,
        0.37289589643478394,
        0.05544723570346832,
        -0.25364065170288086,
        0.0008607542840763927,
        0.3868946433067322,
        0.33830440044403076,
        0.24581211805343628,
        -0.015797600150108337,
        0.4240719676017761,
        -0.14057843387126923,
        0.13111110031604767,
        0.05970144271850586,
        0.012837103568017483,
        0.4041122496128082,
        0.4611855745315552,
        0.45488134026527405,
        -0.3021976947784424,
        0.2955121099948883,
        -0.308369517326355,
        0.5509734153747559,
        0.28243720531463623,
        0.4358656704425812,
        0.40788963437080383,
        -0.05123880133032799
      ],
      [
        0.44626960158348083,
        0.3673531413078308,
        -0.04315214231610298,
        0.35332271456718445,
        0.21619966626167297,
        0.2074061781167984,
        0.6093420386314392,
        0.48438891768455505,
        0.6458668112754822,
        0.20657828450202942,
        -0.023920277133584023,
        0.18756838142871857,
        0.48230379819869995,
        0.5854145288467407,
        0.04602804780006409,
        0.19959405064582825,
        0.6114273071289062,
        0.10163027793169022,
        -0.08387184143066406,
        0.2794685661792755,
        -0.04596169665455818,
        0.28017690777778625,
        0.3257686197757721,
        -0.2870445251464844,
        0.5853646397590637,
        -0.3097890615463257,
        -0.23207391798496246,
        -0.029817165806889534,
        0.45422112941741943,
        -0.0530882366001606,
        -0.12076890468597412,
        0.12156877666711807,
        -0.4869577884674072,
        0.021313216537237167,
        0.02377713844180107,
        0.06795147806406021,
        -0.07617208361625671,
        0.6982759237289429,
        0.27246567606925964,
        0.5605566501617432,
        0.2158549278974533,
        0.16470302641391754,
        0.680997371673584,
        0.4949839413166046,
        0.3242028057575226,
        0.27584904432296753,
        -0.1951722800731659,
        -0.7071053981781006,
        0.006825847085565329,
        0.5021907091140747,
        -0.49609580636024475,
        -0.4101298749446869,
        -0.11260855197906494,
        0.1175273135304451,
        0.1519433856010437,
        0.2218792587518692,
        0.3837027847766876,
        -0.2274356484413147,
        0.6183966398239136,
        0.20607250928878784,
        0.5515652298927307,
        0.24158424139022827,
        0.014089692384004593,
        0.20201106369495392
      ],
      [
        -0.43161264061927795,
        0.2867744565010071,
        0.36208638548851013,
        -0.2278997302055359,
        -0.23766687512397766,
        -0.09536225348711014,
        -0.2901288568973541,
        0.4357989430427551,
        -0.3804871737957001,
        -0.007186960428953171,
        0.03718261793255806,
        -0.35125279426574707,
        -0.6722390055656433,
        0.22830475866794586,
        0.6299788355827332,
        0.49225810170173645,
        -0.5291777849197388,
        0.20891647040843964,
        0.5606871247291565,
        -0.5266456007957458,
        0.5070403814315796,
        -0.15551142394542694,
        0.4313691556453705,
        0.4493770897388458,
        -0.00026284909108653665,
        0.2417435348033905,
        0.5694087147712708,
        0.12652646005153656,
        -0.03615787997841835,
        0.4542417526245117,
        0.027745790779590607,
        -0.30008310079574585,
        0.6962475776672363,
        -0.6122612357139587,
        0.6021892428398132,
        0.4985983669757843,
        0.4717119336128235,
        -0.2639250159263611,
        -0.10233238339424133,
        -0.1167730912566185,
        0.40331247448921204,
        0.5592980980873108,
        -0.498430460691452,
        -0.2301613688468933,
        0.4790363013744354,
        -0.0535724014043808,
        0.6633133888244629,
        0.5710420608520508,
        0.4889766573905945,
        -0.3264220058917999,
        0.7922948002815247,
        0.40064942836761475,
        0.5993091464042664,
        -0.3110407888889313,
        -0.14702799916267395,
        -0.4463192820549011,
        0.25266870856285095,
        0.44008156657218933,
        -0.36302390694618225,
        -0.57032310962677,
        -0.5429949760437012,
        0.13052542507648468,
        0.515343189239502,
        0.4057904779911041
      ],
      [
        0.2090664803981781,
        -0.04355616495013237,
        0.3017202317714691,
        0.27802345156669617,
        -0.37475553154945374,
        0.5463762879371643,
        0.4008183181285858,
        0.43614834547042847,
        0.24566122889518738,
        0.042126331478357315,
        0.05396810546517372,
        0.37696531414985657,
        0.34947657585144043,
        0.21048858761787415,
        -0.22909575700759888,
        0.18891797959804535,
        0.33550506830215454,
        0.6205452084541321,
        -0.17680838704109192,
        0.5828135013580322,
        -0.48212093114852905,
        0.06698562949895859,
        0.05747343599796295,
        -0.040284059941768646,
        0.31998297572135925,
        -0.6055688858032227,
        0.34843710064888,
        -0.05369151383638382,
        -0.3539656102657318,
        -0.2203207165002823,
        0.18726025521755219,
        0.375049352645874,
        -0.35165640711784363,
        0.3014284670352936,
        0.5742217898368835,
        0.26812681555747986,
        0.20800459384918213,
        0.20351062715053558,
        0.591799259185791,
        0.023539459332823753,
        0.2087082415819168,
        0.36292803287506104,
        0.2888208031654358,
        0.1463509351015091,
        0.2574199140071869,
        0.437118798494339,
        -0.1668371707201004,
        -0.49231529235839844,
        0.1400436908006668,
        0.3662824034690857,
        -0.4010789096355438,
        -0.23047572374343872,
        -0.016247563064098358,
        0.4162020981311798,
        0.18928124010562897,
        0.7427082061767578,
        0.08106936514377594,
        0.10188038647174835,
        0.22261309623718262,
        0.4691799283027649,
        0.48556211590766907,
        0.4526802897453308,
        0.20063038170337677,
        0.2006828486919403
      ],
      [
        -0.12268111854791641,
        0.044967085123062134,
        -0.12097983807325363,
        -0.031924549490213394,
        -0.0038981158286333084,
        0.0705786719918251,
        -0.058361515402793884,
        0.014273319393396378,
        0.008263368159532547,
        0.07354810833930969,
        -0.008840537630021572,
        0.046805575489997864,
        -0.09582974016666412,
        -0.10257139056921005,
        0.0916636511683464,
        -0.11004678905010223,
        -0.03259861841797829,
        -0.015110015869140625,
        0.10230561345815659,
        -0.03849167004227638,
        -0.11968663334846497,
        -0.04502595216035843,
        0.04090253263711929,
        0.04176728054881096,
        0.08572012186050415,
        -0.04229063540697098,
        0.038107600063085556,
        -0.1176300048828125,
        0.04043608531355858,
        0.045384619385004044,
        0.06898315250873566,
        -0.08459281176328659,
        -0.05156055465340614,
        0.018822329118847847,
        -0.08882683515548706,
        -0.11795981973409653,
        -0.13291314244270325,
        -0.01108847837895155,
        0.06941983103752136,
        0.015762854367494583,
        -0.011841820552945137,
        0.03434756398200989,
        -0.09069348871707916,
        -0.00034318328835070133,
        -0.04917694255709648,
        -0.07060545682907104,
        0.0879182294011116,
        -0.10916613042354584,
        0.001501912483945489,
        -0.12471679598093033,
        -0.02138456143438816,
        -0.06981673836708069,
        0.020314469933509827,
        -0.08180729299783707,
        0.07400143146514893,
        -0.10143336653709412,
        0.05757192522287369,
        -0.11251309514045715,
        0.05319838598370552,
        -0.05263330042362213,
        -0.017072193324565887,
        -0.043476130813360214,
        0.06130198761820793,
        0.023099558427929878
      ],
      [
        -0.23041456937789917,
        -0.09314368665218353,
        0.308267742395401,
        0.3782382011413574,
        -0.22769871354103088,
        0.32880160212516785,
        0.31101012229919434,
        0.31541889905929565,
        0.18015015125274658,
        -0.31971392035484314,
        0.1388462632894516,
        0.5226964950561523,
        0.38647571206092834,
        0.22393323481082916,
        -0.24206344783306122,
        0.1607600450515747,
        0.3347608149051666,
        0.5820060968399048,
        -0.24562202394008636,
        0.5049233436584473,
        -0.4316833019256592,
        0.2901753783226013,
        -0.008838651701807976,
        0.009134501218795776,
        0.2001616358757019,
        -0.596443772315979,
        0.009216131642460823,
        -0.04816163331270218,
        -0.16458891332149506,
        -0.30642756819725037,
        0.18300729990005493,
        0.3302091360092163,
        -0.29679566621780396,
        0.3815639913082123,
        0.5548531413078308,
        0.006652349140495062,
        -0.20956610143184662,
        0.014984335750341415,
        0.8188371062278748,
        -0.24924467504024506,
        0.253838449716568,
        0.1484351009130478,
        0.3755446672439575,
        0.19207856059074402,
        0.3357882499694824,
        0.4556047022342682,
        0.07407663017511368,
        -0.4492124021053314,
        0.1252455711364746,
        0.0666128471493721,
        -0.3472568988800049,
        -0.3810596764087677,
        -0.21836012601852417,
        0.2881767749786377,
        0.45494383573532104,
        0.4970848560333252,
        -0.23455092310905457,
        0.23877140879631042,
        -0.16592712700366974,
        0.3922346234321594,
        0.32406917214393616,
        0.44126221537590027,
        0.3497236967086792,
        -0.3056349754333496
      ],
      [
        -0.004991487599909306,
        -0.09359544515609741,
        -0.08589306473731995,
        0.07531064003705978,
        0.033270638436079025,
        -0.06519235670566559,
        -0.014455570839345455,
        0.005109218880534172,
        0.012765003368258476,
        -0.05548296868801117,
        -0.09405184537172318,
        0.050629839301109314,
        -0.010906359180808067,
        0.03994637355208397,
        -0.07064779847860336,
        0.032320234924554825,
        0.05932429060339928,
        0.05764410272240639,
        0.008284922689199448,
        0.0948963388800621,
        -0.022492216899991035,
        -0.0044689723290503025,
        0.09015613049268723,
        0.09408082813024521,
        -0.08259597420692444,
        0.09115445613861084,
        0.017377182841300964,
        -0.033365167677402496,
        0.08650289475917816,
        -0.08237279951572418,
        0.061053209006786346,
        0.09387556463479996,
        -0.10776978731155396,
        -0.10643071681261063,
        -0.13891419768333435,
        -0.04911990091204643,
        -0.13465823233127594,
        -0.054951608180999756,
        0.00947332289069891,
        0.06272348016500473,
        0.04103001579642296,
        0.059362754225730896,
        0.0403532013297081,
        -0.10550665110349655,
        -0.1282253861427307,
        -0.02380005270242691,
        0.09066998958587646,
        -0.0019343052990734577,
        -0.04083626717329025,
        -0.11241939663887024,
        -0.07857739925384521,
        -0.12318529933691025,
        0.07722552120685577,
        -0.05036512762308121,
        -0.14069433510303497,
        -0.009545402601361275,
        -0.01098927017301321,
        -0.04522961378097534,
        0.01863032765686512,
        0.03645326942205429,
        -0.1466396003961563,
        -0.12275570631027222,
        -0.0361202098429203,
        -0.13673530519008636
      ],
      [
        -0.13347534835338593,
        0.08312790840864182,
        -0.032137591391801834,
        -0.08908125013113022,
        -0.061016716063022614,
        -0.12506863474845886,
        0.06376737356185913,
        -0.05343751236796379,
        -0.10382521152496338,
        -0.11499439179897308,
        0.052088454365730286,
        -0.03016720712184906,
        -0.03342851996421814,
        -0.06393031775951385,
        -0.08628430217504501,
        -0.003920221701264381,
        0.06720396131277084,
        -0.09381812065839767,
        -0.019718360155820847,
        -0.11636440455913544,
        -0.06921591609716415,
        0.08356070518493652,
        -0.016274549067020416,
        0.09884032607078552,
        -0.05309826135635376,
        -0.08485259115695953,
        -0.09652327746152878,
        0.10875765979290009,
        -0.11454852670431137,
        0.04818436875939369,
        0.0053816442377865314,
        0.011020994745194912,
        0.05176737159490585,
        -0.050300877541303635,
        0.06859779357910156,
        -0.1241348385810852,
        -0.06349273025989532,
        0.07843764126300812,
        0.020366184413433075,
        -0.04421578347682953,
        -0.055572930723428726,
        -0.09813378751277924,
        0.039007533341646194,
        -0.033368200063705444,
        -0.0314013846218586,
        0.00899046566337347,
        0.0708838403224945,
        -0.07247209548950195,
        -0.06678295135498047,
        0.05850941315293312,
        0.04984897002577782,
        -0.0807577446103096,
        -0.14684367179870605,
        0.0003422808658797294,
        0.05979963392019272,
        0.021022288128733635,
        0.06408822536468506,
        -0.12080426514148712,
        0.03808252140879631,
        -0.09095476567745209,
        0.04639448970556259,
        0.07466018199920654,
        0.016819152981042862,
        0.08152660727500916
      ],
      [
        -0.07823793590068817,
        0.07924950122833252,
        0.015062712132930756,
        0.0916387140750885,
        0.016791600733995438,
        -0.3454436659812927,
        0.41557034850120544,
        0.6691710352897644,
        0.18740953505039215,
        -0.4572485089302063,
        0.013071775436401367,
        -0.24151964485645294,
        -0.18581262230873108,
        0.6041402220726013,
        0.4435366988182068,
        0.4600692689418793,
        0.26051658391952515,
        0.041533250361680984,
        0.21455781161785126,
        -0.3699415624141693,
        0.5234218835830688,
        -0.23233400285243988,
        0.6922326683998108,
        -0.10792729258537292,
        0.248388409614563,
        0.04970939829945564,
        0.0035797760356217623,
        0.04240730032324791,
        0.24799096584320068,
        0.08522969484329224,
        -0.3347962498664856,
        -0.3004101812839508,
        0.5672615170478821,
        -0.5530361533164978,
        0.46253958344459534,
        0.21070756018161774,
        0.06467393785715103,
        0.42514529824256897,
        -0.1903691589832306,
        -0.039377812296152115,
        0.3463219702243805,
        0.5187901258468628,
        0.22830601036548615,
        0.15093854069709778,
        0.37694984674453735,
        -0.3449597954750061,
        0.21612891554832458,
        0.3568073511123657,
        0.2806829512119293,
        -0.02984064258635044,
        0.35771673917770386,
        -0.1930379867553711,
        0.20157869160175323,
        -0.419208288192749,
        -0.2878144085407257,
        -0.3402920961380005,
        0.512812077999115,
        0.2612064480781555,
        -0.19788995385169983,
        -0.3242907226085663,
        -0.23171627521514893,
        -0.007897081784904003,
        -0.00250893272459507,
        0.2672818601131439
      ],
      [
        0.3830108344554901,
        0.48324689269065857,
        -0.3476039171218872,
        0.11195844411849976,
        0.6557556390762329,
        -0.4275504946708679,
        0.8072484135627747,
        0.33651497960090637,
        0.9673092365264893,
        0.2504495680332184,
        -0.12077352404594421,
        -0.28391218185424805,
        -0.06693284958600998,
        0.6921534538269043,
        0.3199860155582428,
        0.3203029930591583,
        0.8726852536201477,
        -0.7692747712135315,
        0.3602444529533386,
        -0.3948453366756439,
        0.5921444892883301,
        0.3793407380580902,
        0.3151148855686188,
        -0.3300933539867401,
        0.5892953276634216,
        0.5685340762138367,
        -0.619329035282135,
        -0.12955689430236816,
        0.978818953037262,
        -0.20248600840568542,
        -0.2626788020133972,
        -0.18514007329940796,
        -0.11834485828876495,
        -0.09061766415834427,
        -0.3984149694442749,
        -0.006893928628414869,
        -0.46983230113983154,
        0.8818408250808716,
        -0.18205603957176208,
        0.7366824150085449,
        0.21542255580425262,
        0.08904407918453217,
        0.807413637638092,
        0.7788364887237549,
        0.1327107846736908,
        -0.6022505164146423,
        -0.16300846636295319,
        0.043807465583086014,
        -0.0835779532790184,
        0.26814356446266174,
        0.0031577087938785553,
        -0.3445838987827301,
        -0.06602701544761658,
        -0.47421029210090637,
        0.14942605793476105,
        -0.3860909938812256,
        0.3201618492603302,
        -0.37839990854263306,
        0.6738173961639404,
        -0.34113574028015137,
        -0.19300106167793274,
        -0.483205109834671,
        -0.2685495913028717,
        0.04702656343579292
      ],
      [
        0.03225558251142502,
        -0.061998337507247925,
        -0.11773436516523361,
        -0.04567738249897957,
        -0.039511166512966156,
        -0.006234730593860149,
        -0.02925962209701538,
        0.026276573538780212,
        0.07330511510372162,
        -0.05067753791809082,
        -0.1338045597076416,
        -0.0641324520111084,
        -0.07616035640239716,
        0.053104158490896225,
        -0.10381581634283066,
        -0.035094380378723145,
        -0.03678859770298004,
        -0.07586653530597687,
        0.032871063798666,
        -0.07031930238008499,
        -0.029882485046982765,
        -0.10327892005443573,
        -0.03340569883584976,
        -0.003741908585652709,
        -0.027879737317562103,
        -0.07361605763435364,
        0.014255154877901077,
        -0.03238719701766968,
        -0.0692998617887497,
        -0.10937263816595078,
        -0.03996839374303818,
        -0.13869376480579376,
        0.0832868367433548,
        -0.0790582150220871,
        -0.05977548658847809,
        -0.011086486279964447,
        0.009970019571483135,
        -0.03228021785616875,
        0.07104557752609253,
        -0.09289268404245377,
        0.021902618929743767,
        -0.010954062454402447,
        -0.11234685778617859,
        -0.0638464093208313,
        0.007922695018351078,
        0.009023855440318584,
        0.06817987561225891,
        0.06575195491313934,
        -0.09021986275911331,
        -0.07055022567510605,
        -0.04801487177610397,
        -0.1111249104142189,
        -0.0577075369656086,
        -0.12024358659982681,
        0.047542765736579895,
        0.08844491839408875,
        -0.010605861432850361,
        -0.11270095407962799,
        -0.11248467117547989,
        -0.048662394285202026,
        0.01673264615237713,
        -0.012536789290606976,
        0.00045607981155626476,
        0.09602127969264984
      ],
      [
        0.5228633284568787,
        0.443423330783844,
        -0.2784375846385956,
        -0.06534820795059204,
        -0.10220176726579666,
        -0.665962278842926,
        -0.040977463126182556,
        0.34726640582084656,
        0.203299880027771,
        0.4719476103782654,
        -0.44026899337768555,
        -0.6611396670341492,
        0.11754024773836136,
        0.16090859472751617,
        0.4342609941959381,
        0.17618517577648163,
        0.09278340637683868,
        -0.6530460715293884,
        0.4244244694709778,
        -0.0710604339838028,
        0.5065604448318481,
        -0.3354288935661316,
        0.3146832585334778,
        -0.06768102198839188,
        0.02602512016892433,
        0.32817238569259644,
        0.183349609375,
        -0.007598470896482468,
        0.15513209998607635,
        0.519127368927002,
        -0.48505547642707825,
        -0.43432050943374634,
        0.24238882958889008,
        -0.5054318904876709,
        -0.003816532203927636,
        0.3052974045276642,
        0.5625919699668884,
        0.6833645105361938,
        -0.5289115905761719,
        0.40833020210266113,
        0.3340529799461365,
        0.32117271423339844,
        0.25728312134742737,
        0.15112881362438202,
        0.022980142384767532,
        0.05292205139994621,
        0.06344380229711533,
        0.18797720968723297,
        0.1841559261083603,
        0.38196223974227905,
        0.256142258644104,
        0.14592291414737701,
        0.5313621759414673,
        -0.35688212513923645,
        -0.46226343512535095,
        -0.22430723905563354,
        0.556994616985321,
        0.25615623593330383,
        0.37391406297683716,
        -0.11650044471025467,
        0.1281684786081314,
        0.15199516713619232,
        -0.214519664645195,
        0.5514906644821167
      ],
      [
        -0.05279748514294624,
        0.014250383712351322,
        0.0645388588309288,
        -0.001202995190396905,
        0.05300133302807808,
        0.04198570176959038,
        0.0020053049083799124,
        0.011108511127531528,
        -0.008479313924908638,
        -0.002115208189934492,
        0.05820698291063309,
        0.06759976595640182,
        0.009980960749089718,
        -0.04698775336146355,
        0.08511056005954742,
        -0.12755754590034485,
        0.05592917278409004,
        0.005753728095442057,
        0.05323617905378342,
        -0.04578256979584694,
        -0.12004012614488602,
        0.056872401386499405,
        -0.08376303315162659,
        -0.003365728072822094,
        0.03950618952512741,
        -0.14786869287490845,
        -0.022029193118214607,
        -0.06285996735095978,
        0.06033468246459961,
        -0.09882224351167679,
        0.018834121525287628,
        0.044850826263427734,
        0.03737788274884224,
        0.08320152759552002,
        -0.019482148811221123,
        -0.1429716795682907,
        0.06551484763622284,
        -0.012146135792136192,
        -0.03427926450967789,
        -0.1442481428384781,
        -0.05803045257925987,
        -0.0868893563747406,
        0.07111595571041107,
        0.05776050314307213,
        0.06115947663784027,
        0.052258510142564774,
        -0.10696065425872803,
        -0.07879688590765,
        -0.08066429197788239,
        -0.07988188415765762,
        0.06606920063495636,
        0.01378326490521431,
        0.07313882559537888,
        -0.037659235298633575,
        -0.15943704545497894,
        -0.09445102512836456,
        0.06442934274673462,
        0.04485704004764557,
        0.01221243105828762,
        -0.07695584744215012,
        -0.14921437203884125,
        -0.10248985141515732,
        0.03292042389512062,
        -0.07349638640880585
      ],
      [
        -0.3750579357147217,
        0.061325039714574814,
        0.4307780861854553,
        0.325329452753067,
        -0.2836109399795532,
        0.5048021078109741,
        0.23939098417758942,
        0.3877005875110626,
        0.050227854400873184,
        -0.5414980053901672,
        0.31717929244041443,
        0.43729060888290405,
        -0.2762351632118225,
        0.2953256666660309,
        0.1675485223531723,
        0.35562261939048767,
        0.10500074923038483,
        0.5490096211433411,
        0.2538519501686096,
        -0.07530514150857925,
        0.35548222064971924,
        0.20026932656764984,
        0.5276094675064087,
        0.46813878417015076,
        0.45243051648139954,
        -0.3010846972465515,
        0.06882525980472565,
        0.011954267509281635,
        -0.26693806052207947,
        -0.2111528515815735,
        0.20937849581241608,
        0.40997546911239624,
        0.4572664201259613,
        0.24769030511379242,
        0.5647380352020264,
        0.2207672894001007,
        -0.005328580271452665,
        -0.2609337568283081,
        0.31895360350608826,
        -0.2935836613178253,
        0.2759559750556946,
        -0.05003685876727104,
        -0.09914126992225647,
        0.12868353724479675,
        0.5353670120239258,
        0.2969309985637665,
        0.36879396438598633,
        0.3453963100910187,
        0.3146931231021881,
        -0.32901498675346375,
        0.4513518810272217,
        0.19192299246788025,
        0.27524805068969727,
        0.16196702420711517,
        0.4280276894569397,
        0.05938316509127617,
        -0.21645623445510864,
        0.3533742427825928,
        -0.3647996485233307,
        0.16351139545440674,
        0.12809249758720398,
        0.3792308270931244,
        0.34619179368019104,
        -0.13926832377910614
      ],
      [
        0.004877209663391113,
        -0.034893959760665894,
        0.03069053590297699,
        -0.09061926603317261,
        0.051167652010917664,
        -0.10796867311000824,
        -0.0659712553024292,
        -0.07171785086393356,
        0.06048642098903656,
        -0.0032726526260375977,
        -0.12613290548324585,
        -0.07139000296592712,
        -0.05784711241722107,
        -0.12177986651659012,
        0.016005858778953552,
        0.03853749856352806,
        -0.022934705018997192,
        -0.04974310100078583,
        -0.0007580667734146118,
        -0.09928521513938904,
        -0.07611268758773804,
        -0.008855980820953846,
        0.10504201054573059,
        -0.03843854367733002,
        0.0559547021985054,
        -0.04919379949569702,
        -0.03327472507953644,
        -0.11899305880069733,
        0.10356062650680542,
        0.12171594798564911,
        -0.002625405788421631,
        0.07341600209474564,
        0.09623779356479645,
        0.062089696526527405,
        0.06437741219997406,
        -0.12500280141830444,
        -0.11745883524417877,
        -0.09594254195690155,
        0.03309393674135208,
        -0.1081220805644989,
        -0.10142339766025543,
        -0.06058785319328308,
        -0.11521066725254059,
        0.00016842782497406006,
        0.012037464417517185,
        -0.07915521413087845,
        0.07584038376808167,
        -0.04745560884475708,
        -0.041195958852767944,
        0.09523439407348633,
        0.1013140007853508,
        -0.020340120419859886,
        -0.09573978185653687,
        -0.06871264427900314,
        0.015917405486106873,
        0.07327406108379364,
        0.062230587005615234,
        -0.0612030066549778,
        -0.118170827627182,
        -0.10939337313175201,
        -0.039769530296325684,
        -0.004437002819031477,
        -0.06215151771903038,
        -0.09883815050125122
      ],
      [
        0.4579711854457855,
        0.25238901376724243,
        -0.07443169504404068,
        -0.11755380779504776,
        -0.24673844873905182,
        -0.35952237248420715,
        -0.3926786780357361,
        0.11567243933677673,
        -0.4198831617832184,
        0.6764333844184875,
        -0.31286367774009705,
        -0.5311046838760376,
        0.21385487914085388,
        -0.26774975657463074,
        0.33918848633766174,
        0.051108468323946,
        -0.40374845266342163,
        -0.39475613832473755,
        0.45490700006484985,
        0.4972091019153595,
        0.4155367612838745,
        -0.43454843759536743,
        0.3102925717830658,
        0.13971124589443207,
        -0.28268709778785706,
        0.23737815022468567,
        0.4617951512336731,
        -0.041421812027692795,
        -0.39555421471595764,
        0.6617635488510132,
        -0.1856107860803604,
        -0.3584536910057068,
        0.4096733033657074,
        -0.41971150040626526,
        0.3202197849750519,
        0.5010563731193542,
        0.7973435521125793,
        0.19935204088687897,
        -0.41506505012512207,
        0.3048070967197418,
        0.40197885036468506,
        0.4234325885772705,
        -0.30490100383758545,
        -0.4315092861652374,
        -0.07999033480882645,
        0.3382479250431061,
        0.17425009608268738,
        0.42650213837623596,
        0.3623678684234619,
        0.5825810432434082,
        0.33700209856033325,
        0.4866294264793396,
        0.5769143104553223,
        0.11317423731088638,
        -0.51092529296875,
        0.3396638333797455,
        0.5818002223968506,
        0.3385208249092102,
        0.32769575715065,
        0.023575592786073685,
        0.5075567960739136,
        0.6791033744812012,
        -0.27846723794937134,
        0.7470728754997253
      ],
      [
        -0.46405401825904846,
        0.19268493354320526,
        0.5769881010055542,
        0.10682906210422516,
        -0.4040009677410126,
        0.37988796830177307,
        0.01235170103609562,
        0.4567001760005951,
        -0.316243439912796,
        -0.41739422082901,
        0.16938477754592896,
        0.1712273806333542,
        -0.29233217239379883,
        0.254667192697525,
        0.26445481181144714,
        0.30096518993377686,
        -0.10760888457298279,
        0.5589634776115417,
        0.38451990485191345,
        -0.08271486312150955,
        0.4821987748146057,
        -0.08836548775434494,
        0.393962562084198,
        0.38049933314323425,
        0.18590328097343445,
        -0.241670623421669,
        0.16766437888145447,
        -0.05566336587071419,
        -0.1551332175731659,
        0.12225627154111862,
        0.05670307204127312,
        0.054875027388334274,
        0.3051687479019165,
        -0.02986074797809124,
        0.5108540058135986,
        0.42084118723869324,
        0.4184691309928894,
        -0.3350575864315033,
        0.42063918709754944,
        -0.38401785492897034,
        0.29284870624542236,
        0.19054897129535675,
        -0.3414023518562317,
        -0.10263757407665253,
        0.5053888559341431,
        0.22269608080387115,
        0.3202056884765625,
        0.48645055294036865,
        0.2899620532989502,
        -0.17876292765140533,
        0.4179069995880127,
        0.33295881748199463,
        0.30031734704971313,
        0.15255169570446014,
        0.28803297877311707,
        0.059259530156850815,
        0.06340259313583374,
        0.5956332683563232,
        -0.37663182616233826,
        0.15980738401412964,
        -0.015641501173377037,
        0.3538219928741455,
        0.4242323040962219,
        0.16232900321483612
      ],
      [
        0.026754429563879967,
        0.08976802974939346,
        0.23885326087474823,
        0.25985532999038696,
        -0.43182703852653503,
        0.42534738779067993,
        0.2692181468009949,
        0.26768481731414795,
        -0.10105040669441223,
        0.065086729824543,
        -0.10219339281320572,
        0.05839667096734047,
        0.3702598214149475,
        0.10478399693965912,
        -0.10459357500076294,
        0.22665129601955414,
        0.01102295983582735,
        0.5936922430992126,
        -0.2110990434885025,
        0.6469634175300598,
        -0.19344602525234222,
        -0.0995321199297905,
        0.20802263915538788,
        -0.06495120376348495,
        0.2627183794975281,
        -0.6338559985160828,
        0.3215210437774658,
        -0.05146301910281181,
        -0.49262672662734985,
        0.06625804305076599,
        0.041985999792814255,
        0.28328531980514526,
        -0.1321743279695511,
        0.0430234931409359,
        0.7011338472366333,
        0.21562601625919342,
        0.634752631187439,
        0.11036337912082672,
        0.3776506781578064,
        -0.1013546735048294,
        0.22251416742801666,
        0.554557204246521,
        -0.1014266386628151,
        -0.19784824550151825,
        0.3450411260128021,
        0.48673298954963684,
        -0.025674106553196907,
        -0.4276222288608551,
        0.10643818974494934,
        0.24631495773792267,
        -0.1089860200881958,
        -0.1583079993724823,
        0.12589655816555023,
        0.13646630942821503,
        0.03305203840136528,
        0.6934553980827332,
        0.29955098032951355,
        0.3266396224498749,
        0.01897893287241459,
        0.5905560255050659,
        0.48323190212249756,
        0.5217491984367371,
        0.12618915736675262,
        0.3466767370700836
      ],
      [
        0.7156305313110352,
        0.264194130897522,
        -0.25978609919548035,
        0.17550624907016754,
        0.03550678864121437,
        -0.40756404399871826,
        -0.3501785695552826,
        -0.3557988703250885,
        -0.436183363199234,
        0.5066403746604919,
        -0.8661442399024963,
        -0.4550394117832184,
        0.5955226421356201,
        -0.49437499046325684,
        -0.011000409722328186,
        -0.16539916396141052,
        -0.15517091751098633,
        -0.19324298202991486,
        0.06787342578172684,
        0.5699136853218079,
        -0.25201737880706787,
        -0.12281496077775955,
        -0.17359310388565063,
        -0.3119443356990814,
        -0.3149426281452179,
        -0.09064382314682007,
        0.5069140195846558,
        0.060352399945259094,
        -0.0038916952908039093,
        0.6958986520767212,
        0.015332902781665325,
        -0.005634569562971592,
        -0.24213282763957977,
        0.2693750262260437,
        -0.23241783678531647,
        0.3563964366912842,
        0.5921458005905151,
        0.2743123769760132,
        -0.2529902756214142,
        0.47897806763648987,
        0.05946795642375946,
        0.3838473856449127,
        0.08838608860969543,
        -0.30126848816871643,
        -0.21143022179603577,
        0.5462393760681152,
        -0.45478689670562744,
        -0.16107632219791412,
        -0.07789363712072372,
        0.6781563758850098,
        -0.2884429693222046,
        0.35828036069869995,
        0.2515321671962738,
        0.3828738331794739,
        -0.46865350008010864,
        0.6739258170127869,
        0.6036803722381592,
        -0.07549720257520676,
        0.5216408371925354,
        0.24124029278755188,
        0.6772332787513733,
        0.5817574858665466,
        -0.2533476650714874,
        0.5561843514442444
      ],
      [
        -0.14271597564220428,
        0.24984507262706757,
        0.3061942756175995,
        -0.06372073292732239,
        -0.4645668864250183,
        0.1822081357240677,
        0.04976572096347809,
        0.6337906718254089,
        -0.06662238389253616,
        -0.22494500875473022,
        -0.4124104380607605,
        -0.2120843231678009,
        -0.10830577462911606,
        0.3371410369873047,
        0.24709850549697876,
        0.15342824161052704,
        -0.16707417368888855,
        0.0782453641295433,
        0.04353760927915573,
        0.15049318969249725,
        0.3275982141494751,
        -0.3737240433692932,
        0.5992892384529114,
        -0.11114031076431274,
        0.18399815261363983,
        -0.3299544155597687,
        0.10486429929733276,
        0.023314587771892548,
        -0.3135790526866913,
        0.1808130443096161,
        -0.5684629678726196,
        -0.21314704418182373,
        0.2551541328430176,
        -0.3752739429473877,
        0.6150074601173401,
        0.3206610083580017,
        0.7559627294540405,
        0.3701152205467224,
        0.1052221953868866,
        -0.003490014001727104,
        0.2834243178367615,
        0.5688613653182983,
        -0.12830619513988495,
        0.009279315359890461,
        0.23974739015102386,
        0.27214211225509644,
        0.13622722029685974,
        0.1689501255750656,
        0.18468698859214783,
        0.02358342707157135,
        0.2686592936515808,
        -0.0020512365736067295,
        0.43427884578704834,
        -0.18016764521598816,
        -0.34124016761779785,
        0.07635924965143204,
        0.5157504677772522,
        0.45946598052978516,
        -0.128005251288414,
        -0.10559585690498352,
        0.11267580091953278,
        0.4056238532066345,
        -0.03467532992362976,
        0.5353525876998901
      ],
      [
        -0.11011666804552078,
        0.08296402543783188,
        -0.08405691385269165,
        0.006959178950637579,
        0.046269629150629044,
        -0.11927983909845352,
        0.02823876030743122,
        -0.04934214428067207,
        0.02870490960776806,
        0.10105262696743011,
        -0.07393152266740799,
        -0.05413798987865448,
        0.08159042149782181,
        -0.020785603672266006,
        -0.04192350432276726,
        0.062200356274843216,
        -0.09551434218883514,
        -0.014296368695795536,
        0.05600614845752716,
        0.030856426805257797,
        -0.11209385842084885,
        0.00346623407676816,
        -0.11924634128808975,
        -0.08861082792282104,
        0.045555394142866135,
        -0.06559765338897705,
        -0.08531700074672699,
        0.008860290050506592,
        0.019048837944865227,
        -0.09410214424133301,
        -0.08429542183876038,
        -0.14925573766231537,
        0.01516740396618843,
        -0.10784833878278732,
        -0.003079973394051194,
        -0.05334727093577385,
        -0.0993712842464447,
        -0.060638830065727234,
        -0.12236905843019485,
        -0.09746814519166946,
        -0.033330272883176804,
        -0.13392560184001923,
        -0.14717568457126617,
        0.06052431836724281,
        -0.021310636773705482,
        -0.07329797744750977,
        -0.029260903596878052,
        0.08030097931623459,
        -0.1321149468421936,
        -0.09414523094892502,
        -0.10665715485811234,
        -0.029589306563138962,
        -0.032204486429691315,
        -0.11767303198575974,
        0.060695830732584,
        -0.10568619519472122,
        0.08559584617614746,
        -0.11010328680276871,
        -0.044084254652261734,
        0.01188097894191742,
        -0.08014024049043655,
        0.0978047177195549,
        -0.11232171207666397,
        -0.024809453636407852
      ],
      [
        -0.11541176587343216,
        0.1316799372434616,
        0.4337620139122009,
        0.11858924478292465,
        -0.19252918660640717,
        0.05806750804185867,
        -0.14278572797775269,
        0.30546900629997253,
        -0.39118847250938416,
        0.10390976071357727,
        -0.31052544713020325,
        -0.24647212028503418,
        0.17772401869297028,
        -0.01090159546583891,
        0.09479775279760361,
        0.1722251921892166,
        -0.42543214559555054,
        0.33563679456710815,
        0.17738498747348785,
        0.3109639883041382,
        0.2504212558269501,
        -0.39627063274383545,
        0.39391574263572693,
        0.09951946884393692,
        -0.04308504983782768,
        -0.06118910387158394,
        0.519507110118866,
        0.0929204523563385,
        -0.4613513648509979,
        0.5921984314918518,
        -0.1254280060529709,
        0.020687026903033257,
        0.3488093316555023,
        -0.04255152866244316,
        0.6555862426757812,
        0.34903621673583984,
        0.6931126117706299,
        -0.1414170265197754,
        0.13950562477111816,
        -0.14893506467342377,
        0.350857675075531,
        0.43364015221595764,
        -0.34730207920074463,
        -0.31823521852493286,
        0.13108855485916138,
        0.46906235814094543,
        0.3121030032634735,
        0.17969165742397308,
        0.4335919916629791,
        0.2527534067630768,
        0.39670661091804504,
        0.3285188376903534,
        0.47969311475753784,
        0.10061750560998917,
        -0.24552617967128754,
        0.40632423758506775,
        0.39384377002716064,
        0.5242848992347717,
        -0.21989907324314117,
        0.331625759601593,
        0.22377081215381622,
        0.7349623441696167,
        0.23127664625644684,
        0.6241680383682251
      ],
      [
        0.8189190030097961,
        0.5171266794204712,
        -0.2955978810787201,
        0.07790680229663849,
        0.0413808710873127,
        -0.3800275921821594,
        0.27081871032714844,
        0.17972944676876068,
        0.41093412041664124,
        0.681640625,
        -0.6063089370727539,
        -0.35607269406318665,
        0.46297305822372437,
        0.03717955946922302,
        0.18731628358364105,
        0.13377809524536133,
        0.11199513077735901,
        -0.6023066639900208,
        0.1005062386393547,
        0.4700221121311188,
        0.10721272975206375,
        -0.19744199514389038,
        0.13398370146751404,
        -0.4584004580974579,
        0.08335497230291367,
        -0.13472777605056763,
        0.15951265394687653,
        -0.11538530886173248,
        0.15261749923229218,
        0.46698710322380066,
        -0.19892926514148712,
        -0.32721224427223206,
        -0.2339845895767212,
        -0.22976987063884735,
        -0.1946130245923996,
        0.48211637139320374,
        0.551150381565094,
        0.772865891456604,
        -0.42228662967681885,
        0.594718337059021,
        0.19975385069847107,
        0.38553372025489807,
        0.4796016812324524,
        0.3135751783847809,
        0.04965972155332565,
        0.3116222620010376,
        -0.1148606464266777,
        -0.3379446864128113,
        0.018444381654262543,
        0.7234611511230469,
        -0.12196463346481323,
        -0.027982400730252266,
        0.34376874566078186,
        -0.21451671421527863,
        -0.3665841519832611,
        0.2699214816093445,
        0.7520496845245361,
        -0.007757740095257759,
        0.5956104397773743,
        -0.002895538229495287,
        0.3894529640674591,
        0.349054217338562,
        -0.35935041308403015,
        0.5371152758598328
      ],
      [
        0.30069464445114136,
        -0.24855130910873413,
        -0.07230256497859955,
        0.3907298445701599,
        -0.36089709401130676,
        -0.06434136629104614,
        0.033973999321460724,
        0.02719722129404545,
        -0.12972581386566162,
        -0.18284951150417328,
        -0.1492021679878235,
        -0.1617484986782074,
        0.0919140949845314,
        0.013105298392474651,
        -0.014676261693239212,
        0.007720326539129019,
        0.04978442192077637,
        0.036594197154045105,
        0.1478251963853836,
        -0.19853699207305908,
        -0.10524064302444458,
        0.01450814213603735,
        -0.1699281483888626,
        -0.014617073349654675,
        -0.10576280951499939,
        0.05065113678574562,
        0.4216689169406891,
        0.01708032749593258,
        0.4754179120063782,
        -0.03699170798063278,
        0.658128023147583,
        0.12336719781160355,
        -0.16337665915489197,
        0.3746393918991089,
        0.1121259480714798,
        0.19432306289672852,
        -0.3783753514289856,
        -0.032266028225421906,
        -0.18447640538215637,
        0.06142602488398552,
        -0.28478696942329407,
        0.34915363788604736,
        -0.13029815256595612,
        0.08826340734958649,
        0.1260797530412674,
        -0.27877724170684814,
        0.057759840041399,
        -0.14967364072799683,
        -0.38746166229248047,
        0.08079227060079575,
        0.23059359192848206,
        -0.5955044031143188,
        0.05466697737574577,
        -0.2144526094198227,
        0.15764577686786652,
        0.25013628602027893,
        0.0631471574306488,
        -0.13407966494560242,
        -0.04181623086333275,
        -0.48767608404159546,
        0.09346459805965424,
        -0.2641134262084961,
        0.04913542792201042,
        -0.04123018682003021
      ],
      [
        -0.06987643986940384,
        -0.0895264595746994,
        -0.12813130021095276,
        -0.11991745233535767,
        -0.09104371070861816,
        0.10742656141519547,
        0.006104441825300455,
        -0.13070803880691528,
        -0.08201684057712555,
        0.011907102540135384,
        -0.053716037422418594,
        -0.04509618505835533,
        -0.06427856534719467,
        -0.04914509132504463,
        -0.003147744107991457,
        -0.009653734043240547,
        0.06161944568157196,
        0.06942655891180038,
        0.0848843976855278,
        -0.022136803716421127,
        -0.07265486568212509,
        -0.01541746873408556,
        -0.09846130013465881,
        0.035797201097011566,
        -0.033663101494312286,
        -0.0513761043548584,
        -0.12375522404909134,
        0.060239553451538086,
        0.060071974992752075,
        0.09690981358289719,
        -0.05655544251203537,
        0.020069818943738937,
        -0.007482079789042473,
        -0.08579517155885696,
        -0.08474192023277283,
        0.04546090587973595,
        -0.09208746254444122,
        0.07360147684812546,
        0.03587193042039871,
        0.02349260449409485,
        0.0633581355214119,
        0.043212492018938065,
        0.035950593650341034,
        0.04590070992708206,
        -0.07150386273860931,
        -0.08362404257059097,
        -0.03923690691590309,
        0.05906063690781593,
        0.06987980753183365,
        0.07271990925073624,
        -0.05383230000734329,
        -0.03464494273066521,
        -0.10549788177013397,
        0.060106050223112106,
        -0.09827275574207306,
        -0.06346172839403152,
        0.08297444134950638,
        0.011589731089770794,
        -0.07103392481803894,
        -0.09431388974189758,
        -0.10457637161016464,
        0.08243872970342636,
        -0.12717071175575256,
        0.08867763727903366
      ],
      [
        0.5899920463562012,
        0.28402644395828247,
        0.051119834184646606,
        0.09816867858171463,
        -0.2970220744609833,
        -0.26065361499786377,
        -0.4471603035926819,
        -0.05796237662434578,
        -0.5035995841026306,
        0.8118372559547424,
        -0.5259113907814026,
        -0.3818615674972534,
        0.39864611625671387,
        -0.3861328661441803,
        0.25412091612815857,
        -0.012431037612259388,
        -0.534091055393219,
        -0.309644877910614,
        0.29640868306159973,
        0.7538180947303772,
        0.10766838490962982,
        -0.5490968823432922,
        0.1770157366991043,
        -0.08631075173616409,
        -0.38554948568344116,
        -0.02787618339061737,
        0.6282471418380737,
        -0.085378497838974,
        -0.6021068692207336,
        0.5836064219474792,
        -0.3073493242263794,
        -0.20774823427200317,
        0.25419506430625916,
        -0.34264183044433594,
        0.44486555457115173,
        0.6350831985473633,
        0.8632907867431641,
        0.32373717427253723,
        -0.29674333333969116,
        0.4213499128818512,
        0.2476009875535965,
        0.5461214780807495,
        -0.3974186182022095,
        -0.5640748143196106,
        -0.12474989891052246,
        0.43372994661331177,
        0.023150915279984474,
        0.31898167729377747,
        0.2908867597579956,
        0.4895403981208801,
        0.3345414698123932,
        0.3920276463031769,
        0.46078169345855713,
        0.3099960684776306,
        -0.6847855448722839,
        0.5858039855957031,
        0.6751938462257385,
        0.5326632857322693,
        0.4057995676994324,
        0.19211873412132263,
        0.5591631531715393,
        0.6379342079162598,
        -0.3079606890678406,
        0.8050509691238403
      ],
      [
        -0.5195420384407043,
        -0.07997104525566101,
        0.3159310221672058,
        0.17692700028419495,
        -0.3792966306209564,
        0.5074899196624756,
        0.14140062034130096,
        0.3535436987876892,
        -0.06044277921319008,
        -0.5426231026649475,
        0.2992335855960846,
        0.13269838690757751,
        -0.4128997325897217,
        0.2241816520690918,
        0.4511134624481201,
        0.23372383415699005,
        -0.03311252221465111,
        0.3744058907032013,
        0.29010334610939026,
        -0.24904091656208038,
        0.40424713492393494,
        -0.06824088096618652,
        0.6508939266204834,
        0.2659538686275482,
        0.33970919251441956,
        -0.14261853694915771,
        0.23415863513946533,
        -0.0013680787524208426,
        -0.17075730860233307,
        -0.07090461999177933,
        -0.012394754216074944,
        -0.011623942293226719,
        0.37831637263298035,
        -0.08844365924596786,
        0.46382027864456177,
        0.2192099392414093,
        -0.01656097173690796,
        -0.26094433665275574,
        0.3478147089481354,
        -0.36400842666625977,
        0.2891901135444641,
        -0.09232111275196075,
        -0.18907290697097778,
        0.0632135272026062,
        0.45278215408325195,
        0.08042101562023163,
        0.41915708780288696,
        0.5445184707641602,
        0.3050525486469269,
        -0.43083181977272034,
        0.43991440534591675,
        0.21897734701633453,
        0.3580770194530487,
        0.17676864564418793,
        0.10757923871278763,
        -0.1364230066537857,
        -0.1163034439086914,
        0.41324669122695923,
        -0.4112222492694855,
        -0.14340505003929138,
        -0.06137881428003311,
        0.25544580817222595,
        0.29954296350479126,
        0.1632395088672638
      ],
      [
        0.4158616065979004,
        0.36146894097328186,
        -0.062111176550388336,
        -0.116640105843544,
        -0.3989107310771942,
        -0.3596772849559784,
        -0.3870292603969574,
        0.14757458865642548,
        -0.41060182452201843,
        0.6202773451805115,
        -0.3775019347667694,
        -0.5264843702316284,
        0.20252655446529388,
        -0.14257162809371948,
        0.3765784502029419,
        0.2369173765182495,
        -0.3591823875904083,
        -0.3539693057537079,
        0.41055139899253845,
        0.32694417238235474,
        0.3165650963783264,
        -0.33774805068969727,
        0.39897364377975464,
        0.12506015598773956,
        -0.22595061361789703,
        0.2540844678878784,
        0.3776639699935913,
        0.050204887986183167,
        -0.3381277620792389,
        0.6510306000709534,
        -0.4567323327064514,
        -0.3344644010066986,
        0.40192005038261414,
        -0.30727148056030273,
        0.1885872632265091,
        0.5854143500328064,
        0.6705496311187744,
        0.21602606773376465,
        -0.3310934901237488,
        0.38250818848609924,
        0.2957371473312378,
        0.48429998755455017,
        -0.37227222323417664,
        -0.3241885304450989,
        -0.146559938788414,
        0.4344584345817566,
        0.1765103042125702,
        0.270799845457077,
        0.25592151284217834,
        0.47415459156036377,
        0.36576786637306213,
        0.4225563406944275,
        0.5781554579734802,
        -0.04053704813122749,
        -0.4871412515640259,
        0.2515852749347687,
        0.5875149369239807,
        0.5091674327850342,
        0.3053354322910309,
        0.18932802975177765,
        0.4707236886024475,
        0.5021032691001892,
        -0.20227749645709991,
        0.5872510671615601
      ],
      [
        0.03801500424742699,
        -0.07045983523130417,
        0.012780684977769852,
        -0.017086276784539223,
        -0.09524106979370117,
        -0.10442404448986053,
        -0.14180487394332886,
        -0.09868999570608139,
        0.034919291734695435,
        -0.007788475137203932,
        0.07089945673942566,
        -0.12763509154319763,
        -0.024049675092101097,
        -0.12590767443180084,
        -0.029675282537937164,
        0.01870613358914852,
        -0.1259220838546753,
        0.10351286083459854,
        -0.06937526911497116,
        0.0904577448964119,
        -0.05158396065235138,
        0.04895147681236267,
        0.08428748697042465,
        -0.0722479522228241,
        -0.05539877340197563,
        0.03924443945288658,
        -0.1340017467737198,
        0.06553909927606583,
        -0.08859222382307053,
        0.09836217761039734,
        -0.10146990418434143,
        -0.0751059278845787,
        0.06223602592945099,
        -0.07448842376470566,
        0.09162210673093796,
        0.05813563987612724,
        0.08371160179376602,
        -0.13797789812088013,
        -0.02089582569897175,
        -0.061824798583984375,
        0.0010918871266767383,
        -0.10214748233556747,
        0.0436510294675827,
        -0.022949006408452988,
        -0.08424930274486542,
        -0.1349157691001892,
        0.03641752898693085,
        -0.07500454038381577,
        0.06274820864200592,
        0.0008385259425267577,
        0.0021017526742070913,
        -0.04807044565677643,
        -0.04855485260486603,
        -0.06684911251068115,
        -0.11850927025079727,
        0.061442527920007706,
        -0.09732307493686676,
        0.04066403955221176,
        -0.06113263964653015,
        0.058145929127931595,
        0.08424817770719528,
        -0.09946354478597641,
        0.07676307111978531,
        -0.024581266567111015
      ],
      [
        -0.3173706829547882,
        0.21191491186618805,
        0.5692812204360962,
        0.585221529006958,
        0.17034217715263367,
        0.5745346546173096,
        0.6962214112281799,
        0.6341860890388489,
        0.7189580202102661,
        -0.6274558305740356,
        0.581821620464325,
        0.6448285579681396,
        0.17463184893131256,
        0.6076321005821228,
        0.08167092502117157,
        0.5748217105865479,
        0.6853227615356445,
        0.6178683042526245,
        -0.11393211036920547,
        0.14693909883499146,
        -0.08716098964214325,
        0.5547770857810974,
        0.35792237520217896,
        0.2448311150074005,
        0.5611929297447205,
        -0.28177738189697266,
        -0.23828250169754028,
        0.07230917364358902,
        0.3515637218952179,
        -0.41364097595214844,
        0.3873848617076874,
        0.38510480523109436,
        0.03581743314862251,
        0.5200863480567932,
        0.43825578689575195,
        0.05644943565130234,
        -0.4507932960987091,
        0.22001579403877258,
        0.4389042854309082,
        -0.10512730479240417,
        0.19581830501556396,
        -0.24024054408073425,
        0.5858611464500427,
        0.6100398302078247,
        0.5975090861320496,
        0.3256473243236542,
        0.24855932593345642,
        -0.3210657238960266,
        0.4466025233268738,
        -0.17515240609645844,
        -0.12165926396846771,
        -0.286063551902771,
        -0.25869685411453247,
        0.35983040928840637,
        0.45415356755256653,
        0.34492385387420654,
        -0.2115316390991211,
        0.04039662331342697,
        -0.0860723927617073,
        0.4123827815055847,
        0.15504616498947144,
        -0.08827733993530273,
        0.543897807598114,
        -0.4906962513923645
      ],
      [
        -0.07064993679523468,
        -0.08833568543195724,
        0.021419083699584007,
        0.004720986820757389,
        -0.03561951220035553,
        0.09673400223255157,
        -0.11781727522611618,
        0.045202404260635376,
        -0.06878145039081573,
        -0.02846357226371765,
        -0.12003076821565628,
        -0.10354480147361755,
        -0.116371750831604,
        0.05557835102081299,
        -0.05893917754292488,
        0.05277751758694649,
        -0.06774361431598663,
        -0.03097057342529297,
        -0.004896876867860556,
        0.09292371571063995,
        -0.03368920087814331,
        0.06176963448524475,
        0.03611841797828674,
        0.06471408158540726,
        0.06734783947467804,
        0.0507269948720932,
        -0.049463629722595215,
        -0.035083308815956116,
        0.048662662506103516,
        0.06813031435012817,
        -0.006671682000160217,
        0.0510079525411129,
        -0.07442540675401688,
        0.060494258999824524,
        -0.020666353404521942,
        -0.10034202039241791,
        -0.06952475756406784,
        -0.09546227753162384,
        0.011981729418039322,
        -0.07413259148597717,
        -0.04835231974720955,
        -0.007831871509552002,
        -0.07627008855342865,
        -0.013048144057393074,
        -0.02754516713321209,
        0.026814037933945656,
        0.07772843539714813,
        -0.07545864582061768,
        0.05483706668019295,
        -0.014105441980063915,
        -0.06943940371274948,
        -0.07022161781787872,
        0.03384782373905182,
        0.015119223855435848,
        -0.004037529230117798,
        -0.06223069131374359,
        0.03423451632261276,
        0.00460906932130456,
        -0.13152951002120972,
        -0.03367994725704193,
        -0.04408780485391617,
        -0.06798125058412552,
        -0.0809643566608429,
        -0.09552396088838577
      ],
      [
        -0.24843434989452362,
        0.2188088744878769,
        0.5162971615791321,
        -0.24558833241462708,
        -0.0197190772742033,
        -0.29750555753707886,
        -0.3636188805103302,
        0.458206444978714,
        -0.20115257799625397,
        -0.26522335410118103,
        0.22349129617214203,
        -0.22571033239364624,
        -0.4113468527793884,
        0.2698657810688019,
        0.49983999133110046,
        0.36136138439178467,
        -0.34537768363952637,
        -0.3229046165943146,
        0.4323883354663849,
        -0.5488662123680115,
        0.5066019892692566,
        -0.4130701720714569,
        0.6224713921546936,
        0.5103779435157776,
        0.21177779138088226,
        0.5154220461845398,
        0.12416912615299225,
        0.09020474553108215,
        0.008206606842577457,
        0.4031045436859131,
        -0.21293868124485016,
        -0.18831121921539307,
        0.6449127197265625,
        -0.4643147587776184,
        0.4421921670436859,
        0.43560633063316345,
        0.3963426351547241,
        -0.14256121218204498,
        -0.15593023598194122,
        -0.2294684797525406,
        0.4763880670070648,
