{
  "type": "dqn",
  "encoding": "v1",
  "hidden": 64,
  "epsilon": 0.01,
  "weights": {
    "net.0.weight": [
      [
        0.4654560387134552,
        0.24524547159671783,
        0.272554874420166,
        1.0074758529663086,
        0.024185767397284508,
        0.3833673596382141,
        -0.21803909540176392,
        0.646623432636261,
        0.057372383773326874,
        -0.36208444833755493,
        0.43716225028038025,
        -0.480336457490921
      ],
      [
        0.639708936214447,
        -0.9942155480384827,
        0.9447724223136902,
        0.4316311180591583,
        0.4062550365924835,
        -0.5339963436126709,
        -0.15668466687202454,
        0.7305404543876648,
        0.8494164347648621,
        -0.09997204691171646,
        0.022367067635059357,
        -0.018366487696766853
      ],
      [
        -0.5406603813171387,
        0.24883075058460236,
        -0.31767648458480835,
        -0.2296058088541031,
        0.38139066100120544,
        0.03319326788187027,
        0.8162011504173279,
        0.033427562564611435,
        0.7124626040458679,
        0.5283360481262207,
        0.19590112566947937,
        0.3154134154319763
      ],
      [
        0.05106471851468086,
        0.6054208278656006,
        0.7141504883766174,
        0.17837606370449066,
        0.6660832166671753,
        0.2628517746925354,
        0.08765586465597153,
        0.8759387135505676,
        -0.793088436126709,
        -0.39618393778800964,
        1.031685471534729,
        -1.3102296590805054
      ],
      [
        0.452615350484848,
        -1.0421042442321777,
        -0.7473273873329163,
        -0.7631105780601501,
        0.7025318145751953,
        0.32086628675460815,
        -0.5533115267753601,
        -0.15170715749263763,
        0.12931963801383972,
        -0.10743173956871033,
        1.1397238969802856,
        0.6992200613021851
      ],
      [
        -0.5644997954368591,
        -0.19009079039096832,
        0.31080853939056396,
        -0.2212170660495758,
        -0.7078903913497925,
        -0.5149129629135132,
        1.6520072221755981,
        0.5688721537590027,
        -0.1896325945854187,
        -0.6456339359283447,
        -0.548803448677063,
        0.10755554586648941
      ],
      [
        1.1820929050445557,
        -0.07845154404640198,
        -0.15892811119556427,
        -0.29057812690734863,
        -0.14701837301254272,
        -0.2137695550918579,
        0.8430802822113037,
        0.015329291112720966,
        0.061231717467308044,
        -0.08311712741851807,
        -0.24551959335803986,
        -0.1588439643383026
      ],
      [
        0.5692561864852905,
        -0.3454298675060272,
        -0.4585871398448944,
        0.36351221799850464,
        0.19898736476898193,
        0.022676976397633553,
        0.4701685309410095,
        -0.09406881034374237,
        -0.1028917133808136,
        0.7210124731063843,
        0.1584659069776535,
        0.18071132898330688
      ],
      [
        1.3530231714248657,
        -0.47619014978408813,
        -0.24386060237884521,
        -0.3064318001270294,
        -0.2668086290359497,
        0.14928515255451202,
        0.24942418932914734,
        0.19349420070648193,
        0.17405195534229279,
        -0.27144572138786316,
        -0.013951358385384083,
        0.6816653609275818
      ],
      [
        -0.21954764425754547,
        0.022381151095032692,
        -0.07689974457025528,
        1.055253267288208,
        0.021153705194592476,
        0.007087832782417536,
        -1.0125662088394165,
        -0.003457761602476239,
        -0.06216030940413475,
        -1.015529751777649,
        -0.6141954660415649,
        -0.5504556894302368
      ],
      [
        -0.34135380387306213,
        0.40283501148223877,
        -0.24607910215854645,
        -2.4629507064819336,
        0.6686294674873352,
        -1.5294252634048462,
        0.016773998737335205,
        0.15467685461044312,
        0.17379988729953766,
        0.15744687616825104,
        1.1812760829925537,
        1.5644060373306274
      ],
      [
        -0.3889973759651184,
        -1.0390981435775757,
        0.38207316398620605,
        -0.3904728591442108,
        -0.12709146738052368,
        -0.5457611680030823,
        1.0564056634902954,
        0.32942572236061096,
        0.7036564946174622,
        -0.12155556678771973,
        -0.9164487719535828,
        0.19887663424015045
      ],
      [
        0.2899946868419647,
        0.2650753855705261,
        0.13871420919895172,
        0.9899384379386902,
        -0.19415193796157837,
        -0.3178156614303589,
        0.4171407222747803,
        -0.35045045614242554,
        0.09753791242837906,
        -0.6518617868423462,
        -0.06748029589653015,
        -0.510223925113678
      ],
      [
        0.7131555080413818,
        -0.381603866815567,
        0.2676863670349121,
        -0.34686893224716187,
        0.1951228231191635,
        -0.16583287715911865,
        0.6408113837242126,
        -0.052696168422698975,
        -0.1848708689212799,
        0.5043185949325562,
        0.5438981652259827,
        0.48302388191223145
      ],
      [
        0.5214935541152954,
        -0.6607006192207336,
        -0.6834403872489929,
        -0.071900375187397,
        -0.3267807364463806,
        0.320835679769516,
        -0.38044893741607666,
        -0.3857163190841675,
        -0.11908978223800659,
        0.8113626837730408,
        0.3300092816352844,
        -0.45157718658447266
      ],
      [
        0.2390836775302887,
        0.03184216096997261,
        -0.02616845816373825,
        0.12935040891170502,
        0.11447085440158844,
        0.09831968694925308,
        0.29261115193367004,
        -0.3071291446685791,
        -0.4898928701877594,
        0.3900226354598999,
        0.48169028759002686,
        0.25929340720176697
      ],
      [
        1.0350019931793213,
        0.8415907621383667,
        0.23038023710250854,
        -0.18287760019302368,
        0.31444770097732544,
        0.18097490072250366,
        0.3462293744087219,
        -0.2534538209438324,
        -0.762414276599884,
        -0.49690619111061096,
        0.5369797945022583,
        -0.3696121871471405
      ],
      [
        0.0342482328414917,
        -1.1224374771118164,
        -0.997612714767456,
        -0.0894443616271019,
        -0.07927297055721283,
        0.08616796135902405,
        1.3363604545593262,
        1.109903335571289,
        0.028562229126691818,
        0.03360964357852936,
        0.2149050533771515,
        -0.03766107186675072
      ],
      [
        0.29924407601356506,
        -0.006407880689948797,
        0.25476744771003723,
        -0.7206602692604065,
        0.4031044840812683,
        -0.2529393136501312,
        -1.0655887126922607,
        -0.09109438210725784,
        0.1591259390115738,
        0.5405220985412598,
        -0.3022618889808655,
        0.5280769467353821
      ],
      [
        -0.2880779206752777,
        -0.3220541775226593,
        -0.8488892912864685,
        1.007692575454712,
        0.611274003982544,
        0.1936422735452652,
        0.5219547748565674,
        0.39840391278266907,
        -0.5743727684020996,
        -0.6201611757278442,
        -0.9733579158782959,
        -0.5745921730995178
      ],
      [
        0.5728949308395386,
        -0.018174055963754654,
        0.3129807710647583,
        -0.3843744695186615,
        -0.5964773297309875,
        -0.4210321307182312,
        -0.18491585552692413,
        0.2760605812072754,
        -0.5029793381690979,
        1.0015499591827393,
        -0.24626100063323975,
        -0.36079829931259155
      ],
      [
        -0.036682721227407455,
        -0.66767817735672,
        -1.336329460144043,
        -0.6762629151344299,
        0.21794633567333221,
        0.13770829141139984,
        0.8251097798347473,
        -0.17866560816764832,
        0.4560653567314148,
        -1.6595546007156372,
        0.6495261788368225,
        0.11651644110679626
      ],
      [
        0.3528445065021515,
        0.5940582156181335,
        -1.4228650331497192,
        -0.4120924770832062,
        0.3936993479728699,
        -0.11505407094955444,
        0.328910231590271,
        0.7867122292518616,
        -0.5633820295333862,
        0.5724605321884155,
        0.21462851762771606,
        0.5035333037376404
      ],
      [
        -0.9953680038452148,
        -0.1094910204410553,
        -0.32718828320503235,
        -0.8069210052490234,
        0.20793011784553528,
        0.49814698100090027,
        0.5459924340248108,
        -1.9230788946151733,
        0.3001128137111664,
        -0.047863882035017014,
        -0.9036799073219299,
        -1.3096786737442017
      ],
      [
        0.8966919779777527,
        -0.3325594365596771,
        -0.24952569603919983,
        -0.13243718445301056,
        -0.34705331921577454,
        -0.03461015969514847,
        0.778071403503418,
        -0.09099560230970383,
        -0.5253482460975647,
        0.3396872282028198,
        -0.5447054505348206,
        0.25056925415992737
      ],
      [
        0.13084794580936432,
        0.6657244563102722,
        1.2798622846603394,
        -0.4182465970516205,
        -0.16268214583396912,
        0.10084795206785202,
        -1.2668585777282715,
        0.8623089790344238,
        -0.7231491208076477,
        0.1136498972773552,
        0.20849239826202393,
        0.6085671782493591
      ],
      [
        -0.6562818288803101,
        0.3394225239753723,
        0.08136538416147232,
        0.7640889286994934,
        0.4578348398208618,
        0.291230708360672,
        0.2972085475921631,
        -0.26427948474884033,
        0.4762895405292511,
        0.2150862216949463,
        -0.6964526176452637,
        -0.155293807387352
      ],
      [
        -0.1826704442501068,
        -0.23148426413536072,
        -0.19727009534835815,
        -0.28488704562187195,
        -0.22275298833847046,
        -0.0713886097073555,
        0.1551278680562973,
        0.01925479993224144,
        -0.21956788003444672,
        -0.23158209025859833,
        0.10391619056463242,
        -0.2147284746170044
      ],
      [
        0.901684045791626,
        0.25848788022994995,
        1.0194106101989746,
        -0.17129167914390564,
        -0.45064395666122437,
        0.30440670251846313,
        -0.3904871642589569,
        -0.11086823791265488,
        0.1671048104763031,
        -0.35652491450309753,
        -0.20066124200820923,
        0.11113050580024719
      ],
      [
        -0.35137808322906494,
        0.09726158529520035,
        0.24608738720417023,
        0.9327483177185059,
        0.21326158940792084,
        0.5143246650695801,
        -1.3178852796554565,
        0.0957154631614685,
        -0.37641775608062744,
        0.5740769505500793,
        -0.27806970477104187,
        -0.3729836344718933
      ],
      [
        -0.5658087730407715,
        0.9668701887130737,
        0.41288623213768005,
        -0.15890717506408691,
        0.8997958898544312,
        0.4501660168170929,
        -0.47619572281837463,
        0.1355377584695816,
        1.4085183143615723,
        -0.7926274538040161,
        0.8799179196357727,
        -0.8723695874214172
      ],
      [
        -0.21724699437618256,
        -0.0756196454167366,
        0.21961338818073273,
        0.27682018280029297,
        1.1187572479248047,
        -0.681302547454834,
        0.03093641810119152,
        -0.5514605045318604,
        -0.2252395898103714,
        -0.8236976861953735,
        0.34914395213127136,
        1.009559988975525
      ],
      [
        -1.0017688274383545,
        0.5720412135124207,
        0.7953155636787415,
        -0.4056054353713989,
        -0.541113555431366,
        -0.2243320345878601,
        -1.2773597240447998,
        1.0284456014633179,
        0.017007339745759964,
        -0.5078833103179932,
        0.020049192011356354,
        -0.22780542075634003
      ],
      [
        -0.09107410907745361,
        0.40495818853378296,
        0.04111851379275322,
        -0.31117406487464905,
        -0.9545412659645081,
        0.2951017916202545,
        0.6644634008407593,
        -0.5000016093254089,
        -0.37691259384155273,
        -0.16805270314216614,
        0.23114866018295288,
        -0.21680721640586853
      ],
      [
        -0.3282109200954437,
        -0.027250226587057114,
        -0.035809461027383804,
        0.30403655767440796,
        0.07062477618455887,
        0.4541458189487457,
        1.0308502912521362,
        0.397189736366272,
        -0.3295563757419586,
        0.8395408391952515,
        0.1503753364086151,
        -0.3426905572414398
      ],
      [
        0.1161886677145958,
        0.7972267270088196,
        -0.4882168769836426,
        0.20430368185043335,
        0.21332457661628723,
        -0.4566102623939514,
        0.09487873315811157,
        -1.093167781829834,
        0.39946189522743225,
        0.07049178332090378,
        0.4373452663421631,
        0.41891613602638245
      ],
      [
        -0.17771369218826294,
        -0.1522471010684967,
        -0.13867558538913727,
        1.2093746662139893,
        -0.23604422807693481,
        -1.2688440084457397,
        -0.07951240241527557,
        0.06267796456813812,
        0.13720031082630157,
        0.8559468984603882,
        0.280913382768631,
        0.6589736938476562
      ],
      [
        1.4508681297302246,
        -0.8602637052536011,
        -0.3824000060558319,
        0.36684510111808777,
        -0.1552267223596573,
        -0.04139220342040062,
        0.052236106246709824,
        -0.05614084005355835,
        1.2340104579925537,
        -0.04254033789038658,
        0.16720154881477356,
        0.4634835422039032
      ],
      [
        0.3522171676158905,
        1.0416580438613892,
        1.8460055589675903,
        -0.0779992863535881,
        0.17945727705955505,
        -0.10318981856107712,
        0.872787356376648,
        -2.343383550643921,
        -0.47407394647598267,
        -0.2899520993232727,
        -0.045464154332876205,
        -0.16425387561321259
      ],
      [
        0.8601797819137573,
        -0.29360252618789673,
        1.1620876789093018,
        0.711353600025177,
        -0.30149951577186584,
        0.39537057280540466,
        -0.4495629072189331,
        0.6750767827033997,
        -0.4718782305717468,
        -0.44409212470054626,
        -0.49352848529815674,
        0.46712008118629456
      ],
      [
        0.47493216395378113,
        -0.6635437607765198,
        -0.04860314726829529,
        0.44194355607032776,
        0.21247269213199615,
        -0.2750834822654724,
        0.6871269345283508,
        -0.28009432554244995,
        0.05621408671140671,
        0.8101239204406738,
        -0.32754024863243103,
        0.6426635384559631
      ],
      [
        0.08858130872249603,
        1.095715045928955,
        0.7591358423233032,
        0.5309484004974365,
        0.22738291323184967,
        -0.6383963823318481,
        0.1912909746170044,
        -0.17035645246505737,
        -0.5704243183135986,
        0.054359789937734604,
        0.15982772409915924,
        0.6511763334274292
      ],
      [
        1.2378467321395874,
        -0.24764376878738403,
        -0.3634120225906372,
        0.3006615936756134,
        0.298398494720459,
        0.08802573382854462,
        0.17930112779140472,
        -0.42734667658805847,
        0.18951810896396637,
        -0.3898894786834717,
        0.05050511658191681,
        -0.16915075480937958
      ],
      [
        1.0615593194961548,
        -0.5673391819000244,
        -1.534093976020813,
        -0.6829985976219177,
        0.20559698343276978,
        0.05394315719604492,
        0.0568423755466938,
        0.22132451832294464,
        0.6992436647415161,
        -0.5349397659301758,
        -0.1542174518108368,
        0.3298971354961395
      ],
      [
        0.3719487190246582,
        0.6288667917251587,
        0.3013446033000946,
        -0.5424261689186096,
        0.21709975600242615,
        0.19731168448925018,
        0.36882707476615906,
        -0.9254939556121826,
        -0.3359939157962799,
        0.5203980803489685,
        0.7611269950866699,
        0.023666001856327057
      ],
      [
        -0.7112822532653809,
        0.14653806388378143,
        -0.01732184737920761,
        0.7340245246887207,
        -0.403568297624588,
        -0.3772028684616089,
        0.5153775811195374,
        0.11127565056085587,
        -0.06074737012386322,
        -0.06712990254163742,
        0.05564696341753006,
        -0.3352280855178833
      ],
      [
        -0.27652493119239807,
        -0.2871605455875397,
        0.7092486023902893,
        -0.5803035497665405,
        0.25051426887512207,
        -0.10154833644628525,
        0.37305405735969543,
        -0.19401754438877106,
        0.32798343896865845,
        0.852389395236969,
        0.14897675812244415,
        0.13023824989795685
      ],
      [
        -0.35627058148384094,
        0.618340015411377,
        -0.16002605855464935,
        -0.717675507068634,
        -0.8259004354476929,
        -1.1841264963150024,
        -0.5854204297065735,
        -0.14655187726020813,
        -0.13728918135166168,
        0.5283335447311401,
        0.6360068321228027,
        0.015604520216584206
      ],
      [
        -0.2463918924331665,
        -0.30431419610977173,
        -0.24618451297283173,
        0.43391042947769165,
        0.6198505759239197,
        0.7101176381111145,
        0.2918512225151062,
        -0.2767419219017029,
        0.885107159614563,
        -0.24817831814289093,
        -1.2142128944396973,
        0.36471739411354065
      ],
      [
        -0.3980025351047516,
        -0.05265957862138748,
        0.03436528146266937,
        0.13924963772296906,
        -3.3180606365203857,
        -0.4978441596031189,
        -0.08361908048391342,
        0.2639722526073456,
        -0.014812944456934929,
        -0.1027476117014885,
        1.4759751558303833,
        1.7058840990066528
      ],
      [
        -0.2599925100803375,
        0.5034549832344055,
        0.18705442547798157,
        -0.07117756456136703,
        -0.4321446716785431,
        0.3211791515350342,
        -0.3307019770145416,
        0.18176798522472382,
        0.379452645778656,
        1.27919602394104,
        -0.334287166595459,
        -0.9721509218215942
      ],
      [
        -1.1086616516113281,
        0.14146199822425842,
        0.5951371192932129,
        0.2598501443862915,
        0.108550526201725,
        -0.5143417119979858,
        -0.5097057223320007,
        0.6159787774085999,
        0.5390286445617676,
        0.19109638035297394,
        -0.0286625437438488,
        1.4207335710525513
      ],
      [
        -0.08552910387516022,
        -0.6153507828712463,
        0.09326306730508804,
        0.4151187837123871,
        0.21893444657325745,
        0.1740783005952835,
        -0.350172221660614,
        -0.041759416460990906,
        0.5889378190040588,
        0.9305279850959778,
        -0.3424009680747986,
        -0.12839487195014954
      ],
      [
        -0.5052391290664673,
        -0.7893143892288208,
        -0.6108006238937378,
        -0.17533361911773682,
        0.6241644620895386,
        0.29842811822891235,
        0.7812560200691223,
        -1.2842408418655396,
        -0.2407238632440567,
        -0.35492292046546936,
        -1.4425957202911377,
        0.5894287824630737
      ],
      [
        -0.35519179701805115,
        0.8602069616317749,
        -0.09588045626878738,
        -0.7730640172958374,
        -0.503371000289917,
        0.3395393490791321,
        0.5551212430000305,
        -0.8051208257675171,
        0.1313505321741104,
        0.0819927304983139,
        -0.7324138879776001,
        -0.7646621465682983
      ],
      [
        0.12804482877254486,
        -0.7157661318778992,
        0.3884764015674591,
        0.8515768647193909,
        -0.5216922760009766,
        0.6080410480499268,
        0.49340784549713135,
        0.16580507159233093,
        0.22534778714179993,
        -0.5725093483924866,
        0.16758310794830322,
        0.04181639477610588
      ],
      [
        0.7559245824813843,
        0.4867757260799408,
        -0.09877097606658936,
        0.7834767699241638,
        -0.20020584762096405,
        -0.048565492033958435,
        -0.45280489325523376,
        -0.39798539876937866,
        0.5259497761726379,
        0.5108551979064941,
        0.21036705374717712,
        0.18586012721061707
      ],
      [
        -0.17004622519016266,
        -0.064324751496315,
        -0.7062092423439026,
        -0.15735457837581635,
        -0.754705548286438,
        0.9926266074180603,
        0.16992393136024475,
        0.12499205023050308,
        0.18600301444530487,
        0.3851296901702881,
        0.5957772135734558,
        0.9918281435966492
      ],
      [
        0.7064974308013916,
        0.255962997674942,
        -0.34447088837623596,
        0.821914792060852,
        0.22620560228824615,
        -0.5183557271957397,
        -0.40523624420166016,
        -0.33111006021499634,
        -0.486981600522995,
        -0.33403444290161133,
        -0.26666778326034546,
        -1.4724339246749878
      ],
      [
        -0.22958610951900482,
        0.731961727142334,
        -0.29588747024536133,
        0.7620974183082581,
        0.44466862082481384,
        -0.021196525543928146,
        0.7344802618026733,
        -0.6824042201042175,
        0.7341673970222473,
        -0.7787998914718628,
        -0.47152745723724365,
        0.28355860710144043
      ],
      [
        -0.3512529730796814,
        -0.7533128261566162,
        0.12166357785463333,
        1.065252661705017,
        0.15758514404296875,
        0.13984622061252594,
        0.34176376461982727,
        -0.1820785403251648,
        -0.20554372668266296,
        -0.14146052300930023,
        0.08748789131641388,
        0.3889332413673401
      ],
      [
        -0.44459637999534607,
        0.011019699275493622,
        0.22419263422489166,
        1.0645571947097778,
        -0.27798205614089966,
        -0.30875343084335327,
        0.5073751211166382,
        0.11095806211233139,
        0.22211958467960358,
        0.6167215704917908,
        -0.09632464498281479,
        0.15495899319648743
      ],
      [
        -0.47631749510765076,
        0.1443648785352707,
        0.472907692193985,
        -0.6350820064544678,
        0.5673782229423523,
        0.7278128266334534,
        0.14087337255477905,
        0.2830938994884491,
        -0.4592147767543793,
        0.0464060977101326,
        0.42353686690330505,
        0.13117346167564392
      ],
      [
        0.06785731762647629,
        0.3244670033454895,
        -0.14564384520053864,
        0.9653208255767822,
        0.2720035910606384,
        0.4807290732860565,
        -0.04863801971077919,
        -0.2023812085390091,
        -0.880346417427063,
        0.5820354223251343,
        -0.2994142472743988,
        -0.6203908920288086
      ]
    ],
    "net.0.bias": [
      -0.14015130698680878,
      -0.2858806550502777,
      -0.4876064658164978,
      -0.7852567434310913,
      -0.23553797602653503,
      -0.559891939163208,
      -0.14469829201698303,
      -0.21437904238700867,
      0.05417514592409134,
      0.4089585244655609,
      0.35344329476356506,
      0.5630107522010803,
      -0.060725849121809006,
      -0.4747166335582733,
      -0.15504513680934906,
      -0.5325122475624084,
      -0.16682642698287964,
      -0.23705480992794037,
      0.39869382977485657,
      -0.0889066830277443,
      0.03395238146185875,
      0.08200957626104355,
      -0.9635671973228455,
      0.2828071415424347,
      0.07248137891292572,
      0.1295890212059021,
      -0.27518537640571594,
      -0.30512118339538574,
      -0.07703524082899094,
      -0.04067555442452431,
      -0.41634345054626465,
      -0.35162442922592163,
      -1.355421781539917,
      0.8574071526527405,
      -0.5328596830368042,
      -0.7314004302024841,
      0.08778056502342224,
      -0.2883392870426178,
      -0.046524547040462494,
      -0.1292751133441925,
      -0.21355588734149933,
      -1.2459583282470703,
      0.035646162927150726,
      0.02726554684340954,
      -0.4380536377429962,
      -0.17600587010383606,
      -0.035570770502090454,
      0.36355435848236084,
      -0.9312236905097961,
      0.08574353158473969,
      0.17710812389850616,
      0.23615145683288574,
      0.29943761229515076,
      0.07762055844068527,
      -0.30718839168548584,
      -0.11197900027036667,
      -0.5262422561645508,
      -0.5509518980979919,
      0.14797961711883545,
      -0.06104186922311783,
      -0.18322932720184326,
      -0.2799971401691437,
      -0.2405320107936859,
      -0.191710963845253
    ],
    "net.2.weight": [
      [
        -0.037977784872055054,
        -0.03438439592719078,
        0.2663789987564087,
        -0.2916580140590668,
        0.053297437727451324,
        0.3665844798088074,
        -0.4853583574295044,
        -0.09630733728408813,
        -0.9580385684967041,
        0.48546576499938965,
        -0.040773387998342514,
        0.2217148393392563,
        0.2524442672729492,
        -0.5789834856987,
        -0.0020061538089066744,
        -0.2606760561466217,
        -0.5785513520240784,
        0.11577363312244415,
        0.0703691765666008,
        0.42891526222229004,
        -0.22319722175598145,
        -0.43713366985321045,
        -0.34207671880722046,
        0.5783135294914246,
        -0.22725974023342133,
        -0.5952423810958862,
        0.24011074006557465,
        0.17079855501651764,
        -0.15520812571048737,
        0.33214542269706726,
        0.3529283106327057,
        -0.2071523368358612,
        -1.8806335926055908,
        0.4055272936820984,
        0.0718192458152771,
        0.13722389936447144,
        0.40187570452690125,
        -0.718191385269165,
        0.3947458565235138,
        -0.2604082524776459,
        -0.09280971437692642,
        -0.5325222015380859,
        -0.48982974886894226,
        -0.520717442035675,
        0.359491765499115,
        -0.16895101964473724,
        0.3696851134300232,
        0.48699358105659485,
        0.5921406149864197,
        0.7350039482116699,
        0.32046249508857727,
        -0.009681344032287598,
        0.6283889412879944,
        0.10131071507930756,
        0.43739432096481323,
        0.07829811424016953,
        -0.3140794038772583,
        0.6615896224975586,
        0.11601909250020981,
        0.47726380825042725,
        0.08531660586595535,
        -0.009663240984082222,
        0.33990874886512756,
        0.2959781885147095
      ],
      [
        -0.08871440589427948,
        -0.09841372072696686,
        -0.030953913927078247,
        -0.06438370794057846,
        0.09372936189174652,
        0.03931733965873718,
        0.06517983973026276,
        -0.041324783116579056,
        -0.0148906409740448,
        -0.0007954423199407756,
        -0.13234125077724457,
        0.009536519646644592,
        -0.0437270849943161,
        -0.11159233748912811,
        -0.10075438767671585,
        0.07536603510379791,
        0.05802664905786514,
        0.031038442626595497,
        0.07287801057100296,
        -0.07760710269212723,
        -0.06331592798233032,
        0.005840039812028408,
        -0.013577107340097427,
        -0.0245293527841568,
        -0.14398585259914398,
        -0.013607428409159184,
        -0.09231986850500107,
        0.004545778036117554,
        0.08504647016525269,
        -0.08860054612159729,
        -0.06629061698913574,
        0.04852180555462837,
        -0.05798980966210365,
        -0.03302878141403198,
        0.1353108286857605,
        -0.05709937587380409,
        -0.11399296671152115,
        -0.1146438792347908,
        -0.04778473451733589,
        -0.10479675233364105,
        -0.11127304285764694,
        -0.006079701241105795,
        -0.014415389858186245,
        -0.0865974873304367,
        -0.1444815844297409,
        -0.06625384092330933,
        -0.08951649814844131,
        -0.02206197753548622,
        -0.16142147779464722,
        0.014526422135531902,
        -0.10442887991666794,
        -0.13780957460403442,
        -0.1134619265794754,
        0.02528626285493374,
        -0.12516868114471436,
        -0.1040828600525856,
        0.052686624228954315,
        0.04601874575018883,
        0.029623789712786674,
        -0.14238479733467102,
        -0.08718251436948776,
        -0.06950395554304123,
        0.0835253894329071,
        -0.026350021362304688
      ],
      [
        -0.17520155012607574,
        -0.1510956585407257,
        0.8437650203704834,
        1.2118910551071167,
        -0.9133779406547546,
        1.3186511993408203,
        0.7923631072044373,
        0.5040957927703857,
        0.1752658188343048,
        -1.8146320581436157,
        0.3370074927806854,
        0.675591766834259,
        0.3937806785106659,
        0.6838900446891785,
        -0.15055637061595917,
        0.27878132462501526,
        0.8528391122817993,
        1.6015328168869019,
        -1.6677497625350952,
        0.7289189100265503,
        -0.331513375043869,
        0.961903989315033,
        0.3993537127971649,
        0.27626538276672363,
        0.5123356580734253,
        -5.495047092437744,
        0.5072571635246277,
        0.05239062011241913,
        -0.7274641394615173,
        -2.050607442855835,
        -0.7778511047363281,
        0.5662077069282532,
        -1.05642831325531,
        0.7948437333106995,
        1.2133862972259521,
        -0.017774801701307297,
        -0.138949915766716,
        -0.05496570095419884,
        1.3238729238510132,
        -0.9026435017585754,
        0.5482447743415833,
        0.23514628410339355,
        0.27575576305389404,
        -0.20255856215953827,
        0.5914157032966614,
        0.7691779136657715,
        0.4343680441379547,
        -0.5612032413482666,
        0.10719511657953262,
        -0.23375873267650604,
        0.03858980908989906,
        0.5978541374206543,
        -0.14773179590702057,
        0.39723366498947144,
        0.6213709712028503,
        0.8201931715011597,
        -0.5390918850898743,
        0.5302025675773621,
        -0.5387336611747742,
        1.1109719276428223,
        0.3227430284023285,
        0.6388123035430908,
        0.33163583278656006,
        -0.18766817450523376
      ],
      [
        0.010447618551552296,
        -0.03648688644170761,
        -0.0044703795574605465,
        -0.13417616486549377,
        -0.03361028805375099,
        -0.13966086506843567,
        0.003540159435942769,
        -0.11482759565114975,
        -0.0920434221625328,
        -0.11896761506795883,
        -0.06972742080688477,
        0.06950435787439346,
        -0.0024667633697390556,
        -0.12955281138420105,
        -0.04481527954339981,
        -0.03882300481200218,
        -0.12325863540172577,
        0.032313309609889984,
        -0.01896539144217968,
        -0.036100633442401886,
        -0.09329790621995926,
        -0.12038679420948029,
        -0.03745337575674057,
        0.017677199095487595,
        -0.018634703010320663,
        -0.09561200439929962,
        0.09188263863325119,
        -0.01239803433418274,
        -0.08354201912879944,
        -0.08830941468477249,
        0.05993152782320976,
        -0.05789709463715553,
        -0.03822774812579155,
        -0.11826016753911972,
        -0.09937082976102829,
        -0.12548159062862396,
        -0.1416792869567871,
        0.034576524049043655,
        0.0449313260614872,
        0.10211052000522614,
        -0.11303551495075226,
        0.0397949293255806,
        -0.14119186997413635,
        0.01741510070860386,
        0.03203677013516426,
        0.03392729535698891,
        0.028515160083770752,
        0.010371013544499874,
        -0.01764443889260292,
        0.004298998974263668,
        -0.10358911752700806,
        0.03716049715876579,
        -0.08631029725074768,
        -0.027103081345558167,
        -0.1661962866783142,
        -0.09477759897708893,
        -0.07567281275987625,
        -0.10135143995285034,
        -0.09193698316812515,
        -0.16909782588481903,
        -0.052412476390600204,
        0.02138756960630417,
        0.051064301282167435,
        0.05938740074634552
      ],
      [
        0.057933349162340164,
        -0.13032256066799164,
        -0.8042610883712769,
        -0.6822543144226074,
        0.1527257263660431,
        -1.2555211782455444,
        0.39312928915023804,
        0.1311705857515335,
        0.36194729804992676,
        0.616576611995697,
        -0.17880244553089142,
        -0.39590299129486084,
        0.06286674737930298,
        -0.02447512373328209,
        0.17293792963027954,
        -0.18135538697242737,
        0.47539469599723816,
        -0.8216549158096313,
        0.04790922999382019,
        0.1424950361251831,
        0.3297731578350067,
        -0.5069302320480347,
        0.2663498818874359,
        -1.017726182937622,
        0.014878622256219387,
        -0.026950065046548843,
        -0.18767760694026947,
        0.021974069997668266,
        0.579664409160614,
        0.2225021868944168,
        -0.038482390344142914,
        -0.21863996982574463,
        -0.6820817589759827,
        -0.7198020815849304,
        -0.05648224055767059,
        -0.06568390130996704,
        0.3268483281135559,
        0.407257080078125,
        -0.4549984633922577,
        0.474091500043869,
        -0.2515730857849121,
        0.3523417115211487,
        0.23595374822616577,
        0.5573258996009827,
        0.032661452889442444,
        -0.17089401185512543,
        -0.12105247378349304,
        -0.3142220079898834,
        0.16102153062820435,
        -0.015336690470576286,
        -0.31034356355667114,
        -0.6383770704269409,
        0.24214087426662445,
        -0.7540416717529297,
        -1.6033215522766113,
        -0.5025951862335205,
        -0.45668861269950867,
        -0.6579086184501648,
        0.038223154842853546,
        0.27106890082359314,
        0.14705809950828552,
        0.08899635076522827,
        -0.7374447584152222,
        0.1692885458469391
      ],
      [
        -0.11500346660614014,
        -0.5820111036300659,
        -0.46312305331230164,
        -0.28861990571022034,
        -0.10965839773416519,
        -1.7085765600204468,
        -0.9750983715057373,
        -0.7963525652885437,
        -0.4334993362426758,
        -1.0854533910751343,
        0.7683934569358826,
        -1.9978004693984985,
        -0.03213312476873398,
        -0.0463576503098011,
        -2.7765371799468994,
        -0.7032424211502075,
        0.3731999397277832,
        0.7469741702079773,
        -0.20288455486297607,
        -1.140105128288269,
        -1.0401356220245361,
        0.14675918221473694,
        0.2786176800727844,
        -0.4755360186100006,
        -0.9117217659950256,
        0.7787820100784302,
        -0.3965529203414917,
        0.006906246300786734,
        -0.15567627549171448,
        -0.256732702255249,
        0.9795882105827332,
        0.6310973167419434,
        0.4393254816532135,
        -0.251669704914093,
        -0.518252432346344,
        -0.5634325742721558,
        -1.082352638244629,
        -0.24827174842357635,
        -0.9341669678688049,
        -0.2931499481201172,
        -1.9570986032485962,
        1.9612157344818115,
        -1.06061851978302,
        -0.5096209645271301,
        -0.8322449922561646,
        -0.7062605023384094,
        -0.14499272406101227,
        -1.3056485652923584,
        -0.4937143325805664,
        -1.1589202880859375,
        -0.9313797950744629,
        0.0016286324243992567,
        -3.16043758392334,
        0.02395450696349144,
        0.6628826260566711,
        -0.44789156317710876,
        -0.4162634313106537,
        0.15340475738048553,
        -0.32094866037368774,
        -0.18430571258068085,
        -0.36915266513824463,
        -0.7426981329917908,
        0.021201135590672493,
        -2.1192901134490967
      ],
      [
        0.3716346323490143,
        -0.05152478814125061,
        -0.07929737865924835,
        1.4202148914337158,
        0.27048760652542114,
        -0.05859033763408661,
        -0.3145768642425537,
        -0.2875823378562927,
        -0.2469889521598816,
        -0.7606995105743408,
        -0.6351489424705505,
        -0.20807163417339325,
        -0.9562059640884399,
        -0.25735852122306824,
        -0.0623699426651001,
        -0.1262606531381607,
        -0.09171546250581741,
        0.45508134365081787,
        -0.736363410949707,
        0.5783731341362,
        0.5148458480834961,
        0.30355149507522583,
        1.1000269651412964,
        0.18226219713687897,
        -0.7294811606407166,
        -0.40786364674568176,
        0.09188342839479446,
        -0.02833053097128868,
        0.049754783511161804,
        -0.2274068295955658,
        -0.3361428380012512,
        0.3537341356277466,
        -0.528207540512085,
        -0.6629074811935425,
        0.08719562739133835,
        -0.6691687107086182,
        -0.731035590171814,
        0.09723607450723648,
        -0.3641311228275299,
        -0.2746891379356384,
        -0.21708035469055176,
        1.2471089363098145,
        -0.4615653157234192,
        -0.8304311037063599,
        -0.15221451222896576,
        -0.7714152932167053,
        -0.3150084614753723,
        -1.1794884204864502,
        0.3996187746524811,
        0.9361734390258789,
        -0.6875468492507935,
        -0.08544614166021347,
        -0.04986228048801422,
        -0.568654477596283,
        0.14269940555095673,
        -0.8436083197593689,
        -0.10327764600515366,
        0.8569360375404358,
        -0.10693959891796112,
        0.052488911896944046,
        -0.5073949098587036,
        -0.05153938755393028,
        0.6966437101364136,
        0.03118070214986801
      ],
      [
        -0.12267196923494339,
        -0.06317383050918579,
        -0.07101345807313919,
        -0.09512334316968918,
        -0.15061095356941223,
        0.0672382041811943,
        0.05963646247982979,
        -0.17984236776828766,
        -0.008795395493507385,
        0.025150388479232788,
        0.06415762007236481,
        0.04788797348737717,
        0.08061540871858597,
        -0.08343076705932617,
        0.03300793468952179,
        0.049621399492025375,
        -0.1440240740776062,
        -0.1053401529788971,
        -0.035788312554359436,
        0.033827152103185654,
        -0.09641283005475998,
        -0.011928168125450611,
        -0.05370597168803215,
        0.007280382327735424,
        -0.1261371672153473,
        0.013223306275904179,
        0.050153691321611404,
        -0.10174600780010223,
        -0.02222949080169201,
        -0.06158900633454323,
        0.02171524427831173,
        0.05440056696534157,
        -0.02052145265042782,
        -0.05619087442755699,
        0.07146794348955154,
        -0.11027820408344269,
        -0.10251244157552719,
        -0.0509612075984478,
        -0.12324999272823334,
        -0.0199288260191679,
        -0.1466527134180069,
        0.005283729638904333,
        -0.00479520158842206,
        -0.0062674786895513535,
        -0.1279410719871521,
        -0.15083816647529602,
        0.0015373191563412547,
        0.050755199044942856,
        -0.14440488815307617,
        0.010192407295107841,
        -0.11841347068548203,
        -0.061772383749485016,
        0.048008278012275696,
        0.06142400950193405,
        -0.13532313704490662,
        0.06330039352178574,
        0.001708768424578011,
        -0.06769078224897385,
        0.08691435307264328,
        -0.07115855813026428,
        -0.09567499905824661,
        -0.1344948709011078,
        -0.03614991530776024,
        -0.034321967512369156
      ],
      [
        0.12826986610889435,
        -0.027257205918431282,
        1.0228145122528076,
        0.8005807399749756,
        -1.9793331623077393,
        1.4043214321136475,
        0.9623883962631226,
        0.5669453740119934,
        0.18374797701835632,
        -2.1543421745300293,
        0.34927794337272644,
        1.1239548921585083,
        0.33021974563598633,
        0.7442848682403564,
        -0.05923597142100334,
        0.37914785742759705,
        0.414203941822052,
        0.9891645908355713,
        -2.3852171897888184,
        0.6135799288749695,
        -0.29560044407844543,
        0.9676268100738525,
        0.23955515027046204,
        0.6358473896980286,
        0.743428647518158,
        -2.9023451805114746,
        0.5466974377632141,
        0.15983285009860992,
        -1.108646035194397,
        -2.0078797340393066,
        0.6494318246841431,
        0.45495906472206116,
        0.5997735261917114,
        0.7944367527961731,
        1.0242180824279785,
        -0.0035456346813589334,
        -0.12345284968614578,
        -0.23417256772518158,
        1.2552149295806885,
        -0.27188220620155334,
        0.5718478560447693,
        0.08725419640541077,
        0.16834616661071777,
        -0.11119131743907928,
        0.6281458735466003,
        0.30943846702575684,
        0.3009628653526306,
        -0.6988087892532349,
        0.5010793805122375,
        -0.019654927775263786,
        0.3460969626903534,
        0.04823174327611923,
        -0.4793567955493927,
        0.1077951192855835,
        1.0112687349319458,
        0.5117436051368713,
        -0.39026060700416565,
        0.35042452812194824,
        -0.5005344748497009,
        1.2234750986099243,
        0.2893889844417572,
        0.5835822820663452,
        0.6356964707374573,
        -0.12300840020179749
      ],
      [
        0.08051203936338425,
        0.14372079074382782,
        -0.40137654542922974,
        0.03981413319706917,
        0.1470894068479538,
        0.5270174145698547,
        -0.1884000450372696,
        -0.6906967759132385,
        0.014539822936058044,
        0.6746362447738647,
        -0.6233341097831726,
        0.5127174854278564,
        -0.14235122501850128,
        -0.41756436228752136,
        -0.5853226184844971,
        -0.5123447775840759,
        0.015952670946717262,
        0.15062353014945984,
        -0.19852393865585327,
        -1.1578259468078613,
        -0.07826419919729233,
        0.05120273306965828,
        -0.4979901909828186,
        0.819174587726593,
        -0.3401745557785034,
        0.03120598942041397,
        -0.4865086078643799,
        -0.029817165806889534,
        0.49538031220436096,
        0.343832403421402,
        0.35246601700782776,
        -0.8585939407348633,
        -1.6289490461349487,
        -0.37680140137672424,
        -0.7876675128936768,
        -1.10630202293396,
        -0.40366989374160767,
        0.16542653739452362,
        -0.10622306168079376,
        0.5154534578323364,
        -0.6192049384117126,
        -0.08500571548938751,
        -0.29774853587150574,
        -0.32498589158058167,
        -0.4315451979637146,
        0.06514627486467361,
        -0.02735833078622818,
        -0.7713953852653503,
        0.305389940738678,
        0.13239000737667084,
        -0.6012811660766602,
        0.5843533873558044,
        0.02985513024032116,
        -0.9097112417221069,
        -0.7971665859222412,
        0.11283832043409348,
        0.5417526364326477,
        -0.47778451442718506,
        0.179483100771904,
        -0.4120883643627167,
        0.31116190552711487,
        0.012507987208664417,
        0.7527413964271545,
        -0.20548541843891144
      ],
      [
        -0.45689889788627625,
        0.1731954962015152,
        0.3297457993030548,
        -0.5049855709075928,
        -0.34315720200538635,
        -0.4582795202732086,
        -0.021899418905377388,
        1.056885004043579,
        -0.28370288014411926,
        -1.239169716835022,
        0.424530029296875,
        -0.4556611478328705,
        -0.7532190084457397,
        0.5740400552749634,
        1.067807912826538,
        0.6804569363594055,
        -0.4694956839084625,
        -0.07184106111526489,
        1.1975138187408447,
        -0.3689630925655365,
        1.434601068496704,
        -3.2171170711517334,
        0.7029018998146057,
        0.3246959149837494,
        0.3174520432949066,
        -0.07064848393201828,
        0.7903807163238525,
        0.12652646005153656,
        -0.8306877017021179,
        0.6935229301452637,
        -1.8900070190429688,
        -1.175861120223999,
        2.5153441429138184,
        -0.29102420806884766,
        1.1337029933929443,
        0.49579283595085144,
        0.9356182217597961,
        -0.15742897987365723,
        -0.025536809116601944,
        -0.35445916652679443,
        0.9204844236373901,
        0.8031514883041382,
        -0.3761139214038849,
        -0.37158679962158203,
        0.7827540040016174,
        -0.24374091625213623,
        1.2883269786834717,
        1.0891270637512207,
        -0.25163763761520386,
        -0.19784623384475708,
        2.088149309158325,
        0.031251467764377594,
        1.291571021080017,
        -0.21501842141151428,
        -0.2361399382352829,
        -0.38543763756752014,
        0.4488769769668579,
        0.8116994500160217,
        -0.5149611234664917,
        -0.7259888052940369,
        -0.3364654779434204,
        0.5135762095451355,
        0.20653778314590454,
        0.9213545322418213
      ],
      [
        -0.02045549266040325,
        -0.3746338486671448,
        0.18136383593082428,
        -0.17653053998947144,
        -2.0136592388153076,
        0.3977575898170471,
        -0.09991905838251114,
        0.19141657650470734,
        0.23692038655281067,
        0.33681249618530273,
        -0.5141342282295227,
        0.10604730248451233,
        -0.30363577604293823,
        -0.64822918176651,
        -1.1001965999603271,
        -0.03523998707532883,
        0.11063756793737411,
        0.5210462212562561,
        0.52187180519104,
        0.2433597296476364,
        -0.27455323934555054,
        -0.42964112758636475,
        0.7473946809768677,
        0.3475022315979004,
        -0.1877240389585495,
        -0.31953343749046326,
        0.28564053773880005,
        -0.05369151383638382,
        -0.3082597255706787,
        -0.07783059030771255,
        -1.4964910745620728,
        -0.9881629943847656,
        0.19874931871891022,
        -0.15619070827960968,
        0.44754648208618164,
        -0.39088118076324463,
        -0.19078825414180756,
        -0.2936302125453949,
        -0.1262778341770172,
        0.0287961233407259,
        -0.1445639282464981,
        0.13293875753879547,
        -0.0781828984618187,
        -0.26914629340171814,
        -0.45538172125816345,
        -0.36916878819465637,
        -0.503844678401947,
        -0.8458273410797119,
        0.9309940934181213,
        0.42329737544059753,
        -0.5640655755996704,
        0.46642789244651794,
        0.3879527449607849,
        -0.25347650051116943,
        0.1549680083990097,
        0.0657249167561531,
        -0.09167902916669846,
        0.27144357562065125,
        -0.1781318038702011,
        -0.41552862524986267,
        0.036179233342409134,
        -0.09564729034900665,
        0.5343056917190552,
        0.23931698501110077
      ],
      [
        -0.15439178049564362,
        0.044967085123062134,
        -0.15267539024353027,
        -0.031924549490213394,
        -0.03564568981528282,
        0.0705786719918251,
        -0.058361515402793884,
        -0.017470652237534523,
        -0.023425176739692688,
        0.07354810833930969,
        -0.03851548209786415,
        0.046805575489997864,
        -0.09582974016666412,
        -0.13430066406726837,
        0.05995753034949303,
        -0.14179405570030212,
        -0.03259861841797829,
        -0.046665217727422714,
        0.07055174559354782,
        -0.07018765807151794,
        -0.15142497420310974,
        -0.04502595216035843,
        0.04090253263711929,
        0.01001807302236557,
        0.08572012186050415,
        -0.07404276728630066,
        0.006352177821099758,
        -0.1176300048828125,
        0.04043608531355858,
        0.013636469841003418,
        0.03726935014128685,
        -0.08459281176328659,
        -0.08320058882236481,
        0.018822329118847847,
        -0.12056548148393631,
        -0.14966940879821777,
        -0.13291314244270325,
        -0.01108847837895155,
        0.03780501335859299,
        0.015762854367494583,
        -0.043581098318099976,
        0.03434756398200989,
        -0.09069348871707916,
        -0.00034318328835070133,
        -0.04917694255709648,
        -0.07060545682907104,
        0.05616721510887146,
        -0.10916613042354584,
        -0.030228832736611366,
        -0.12471679598093033,
        -0.05312177911400795,
        -0.10155922174453735,
        -0.011439435184001923,
        -0.08180729299783707,
        0.04226222634315491,
        -0.10143336653709412,
        0.02585291862487793,
        -0.14420998096466064,
        0.05319838598370552,
        -0.05263330042362213,
        -0.0468088798224926,
        -0.07501513510942459,
        0.029560063034296036,
        -0.008654499426484108
      ],
      [
        0.3288213014602661,
        -1.2723305225372314,
        0.42476046085357666,
        0.7132454514503479,
        0.8301792740821838,
        -1.9787483215332031,
        -1.0659072399139404,
        -0.02048303186893463,
        -0.7535886168479919,
        0.4455489218235016,
        0.8308429718017578,
        -2.626589059829712,
        -0.7180870771408081,
        0.065495066344738,
        0.3019786477088928,
        0.2999405860900879,
        0.33340731263160706,
        -0.17936734855175018,
        0.6359104514122009,
        -0.16083164513111115,
        -0.4828939437866211,
        0.748358964920044,
        -1.5772738456726074,
        -2.114722728729248,
        -2.0545907020568848,
        0.028826570138335228,
        0.23316511511802673,
        -0.04816163331270218,
        -0.04092903062701225,
        -0.2217109203338623,
        1.9834665060043335,
        0.5302861332893372,
        -0.994255542755127,
        -1.3617658615112305,
        1.0771979093551636,
        -1.287359595298767,
        -0.583770215511322,
        -0.018320251256227493,
        1.1729936599731445,
        -1.0511561632156372,
        -1.1119859218597412,
        1.1718422174453735,
        0.29870104789733887,
        -0.8333134055137634,
        0.3331708014011383,
        -1.3225880861282349,
        0.07026758044958115,
        -0.5299636721611023,
        -0.3956485390663147,
        -2.0925397872924805,
        -0.10165312886238098,
        -1.341247320175171,
        0.05097339674830437,
        -1.500241994857788,
        -2.271085500717163,
        -0.577907145023346,
        -2.7770113945007324,
        0.11562894284725189,
        -0.5924720168113708,
        -0.8380820751190186,
        -0.3084176182746887,
        0.6072567105293274,
        1.1128456592559814,
        -0.05177746340632439
      ],
      [
        -0.024204997345805168,
        -0.14005999267101288,
        -0.14398065209388733,
        0.08012397587299347,
        0.008320601657032967,
        -0.11895971745252609,
        -0.05193444713950157,
        -0.05524091050028801,
        -0.025872427970170975,
        -0.11613555252552032,
        -0.10451094061136246,
        0.01164994016289711,
        -0.03386327251791954,
        -0.003953011706471443,
        -0.09172531962394714,
        -0.0364268459379673,
        0.03100292943418026,
        0.08160290122032166,
        -0.037594202905893326,
        0.05954005941748619,
        -0.04945140704512596,
        -0.019146233797073364,
        0.06823332607746124,
        0.012563200667500496,
        -0.1414368897676468,
        0.08853388577699661,
        -0.038286950439214706,
        -0.033365167677402496,
        0.055160749703645706,
        -0.10495509952306747,
        0.06884825974702835,
        0.03346523642539978,
        -0.09603908658027649,
        -0.1775912493467331,
        -0.25775468349456787,
        -0.12374233454465866,
        -0.16244162619113922,
        -0.0881277322769165,
        -0.06856124848127365,
        0.02654784917831421,
        -0.006178742740303278,
        0.0392184741795063,
        -0.002660352736711502,
        -0.14352093636989594,
        -0.20398123562335968,
        -0.05525538697838783,
        0.044853657484054565,
        -0.0046893395483493805,
        -0.10975240916013718,
        -0.13423798978328705,
        -0.09503579884767532,
        -0.13678719103336334,
        0.025350218638777733,
        -0.14053650200366974,
        -0.18561185896396637,
        0.00521866325289011,
        -0.045569393783807755,
        -0.055104780942201614,
        -0.02212429791688919,
        -0.0037890812382102013,
        -0.1704169511795044,
        -0.10296787321567535,
        -0.11511442065238953,
        -0.23092111945152283
      ],
      [
        -0.15294340252876282,
        0.0740223079919815,
        -0.04971304163336754,
        -0.1217132955789566,
        -0.06728609651327133,
        -0.1454278528690338,
        0.04487528279423714,
        -0.06856734305620193,
        -0.11980213224887848,
        -0.11075106263160706,
        0.0402933806180954,
        -0.049326490610837936,
        -0.051117442548274994,
        -0.07851341366767883,
        -0.11568515747785568,
        -0.021285925060510635,
        0.05392672121524811,
        -0.11873747408390045,
        -0.0216185562312603,
        -0.1351759284734726,
        -0.08288243412971497,
        0.06699975579977036,
        -0.017961623147130013,
        0.07925399392843246,
        -0.07036233693361282,
        -0.08935477584600449,
        -0.12100258469581604,
        0.10875765979290009,
        -0.15047582983970642,
        0.043767232447862625,
        -0.012104421854019165,
        -0.00512230210006237,
        0.0585368350148201,
        -0.06843559443950653,
        0.050558220595121384,
        -0.12888000905513763,
        -0.05540938675403595,
        0.06291792541742325,
        0.004343125037848949,
        -0.06546313315629959,
        -0.07443112879991531,
        -0.10548856109380722,
        0.024663472548127174,
        -0.05025644600391388,
        -0.051224783062934875,
        -0.012061427347362041,
        0.05826537311077118,
        -0.06901363283395767,
        -0.09769292920827866,
        0.04546654224395752,
        0.017062263563275337,
        -0.09140003472566605,
        -0.1486033797264099,
        -0.017510971054434776,
        0.044132184237241745,
        0.0038190199993550777,
        0.04219120740890503,
        -0.13791882991790771,
        0.024232439696788788,
        -0.10980965197086334,
        0.028209371492266655,
        0.05703912675380707,
        2.5482243017904693e-06,
        0.06466957181692123
      ],
      [
        -0.7194033861160278,
        -1.1913756132125854,
        -0.5184569954872131,
        0.11550842225551605,
        -0.787305474281311,
        -1.010149359703064,
        -0.23287266492843628,
        0.15594518184661865,
        -0.2393728345632553,
        -0.5645679235458374,
        0.011479880660772324,
        -2.5954842567443848,
        -0.41639935970306396,
        0.2017805576324463,
        -0.6676732897758484,
        -0.08814764022827148,
        0.33822572231292725,
        -0.1699758917093277,
        0.41250717639923096,
        -1.0334486961364746,
        -0.7487863302230835,
        -0.5502134561538696,
        -0.09430913627147675,
        -1.2042244672775269,
        -0.31622424721717834,
        -0.47063931822776794,
        -0.8096370697021484,
        0.04240730032324791,
        0.01687958650290966,
        -1.4818745851516724,
        -0.46051058173179626,
        0.8045633435249329,
        -0.07534267753362656,
        -1.1660757064819336,
        0.21221822500228882,
        -0.3304809331893921,
        -0.2115664780139923,
        0.1648464947938919,
        -0.1937764436006546,
        -0.38121774792671204,
        -0.4218801259994507,
        1.3360217809677124,
        0.2484332025051117,
        -0.16325801610946655,
        -0.4842638075351715,
        -0.5093136429786682,
        -0.25919854640960693,
        -0.8369377851486206,
        -2.0978474617004395,
        -0.30735263228416443,
        -0.47935155034065247,
        0.16019867360591888,
        -0.1705065667629242,
        -0.6638164520263672,
        0.24127918481826782,
        -0.571352481842041,
        0.41630664467811584,
        0.31886768341064453,
        -0.1639648973941803,
        -0.28982454538345337,
        -0.4569289982318878,
        -0.2362462878227234,
        -0.5892292857170105,
        -0.0007473097648471594
      ],
      [
        0.822675347328186,
        1.1647855043411255,
        -0.5424594283103943,
        0.1981809139251709,
        0.6911048889160156,
        -0.527750551700592,
        1.8227603435516357,
        0.9128785133361816,
        2.1313209533691406,
        -0.5257422924041748,
        -0.6427876353263855,
        -0.44609564542770386,
        0.48575884103775024,
        1.3024953603744507,
        0.7999997735023499,
        0.6185498237609863,
        1.4558414220809937,
        -0.5380815863609314,
        0.3480469286441803,
        -0.7720485329627991,
        0.6293342113494873,
        0.25348538160324097,
        0.6216090321540833,
        -1.7562241554260254,
        1.238500952720642,
        -0.22458025813102722,
        -0.8013007044792175,
        -0.12955689430236816,
        1.0883424282073975,
        -0.732761025428772,
        -1.1859419345855713,
        0.22763080894947052,
        1.5807909965515137,
        -0.8129528760910034,
        -0.38877150416374207,
        0.1871277093887329,
        -0.4632341265678406,
        2.2758195400238037,
        -0.6256510019302368,
        1.533697247505188,
        0.8393598198890686,
        0.77103191614151,
        1.9209003448486328,
        1.6162056922912598,
        -0.10788719356060028,
        -0.6764147877693176,
        -0.38157156109809875,
        -1.7253901958465576,
        -0.17958159744739532,
        -0.683646559715271,
        -0.17168372869491577,
        -2.323269844055176,
        -0.051880501210689545,
        -0.11753138899803162,
        -0.023387819528579712,
        -0.18980471789836884,
        0.732227623462677,
        0.19622637331485748,
        0.9712041020393372,
        -0.3275201618671417,
        -0.3581608235836029,
        -0.4163680970668793,
        -0.5570862889289856,
        0.1465516835451126
      ],
      [
        0.03225558251142502,
        -0.061998337507247925,
        -0.11773436516523361,
        -0.04567738249897957,
        -0.039511166512966156,
        -0.006234730593860149,
        -0.02925962209701538,
        0.026276573538780212,
        0.07330511510372162,
        -0.05067753791809082,
        -0.1338045597076416,
        -0.0641324520111084,
        -0.07616035640239716,
        0.053104158490896225,
        -0.10381581634283066,
        -0.035094380378723145,
        -0.03678859770298004,
        -0.07586653530597687,
        0.032871063798666,
        -0.07031930238008499,
        -0.029882485046982765,
        -0.10327892005443573,
        -0.03340569883584976,
        -0.003741908585652709,
        -0.027879737317562103,
        -0.07361605763435364,
        0.014255154877901077,
        -0.03238719701766968,
        -0.0692998617887497,
        -0.10937263816595078,
        -0.03996839374303818,
        -0.13869376480579376,
        0.0832868367433548,
        -0.0790582150220871,
        -0.05977548658847809,
        -0.011086486279964447,
        0.009970019571483135,
        -0.03228021785616875,
        0.07104557752609253,
        -0.09289268404245377,
        0.021902618929743767,
        -0.010954062454402447,
        -0.11234685778617859,
        -0.0638464093208313,
        0.007922695018351078,
        0.009023855440318584,
        0.06817987561225891,
        0.06575195491313934,
        -0.09021986275911331,
        -0.07055022567510605,
        -0.04801487177610397,
        -0.1111249104142189,
        -0.0577075369656086,
        -0.12024358659982681,
        0.047542765736579895,
        0.08844491839408875,
        -0.010605861432850361,
        -0.11270095407962799,
        -0.11248467117547989,
        -0.048662394285202026,
        0.01673264615237713,
        -0.012536789290606976,
        0.00045607981155626476,
        0.09602127969264984
      ],
      [
        0.3368666172027588,
        0.3262072205543518,
        -0.3574710786342621,
        0.2339307963848114,
        0.057172391563653946,
        -0.44404804706573486,
        0.1993684470653534,
        0.019913192838430405,
        0.3052894175052643,
        0.7275034785270691,
        0.1653342843055725,
        0.016338244080543518,
        0.04250655323266983,
        -0.08293271064758301,
        0.08111753314733505,
        -0.5517964959144592,
        0.4382513165473938,
        -1.1499271392822266,
        0.4805207848548889,
        0.25004878640174866,
        0.47561123967170715,
        -0.5212897658348083,
        0.6067060232162476,
        0.6187950372695923,
        -0.1485111117362976,
        0.9025015830993652,
        0.133070170879364,
        -0.007598470896482468,
        0.5281975865364075,
        0.479126900434494,
        -0.6834853291511536,
        0.32244935631752014,
        2.3344147205352783,
        0.011854714713990688,
        -0.30681049823760986,
        -0.7621627449989319,
        0.23160801827907562,
        0.43134573101997375,
        -1.0549988746643066,
        0.6369859576225281,
        -0.25867167115211487,
        0.12955331802368164,
        0.22473548352718353,
        0.3532828390598297,
        -0.2197445183992386,
        -0.13508133590221405,
        0.35747435688972473,
        -0.006602644920349121,
        0.1964309811592102,
        0.1861075609922409,
        0.32637783885002136,
        0.0659228041768074,
        0.39283543825149536,
        -0.0175123680382967,
        -0.556743860244751,
        -0.2601800858974457,
        -0.09361088275909424,
        0.2675771117210388,
        0.234608456492424,
        -0.11164233833551407,
        0.006114572286605835,
        -0.15511608123779297,
        -0.053231265395879745,
        0.2633996307849884
      ],
      [
        -0.08170314878225327,
        -0.011504711583256721,
        -0.007283432874828577,
        -0.022062944248318672,
        0.03600836917757988,
        0.004676841199398041,
        -0.03560710698366165,
        -0.029540034011006355,
        -0.04330528527498245,
        -0.027393031865358353,
        0.016877431422472,
        0.02365150675177574,
        -0.029226694256067276,
        -0.08690130710601807,
        0.06488839536905289,
        -0.18425387144088745,
        0.0025558387860655785,
        -0.047286104410886765,
        0.032103609293699265,
        -0.07564403116703033,
        -0.1488334685564041,
        0.020660679787397385,
        -0.11356654763221741,
        -0.043627314269542694,
        -0.00035659465356729925,
        -0.17472675442695618,
        -0.09618435055017471,
        -0.06285996735095978,
        0.03329091891646385,
        -0.07935740053653717,
        -0.02750432677567005,
        0.004356570076197386,
        0.04242376238107681,
        0.01791313663125038,
        -0.05614107847213745,
        -0.20824851095676422,
        0.06541868299245834,
        -0.035720907151699066,
        -0.06628026813268661,
        -0.1722373217344284,
        -0.10067686438560486,
        -0.0868893563747406,
        0.03795367106795311,
        0.023403869941830635,
        -0.0012158944737166166,
        0.018774282187223434,
        -0.15640820562839508,
        -0.1155853420495987,
        -0.12436127662658691,
        -0.0904325619339943,
        0.028953615576028824,
        -0.028162620961666107,
        0.04708627611398697,
        -0.07288966327905655,
        -0.18863792717456818,
        -0.1268717646598816,
        0.03949524089694023,
        -0.02654401957988739,
        -0.018220460042357445,
        -0.12504704296588898,
        -0.17663954198360443,
        -0.14202642440795898,
        -0.004635362420231104,
        -0.09211669862270355
      ],
      [
        0.0028852911200374365,
        -0.6819923520088196,
        -0.17739921808242798,
        0.673911452293396,
        -0.9117568731307983,
        0.2724621593952179,
        -0.30590003728866577,
        -0.35032933950424194,
        -0.37951749563217163,
        -0.8214361071586609,
        -1.0648689270019531,
        -0.2859582006931305,
        -0.7550675868988037,
        -0.18521392345428467,
        0.13120625913143158,
        -0.043385472148656845,
        -0.6902814507484436,
        0.34638914465904236,
        -0.037392757833004,
        0.3046921193599701,
        0.323517769575119,
        0.22846347093582153,
        -1.2567496299743652,
        0.10286492854356766,
        0.08274412155151367,
        -0.36819419264793396,
        -0.02906876616179943,
        0.011954267509281635,
        0.38910192251205444,
        -0.20796538889408112,
        0.27139657735824585,
        0.23542387783527374,
        0.38831469416618347,
        0.29125940799713135,
        0.06177730858325958,
        -1.4234768152236938,
        -0.5225657820701599,
        -1.157823920249939,
        -0.2699039578437805,
        -0.06903430819511414,
        -0.33014237880706787,
        -0.4426868259906769,
        -0.8323639631271362,
        -0.7197949886322021,
        -0.2617935836315155,
        0.15643830597400665,
        -0.08344753831624985,
        0.28029897809028625,
        0.33676356077194214,
        -1.308790922164917,
        0.3005446195602417,
        0.1927998811006546,
        -0.057309407740831375,
        -0.5050989985466003,
        0.5367383360862732,
        -0.16847266256809235,
        0.22605128586292267,
        0.11987143009901047,
        -2.47444748878479,
        -0.00701876962557435,
        -0.16197262704372406,
        -0.21460844576358795,
        -0.4698188006877899,
        -0.15912091732025146
      ],
      [
        -0.026808032765984535,
        -0.06661397963762283,
        -0.0010469102999195457,
        -0.09061926603317261,
        0.051167652010917664,
        -0.10796867311000824,
        -0.09753336012363434,
        -0.1034303680062294,
        0.028888210654258728,
        -0.0032726526260375977,
        -0.15778350830078125,
        -0.07139000296592712,
        -0.05784711241722107,
        -0.15348505973815918,
        -0.015670355409383774,
        0.006836967077106237,
        -0.022934705018997192,
        -0.04974310100078583,
        -0.03249157592654228,
        -0.09928521513938904,
        -0.10785368084907532,
        -0.008855980820953846,
        0.07333165407180786,
        -0.07017111778259277,
        0.0243426114320755,
        -0.08093106746673584,
        -0.06501276046037674,
        -0.11899305880069733,
        0.07184626162052155,
        0.08997792750597,
        -0.002625405788421631,
        0.041749533265829086,
        0.0645097941160202,
        0.030427871271967888,
        0.032664939761161804,
        -0.1566445380449295,
        -0.14916720986366272,
        -0.09594254195690155,
        0.0013597564538940787,
        -0.13974645733833313,
        -0.1329469382762909,
        -0.06058785319328308,
        -0.11521066725254059,
        -0.03144506737589836,
        -0.019680814817547798,
        -0.11052799224853516,
        0.04410652816295624,
        -0.07918208092451096,
        -0.07287118583917618,
        0.06358879804611206,
        0.06957035511732101,
        -0.05208008363842964,
        -0.12745609879493713,
        -0.09946542233228683,
        -0.01545540988445282,
        0.07327406108379364,
        0.03051166795194149,
        -0.0929250568151474,
        -0.14982011914253235,
        -0.10939337313175201,
        -0.039769530296325684,
        -0.0361512117087841,
        -0.09380576014518738,
        -0.13057278096675873
      ],
      [
        0.37299564480781555,
        0.04443666711449623,
        -0.13419438898563385,
        -0.47231459617614746,
        -0.3840882480144501,
        0.18499037623405457,
        -0.013402232900261879,
        -0.17845042049884796,
        -0.15389484167099,
        0.6343551278114319,
        -0.09575758874416351,
        -0.11888036131858826,
        0.03913875296711922,
        -0.353153258562088,
        -0.08239300549030304,
        -0.2174147367477417,
        0.15937907993793488,
        -0.35729432106018066,
        0.13639740645885468,
        0.8528670072555542,
        0.5149958729743958,
        0.5655803680419922,
        0.055912911891937256,
        0.3864133954048157,
        -0.136588916182518,
        0.2602716386318207,
        0.5421081185340881,
        -0.041421812027692795,
        0.11393751204013824,
        0.579490065574646,
        0.15359535813331604,
        -0.20686082541942596,
        1.734724998474121,
        -0.03227093815803528,
        0.029254958033561707,
        -0.26811882853507996,
        0.010901183821260929,
        -0.3041504919528961,
        -0.5344244837760925,
        0.2788371741771698,
        -0.05276338383555412,
        -0.26723361015319824,
        -0.10954271256923676,
        -0.2042350023984909,
        -0.18419726192951202,
        -0.013704459182918072,
        0.0171979907900095,
        0.1042792797088623,
        0.6519618630409241,
        1.2768675088882446,
        0.5899972915649414,
        0.1938420981168747,
        0.030924472957849503,
        0.05763595178723335,
        0.20704634487628937,
        0.05132684111595154,
        0.41284653544425964,
        0.2603060305118561,
        0.26225990056991577,
        0.6964431405067444,
        0.18862460553646088,
        0.29261359572410583,
        -0.12139733135700226,
        0.3454371988773346
      ],
      [
        -0.9461587071418762,
        -0.35236313939094543,
        -0.06940702348947525,
        0.32254758477211,
        -1.1664636135101318,
        0.06391116231679916,
        -0.06612184643745422,
        -0.14661602675914764,
        -0.42075642943382263,
        -0.3255200684070587,
        -1.5912419557571411,
        -0.6790683269500732,
        -0.06830262392759323,
        -0.041581831872463226,
        -0.6535059213638306,
        -0.5243867635726929,
        0.25607168674468994,
        -0.2827279269695282,
        -0.15826687216758728,
        -0.8044743537902832,
        0.11328133940696716,
        -1.098315715789795,
        0.004176442977041006,
        -0.19117529690265656,
        -0.22903594374656677,
        -0.7919151186943054,
        -0.6561872959136963,
        -0.05566336587071419,
        -0.029828481376171112,
        -0.2716749906539917,
        -0.8091440200805664,
        0.05491742864251137,
        -0.8092334866523743,
        0.05270589143037796,
        -0.5434147119522095,
        -0.7775754928588867,
        -0.06452929228544235,
        -1.1636053323745728,
        0.6632590889930725,
        -0.6810889840126038,
        -0.2958783507347107,
        0.09076295047998428,
        -0.515461802482605,
        -0.3344353139400482,
        0.27733686566352844,
        -0.2991448938846588,
        -0.4932578504085541,
        0.1607498675584793,
        -0.45557698607444763,
        -0.3980275094509125,
        -0.2367153912782669,
        0.11119148135185242,
        -0.3636550307273865,
        -0.7936970591545105,
        -0.24741455912590027,
        -0.41379016637802124,
        -0.6350011825561523,
        -0.4976688325405121,
        -0.5417738556861877,
        0.11884286999702454,
        -0.8597885966300964,
        -0.447711318731308,
        -0.7365099787712097,
        -0.5422065258026123
      ],
      [
        -0.8016996383666992,
        -1.0365605354309082,
        0.6687721014022827,
        -0.16813309490680695,
        0.9148600697517395,
        -0.9846363067626953,
        -0.4927646815776825,
        -0.5057497024536133,
        -0.31398048996925354,
        0.6720675230026245,
        -0.3995968997478485,
        -1.6317719221115112,
        -1.6264864206314087,
        -0.005764213390648365,
        0.4735718071460724,
        0.43027958273887634,
        -0.3971770107746124,
        0.3803674876689911,
        -0.45503750443458557,
        -1.7795027494430542,
        -1.4664084911346436,
        0.5032404065132141,
        1.626945972442627,
        -0.06492959707975388,
        -1.0989373922348022,
        -0.14091214537620544,
        -1.622908592224121,
        -0.05146301910281181,
        0.7232767939567566,
        0.4330354332923889,
        -0.3849017918109894,
        -0.31913548707962036,
        -1.06155526638031,
        0.16484789550304413,
        0.2283397614955902,
        0.4625551104545593,
        -0.09460052102804184,
        -1.3433849811553955,
        0.2191186547279358,
        -0.22817109525203705,
        -0.3007902503013611,
        1.5159273147583008,
        -1.0934176445007324,
        -1.3858898878097534,
        0.5383642315864563,
        -2.211509943008423,
        0.2554740011692047,
        0.3214503526687622,
        0.5413979291915894,
        1.0677118301391602,
        -0.8263434171676636,
        0.14587707817554474,
        -0.6791595816612244,
        -1.320675253868103,
        -1.7613176107406616,
        0.15881676971912384,
        -0.26337358355522156,
        1.4953749179840088,
        -1.1618732213974,
        -0.051272135227918625,
        -0.08206731081008911,
        -0.7834155559539795,
        0.646683931350708,
        -0.08306137472391129
      ],
      [
        1.7293529510498047,
        0.6625478863716125,
        -0.6784069538116455,
        0.4760204553604126,
        -0.8247328996658325,
        -0.8965516686439514,
        -0.5794697999954224,
        0.17934711277484894,
        -0.616294801235199,
        0.8161464929580688,
        -4.770656585693359,
        -0.38661786913871765,
        1.453104853630066,
        -0.9293002486228943,
        -0.016430875286459923,
        0.13458560407161713,
        -0.39962464570999146,
        -0.046290524303913116,
        -1.6787165403366089,
        1.427215814590454,
        -0.2631019651889801,
        -1.1813517808914185,
        -0.36851125955581665,
        -2.1486055850982666,
        -0.15948925912380219,
        -1.488019347190857,
        1.0242033004760742,
        0.060352399945259094,
        -0.581524670124054,
        1.79646635055542,
        0.4557597041130066,
        0.49450671672821045,
        2.1833794116973877,
        0.12150804698467255,
        0.09223667532205582,
        0.7093609571456909,
        1.944318413734436,
        0.7308266758918762,
        0.05405959114432335,
        0.9888865351676941,
        0.6973639726638794,
        1.2215439081192017,
        0.2502756416797638,
        -0.5250217914581299,
        -0.4509754478931427,
        1.1151202917099,
        -1.3574568033218384,
        0.03907260298728943,
        -0.42648813128471375,
        1.3389226198196411,
        0.012156029231846333,
        -0.052576612681150436,
        0.5765315890312195,
        0.2613985240459442,
        -1.5193970203399658,
        1.64894700050354,
        1.4734721183776855,
        -0.15553662180900574,
        1.2496967315673828,
        0.8512237071990967,
        1.7413784265518188,
        1.7268266677856445,
        -2.170513391494751,
        1.5916147232055664
      ],
      [
        0.06653901934623718,
        -0.19691891968250275,
        0.3457520306110382,
        -1.6290180683135986,
        1.3130290508270264,
        -1.1064543724060059,
        -1.1959136724472046,
        -0.48248422145843506,
        -0.39777040481567383,
        0.4781910181045532,
        0.977664053440094,
        -3.292675733566284,
        -0.8944656252861023,
        0.21265318989753723,
        -0.8578947186470032,
        -2.029548406600952,
        -0.6428347826004028,
        -2.109499216079712,
        -0.31400197744369507,
        -0.9959183931350708,
        -0.26285842061042786,
        1.3611397743225098,
        -0.9367159605026245,
        -0.7647031545639038,
        -1.5318915843963623,
        0.31213143467903137,
        0.26984134316444397,
        0.023314587771892548,
        0.4898392856121063,
        0.06512821465730667,
        -1.15181565284729,
        -1.455942153930664,
        2.2660739421844482,
        -3.9120450019836426,
        -0.49659520387649536,
        -1.0849679708480835,
        -0.16702713072299957,
        -0.24355538189411163,
        -2.680759906768799,
        0.571918785572052,
        -1.4972467422485352,
        1.6170172691345215,
        -1.073816180229187,
        -0.6779959797859192,
        -3.2832698822021484,
        0.5734608769416809,
        0.054003167897462845,
        0.05450309440493584,
        0.3403785228729248,
        -0.18778157234191895,
        -0.26664999127388,
        -0.6610929369926453,
        -0.3640916347503662,
        -3.0150110721588135,
        -0.34473666548728943,
        -0.6309880018234253,
        -0.23583035171031952,
        -0.4039265513420105,
        -1.1288822889328003,
        -0.3923881947994232,
        -0.8567396402359009,
        0.13557618856430054,
        1.3060166835784912,
        -0.10684370994567871
      ],
      [
        -0.11011666804552078,
        0.08296402543783188,
        -0.08405691385269165,
        0.006959178950637579,
        0.046269629150629044,
        -0.11927983909845352,
        0.02823876030743122,
        -0.04934214428067207,
        0.02870490960776806,
        0.10105262696743011,
        -0.07393152266740799,
        -0.05413798987865448,
        0.08159042149782181,
        -0.020785603672266006,
        -0.04192350432276726,
        0.062200356274843216,
        -0.09551434218883514,
        -0.014296368695795536,
        0.05600614845752716,
        0.030856426805257797,
        -0.11209385842084885,
        0.00346623407676816,
        -0.11924634128808975,
        -0.08861082792282104,
        0.045555394142866135,
        -0.06559765338897705,
        -0.08531700074672699,
        0.008860290050506592,
        0.019048837944865227,
        -0.09410214424133301,
        -0.08429542183876038,
        -0.14925573766231537,
        0.01516740396618843,
        -0.10784833878278732,
        -0.003079973394051194,
        -0.05334727093577385,
        -0.0993712842464447,
        -0.060638830065727234,
        -0.12236905843019485,
        -0.09746814519166946,
        -0.033330272883176804,
        -0.13392560184001923,
        -0.14717568457126617,
        0.06052431836724281,
        -0.021310636773705482,
        -0.07329797744750977,
        -0.029260903596878052,
        0.08030097931623459,
        -0.1321149468421936,
        -0.09414523094892502,
        -0.10665715485811234,
        -0.029589306563138962,
        -0.032204486429691315,
        -0.11767303198575974,
        0.060695830732584,
        -0.10568619519472122,
        0.08559584617614746,
        -0.11010328680276871,
        -0.044084254652261734,
        0.01188097894191742,
        -0.08014024049043655,
        0.0978047177195549,
        -0.11232171207666397,
        -0.024809453636407852
      ],
      [
        -0.3184050917625427,
        -0.41934385895729065,
        0.7021992206573486,
        0.3679315745830536,
        -0.538011372089386,
        -1.087010145187378,
        -0.07867864519357681,
        -0.41686785221099854,
        -0.8627415895462036,
        -0.1779739260673523,
        -0.7140019536018372,
        -0.5298372507095337,
        -0.31520482897758484,
        0.02884625270962715,
        -1.0487033128738403,
        -0.4622001051902771,
        -1.0197360515594482,
        -0.8099365234375,
        -0.363591730594635,
        -0.5443387627601624,
        -0.8671302199363708,
        0.1802552044391632,
        -0.4697546064853668,
        0.40624603629112244,
        -1.2418251037597656,
        -0.12446887046098709,
        0.404766708612442,
        0.0929204523563385,
        -0.689446210861206,
        0.25535908341407776,
        0.4353312849998474,
        0.19691117107868195,
        -0.30759507417678833,
        -0.4090200662612915,
        -0.4917725920677185,
        0.05908585712313652,
        -0.30591055750846863,
        -1.3105425834655762,
        -0.27645549178123474,
        -0.15973344445228577,
        -0.7375854849815369,
        0.23234207928180695,
        -0.8089315891265869,
        -0.09750262647867203,
        0.03565371036529541,
        -0.5845293402671814,
        0.1467888504266739,
        -1.6841901540756226,
        0.9169374704360962,
        0.6597980856895447,
        -0.05471719056367874,
        0.016891419887542725,
        -0.2810305655002594,
        -0.5166253447532654,
        -1.7515498399734497,
        -0.3529127538204193,
        0.2558545470237732,
        0.15013372898101807,
        -1.4211134910583496,
        0.7730157375335693,
        -0.9820426106452942,
        -0.47608110308647156,
        0.1125994399189949,
        -0.7759760022163391
      ],
      [
        0.2037474662065506,
        0.40492382645606995,
        -0.11347398161888123,
        -0.38314566016197205,
        0.5379509925842285,
        -1.3236033916473389,
        -0.025836879387497902,
        -0.008697863668203354,
        0.09752722829580307,
        0.3211830258369446,
        -0.3133588433265686,
        -0.21810071170330048,
        0.08915688097476959,
        -0.3231576681137085,
        0.3300436735153198,
        -0.19101764261722565,
        -0.0340103916823864,
        -1.0172942876815796,
        0.15011943876743317,
        0.40633830428123474,
        0.4221208095550537,
        0.11246426403522491,
        0.08659018576145172,
        -0.18023337423801422,
        -0.23185288906097412,
        0.5009675621986389,
        0.029822763055562973,
        -0.11538530886173248,
        0.38606008887290955,
        0.32852986454963684,
        -0.5970236659049988,
        0.21550583839416504,
        2.1656079292297363,
        -0.1896531879901886,
        -0.19312535226345062,
        -0.11678008735179901,
        0.43844079971313477,
        0.28929850459098816,
        -0.664616048336029,
        0.1619545966386795,
        -0.14196492731571198,
        0.5223588943481445,
        0.06733644008636475,
        0.2501991093158722,
        0.052084989845752716,
        0.22715163230895996,
        0.13962368667125702,
        0.18686413764953613,
        0.42198285460472107,
        0.5564151406288147,
        0.277236670255661,
        -0.17240220308303833,
        0.4032822549343109,
        -0.14742785692214966,
        -1.1122037172317505,
        -0.35464489459991455,
        -0.33866196870803833,
        0.019889885559678078,
        -0.2153475135564804,
        0.09613637626171112,
        0.042483698576688766,
        0.3094935417175293,
        -0.11327747255563736,
        0.2003690004348755
      ],
      [
        0.546136736869812,
        -3.1679112911224365,
        0.11982451379299164,
        1.2983683347702026,
        0.5087989568710327,
        -2.4594290256500244,
        0.009373468346893787,
        0.21587727963924408,
        0.28670746088027954,
        -0.7762001156806946,
        -0.6524558663368225,
        -2.2305469512939453,
        -0.029669245705008507,
        -0.3046414256095886,
        0.4610988199710846,
        0.023008272051811218,
        0.357168972492218,
        0.5826499462127686,
        -1.6385356187820435,
        -0.42442837357521057,
        -2.1141440868377686,
        0.29915642738342285,
        -1.484136939048767,
        -1.592209815979004,
        -1.1804152727127075,
        0.0952225849032402,
        1.056368350982666,
        0.01708032749593258,
        0.7768937945365906,
        0.23915936052799225,
        0.9339756965637207,
        -0.34832656383514404,
        -0.3870396912097931,
        -0.0613514743745327,
        0.49249982833862305,
        -1.096110224723816,
        -1.6481101512908936,
        0.3748544454574585,
        -0.6501264572143555,
        0.12480759620666504,
        -1.2566943168640137,
        -0.1496119648218155,
        -0.06352058053016663,
        0.4635010063648224,
        0.22697997093200684,
        -0.23973530530929565,
        -0.7798424363136292,
        -3.677072525024414,
        -2.201852560043335,
        -0.003676370717585087,
        -1.0267939567565918,
        -1.4963676929473877,
        -1.67715585231781,
        -2.4380741119384766,
        0.7343992590904236,
        0.4568686783313751,
        0.1035921573638916,
        1.2975428104400635,
        -0.19966085255146027,
        -1.6052154302597046,
        0.09803353995084763,
        -0.3976854085922241,
        0.33442819118499756,
        -0.25646162033081055
      ],
      [
        -0.1015816405415535,
        -0.12103830277919769,
        -0.12813130021095276,
        -0.11991745233535767,
        -0.09104371070861816,
        0.10742656141519547,
        -0.025621553882956505,
        -0.16241322457790375,
        -0.11376209557056427,
        -0.0192756038159132,
        -0.08545155078172684,
        -0.04509618505835533,
        -0.06427856534719467,
        -0.0808800458908081,
        -0.034365810453891754,
        -0.041226837784051895,
        0.029880408197641373,
        0.06942655891180038,
        0.05316423624753952,
        -0.022136803716421127,
        -0.10429920256137848,
        -0.01541746873408556,
        -0.09846130013465881,
        0.035797201097011566,
        -0.06539353728294373,
        -0.08312031626701355,
        -0.12375522404909134,
        0.060239553451538086,
        0.0283333882689476,
        0.09690981358289719,
        -0.05655544251203537,
        -0.01162042561918497,
        -0.03919057548046112,
        -0.08579517155885696,
        -0.08474192023277283,
        0.04546090587973595,
        -0.12337656319141388,
        0.04187972843647003,
        0.004179451148957014,
        -0.00823117233812809,
        0.03176286816596985,
        0.011486605741083622,
        0.004214189480990171,
        0.01416125986725092,
        -0.07150386273860931,
        -0.08362404257059097,
        -0.03923690691590309,
        0.027431700378656387,
        0.06987980753183365,
        0.040972981601953506,
        -0.05383230000734329,
        -0.06599105149507523,
        -0.1370489001274109,
        0.060106050223112106,
        -0.13000375032424927,
        -0.09491635113954544,
        0.051250092685222626,
        0.011589731089770794,
        -0.10274693369865417,
        -0.09431388974189758,
        -0.10457637161016464,
        0.08243872970342636,
        -0.12717071175575256,
        0.08867763727903366
      ],
      [
        0.33176353573799133,
        -0.0438150092959404,
        0.03837861120700836,
        -0.4132707715034485,
        -0.024932650849223137,
        -0.4315362274646759,
        -0.5373281240463257,
        -0.2598070502281189,
        -1.3024392127990723,
        0.6057834625244141,
        -0.11802250891923904,
        -0.46364912390708923,
        0.06138899549841881,
        -0.3343333899974823,
        -0.20303401350975037,
        -0.3219129741191864,
        -1.1005257368087769,
        -0.26637521386146545,
        0.23571325838565826,
        0.37238505482673645,
        0.2175682634115219,
        -0.9296811819076538,
        0.19863185286521912,
        -0.3806198537349701,
        -0.48825404047966003,
        0.3865191638469696,
        0.3007064163684845,
        -0.085378497838974,
        -0.13698549568653107,
        0.2783189117908478,
        -0.2949126064777374,
        -0.559119701385498,
        2.2523815631866455,
        -0.6168244481086731,
        0.407878577709198,
        0.09414422512054443,
        0.17751841247081757,
        -0.4266946315765381,
        -0.45094022154808044,
        0.13785798847675323,
        -0.1990669071674347,
        -0.110972560942173,
        -0.7669928073883057,
        -0.20785030722618103,
        -0.2852537930011749,
        -0.11855021119117737,
        0.1557609587907791,
        -0.000679285847581923,
        -0.13035787642002106,
        0.5095046162605286,
        0.7726306915283203,
        0.011391040869057178,
        0.09829569607973099,
        0.2013765424489975,
        0.046867262572050095,
        0.19943071901798248,
        0.18957185745239258,
        0.9341168999671936,
        0.0441482737660408,
        0.11577479541301727,
        0.04708123579621315,
        0.027929790318012238,
        -0.08476512134075165,
        0.3668036460876465
      ],
      [
        -0.48803502321243286,
        -1.1005666255950928,
        -0.32351770997047424,
        -0.07378189265727997,
        -0.5575948357582092,
        0.3514721691608429,
        0.38840463757514954,
        -0.5338954925537109,
        -0.5364401340484619,
        -0.6375777721405029,
        0.2709636390209198,
        -0.5438875555992126,
        -0.22337472438812256,
        -0.526782751083374,
        0.3046005368232727,
        -0.498245507478714,
        -0.3349219262599945,
        0.03035845421254635,
        -0.1119704395532608,
        -0.9253875017166138,
        -0.2164510041475296,
        -1.0260958671569824,
        0.43579861521720886,
        -0.9657000303268433,
        -0.30661651492118835,
        -1.113733172416687,
        -0.29694825410842896,
        -0.0013680787524208426,
        -1.379048466682434,
        -0.5092445015907288,
        0.8364437222480774,
        -0.2866206765174866,
        -0.2822164297103882,
        -1.1543065309524536,
        -0.8071144223213196,
        0.19563943147659302,
        0.02641306445002556,
        0.5207539796829224,
        -0.2671240270137787,
        -1.8204400539398193,
        -0.16020344197750092,
        -0.28941330313682556,
        -0.6119989156723022,
        -0.15502987802028656,
        -0.07415945827960968,
        -0.12171868234872818,
        -0.4571968615055084,
        0.47444742918014526,
        -1.0597742795944214,
        0.15826700627803802,
        -0.05918193608522415,
        -0.795531153678894,
        0.3321854770183563,
        -0.28417643904685974,
        -0.8221094608306885,
        -0.18749286234378815,
        -0.585477352142334,
        -0.29530850052833557,
        -0.5555200576782227,
        -0.8459357023239136,
        -0.06654247641563416,
        -0.10837235301733017,
        0.1659497618675232,
        -0.5097103714942932
      ],
      [
        0.29007768630981445,
        0.21310250461101532,
        -0.42889854311943054,
        -0.4033435583114624,
        -0.21418407559394836,
        -0.5093826651573181,
        0.020873477682471275,
        0.07149095088243484,
        -0.04281097650527954,
        0.5640408992767334,
        -0.11726156622171402,
        -0.47017422318458557,
        0.10733545571565628,
        0.07312241196632385,
        0.13038301467895508,
        0.19092707335948944,
        0.24482892453670502,
        -0.7097864151000977,
        0.40143364667892456,
        0.3796263039112091,
        0.49246513843536377,
        -0.4289838373661041,
        0.1930575668811798,
        -0.21837328374385834,
        0.0005480005638673902,
        0.38007858395576477,
        0.1258229911327362,
        0.050204887986183167,
        0.26926907896995544,
        0.5091421008110046,
        -0.6520529389381409,
        -0.43846532702445984,
        2.6055514812469482,
        0.052803538739681244,
        0.12490353733301163,
        0.22525697946548462,
        0.013728022575378418,
        -0.032880011945962906,
        -0.4285295009613037,
        0.38557055592536926,
        -0.02501656301319599,
        -0.03838532790541649,
        0.06250820308923721,
        0.2582482397556305,
        0.05154450237751007,
        -0.030844522640109062,
        0.21810124814510345,
        -0.01178121380507946,
        0.6938972473144531,
        0.5775866508483887,
        0.49784231185913086,
        0.1446223109960556,
        0.2052484005689621,
        -0.19699130952358246,
        -0.1450376957654953,
        -0.08590582013130188,
        0.23320847749710083,
        0.020842980593442917,
        0.30495691299438477,
        0.041089534759521484,
        0.18502330780029297,
        0.1135784462094307,
        -0.059170354157686234,
        0.23727452754974365
      ],
      [
        -0.09348177164793015,
        -0.2876785397529602,
        -0.010395080782473087,
        -0.14001531898975372,
        0.13992847502231598,
        -0.4395880699157715,
        -0.5217869281768799,
        -0.1930914968252182,
        -0.4313991665840149,
        -0.18778380751609802,
        0.1753205955028534,
        -0.5630513429641724,
        -0.24450132250785828,
        -0.18227741122245789,
        -0.04902492091059685,
        -0.04679960757493973,
        -0.16671448945999146,
        -0.24043960869312286,
        -0.12841592729091644,
        -0.029992850497364998,
        -0.05192098021507263,
        0.1787341982126236,
        0.2829887866973877,
        -0.5757052898406982,
        -0.631179690361023,
        0.009043985046446323,
        -0.4783383011817932,
        0.06553909927606583,
        -0.10582093894481659,
        -0.07460994273424149,
        0.0012975577265024185,
        -0.4339596629142761,
        0.148291677236557,
        -0.09637446701526642,
        0.009553173556923866,
        0.2812463343143463,
        -0.02612239308655262,
        -0.40864241123199463,
        -0.4537104070186615,
        -0.13611923158168793,
        -0.44768431782722473,
        -0.19531169533729553,
        -0.14001499116420746,
        -0.2023210972547531,
        -0.18495824933052063,
        -0.48379233479499817,
        -0.07943893224000931,
        -0.027628732845187187,
        -0.29920822381973267,
        -0.10586259514093399,
        0.08796866983175278,
        -0.45728206634521484,
        -0.34322792291641235,
        -0.6007151007652283,
        -0.4074282944202423,
        -0.23926080763339996,
        -0.3620273768901825,
        -0.1177389994263649,
        0.009491450153291225,
        -0.09217437356710434,
        0.1406504362821579,
        -0.3208208382129669,
        0.1725662350654602,
        -0.09446448087692261
      ],
      [
        -0.38584303855895996,
        0.02253163792192936,
        0.020198332145810127,
        0.4043058454990387,
        0.30718547105789185,
        -0.032205160707235336,
        0.02591969445347786,
        0.3206363618373871,
        0.22755521535873413,
        -0.03169536218047142,
        1.0593655109405518,
        -0.19206790626049042,
        -0.07771659642457962,
        0.11045245081186295,
        0.16833527386188507,
        0.20417986810207367,
        0.33620208501815796,
        0.8869596719741821,
        0.21274851262569427,
        0.2929045855998993,
        -0.009524303488433361,
        0.44805851578712463,
        0.39227786660194397,
        -0.4005615711212158,
        0.035110123455524445,
        -0.049213092774152756,
        -0.40060386061668396,
        0.07230917364358902,
        0.29217588901519775,
        -0.0601661279797554,
        0.0987352579832077,
        0.8387366533279419,
        -0.7139148116111755,
        -0.08854000270366669,
        0.5164674520492554,
        -0.9353064894676208,
        -0.2077154666185379,
        0.06164635345339775,
        0.8082315325737,
        -0.29855912923812866,
        -0.009684354066848755,
        0.012265603989362717,
        0.16077034175395966,
        0.15089799463748932,
        0.30648061633110046,
        0.024334629997611046,
        0.1878495067358017,
        -0.027839420363307,
        0.03828777000308037,
        -1.5245774984359741,
        -0.22665150463581085,
        -0.10611943900585175,
        -0.1829010248184204,
        0.4869360029697418,
        -0.3011952340602875,
        0.1771554797887802,
        -0.26702266931533813,
        -0.13191652297973633,
        -0.08286821842193604,
        -0.07642453163862228,
        0.006961047649383545,
        -0.31505391001701355,
        0.46036458015441895,
        -0.14582107961177826
      ],
      [
        -0.07064993679523468,
        -0.11954639106988907,
        -0.010104114189743996,
        0.004720986820757389,
        -0.03561951220035553,
        0.06510476768016815,
        -0.148312509059906,
        0.013591185212135315,
        -0.06878145039081573,
        -0.02846357226371765,
        -0.12003076821565628,
        -0.13507266342639923,
        -0.116371750831604,
        0.023951303213834763,
        -0.05893917754292488,
        0.02139798179268837,
        -0.06774361431598663,
        -0.06072206422686577,
        -0.036373622715473175,
        0.06374245136976242,
        -0.06523684412240982,
        0.06176963448524475,
        0.03611841797828674,
        0.06471408158540726,
        0.035852640867233276,
        0.019862717017531395,
        -0.08107179403305054,
        -0.035083308815956116,
        0.048662662506103516,
        0.06813031435012817,
        -0.006671682000160217,
        0.019368255510926247,
        -0.07442540675401688,
        0.028865378350019455,
        -0.05234600603580475,
        -0.1311197429895401,
        -0.1000903993844986,
        -0.09546227753162384,
        -0.019727909937500954,
        -0.1048499122262001,
        -0.07992729544639587,
        -0.007831871509552002,
        -0.07627008855342865,
        -0.013048144057393074,
        -0.05915731564164162,
        -0.003985830117017031,
        0.04603304713964462,
        -0.07545864582061768,
        0.023203719407320023,
        -0.014105441980063915,
        -0.10101936012506485,
        -0.10170809924602509,
        0.0022265370935201645,
        -0.016551237553358078,
        -0.004037529230117798,
        -0.06223069131374359,
        0.03423451632261276,
        -0.026856625452637672,
        -0.13152951002120972,
        -0.06517770141363144,
        -0.07541932910680771,
        -0.09959715604782104,
        -0.1125754565000534,
        -0.12695366144180298
      ],
      [
        -0.1775818020105362,
        -0.23038798570632935,
        0.8363815546035767,
        -0.6279592514038086,
        -0.4865776598453522,
        0.026746299117803574,
        -0.38897839188575745,
        0.8552572727203369,
        -0.20114892721176147,
        -3.2097413539886475,
        0.8773180246353149,
        -0.42655399441719055,
        -0.4777108430862427,
        0.5340996384620667,
        0.42331305146217346,
        0.40249985456466675,
        -0.43783339858055115,
        -0.4377402365207672,
        0.9502827525138855,
        -0.4161243736743927,
        0.802091658115387,
        -0.8593430519104004,
        0.7977220416069031,
        -0.10397451370954514,
        0.29073619842529297,
        0.5197351574897766,
        0.24271349608898163,
        0.09020474553108215,
        -0.1450480967760086,
        0.2153521627187729,
        -0.8966211676597595,
        0.7863032221794128,
        2.128957509994507,
        -0.4583766758441925,
        1.0012766122817993,
        0.4636138379573822,
        0.9224144816398621,
        -0.2114875763654709,
        -0.34667080640792847,
        -0.39506033062934875,
        0.7706157565116882,
        0.5650436878204346,
        -0.42927640676498413,
        -0.6062896251678467,
        0.17213945090770721,
