{
  "type": "nn",
  "encoding": "v1",
  "hidden": 32,
  "epsilon": 0.01,
  "weights": {
    "w1": [
      [
        2.4809298515319824,
        -0.05668608471751213,
        4.315310478210449,
        1.8676975965499878,
        -1.4610950946807861,
        -0.997814953327179,
        0.5066919922828674,
        -0.42767995595932007,
        -0.3811417818069458,
        -0.7894060611724854,
        3.779224157333374,
        1.8566789627075195,
        -2.0539944171905518,
        2.114391803741455,
        0.3342245817184448,
        -0.44622185826301575,
        0.06699328869581223,
        -0.3618144989013672,
        0.14356304705142975,
        0.3534359037876129,
        0.463142067193985,
        -1.3012369871139526,
        1.6240744590759277,
        -0.9444325566291809,
        0.41907447576522827,
        -0.9189325571060181,
        3.0946578979492188,
        1.1327074766159058,
        0.24652865529060364,
        0.2681875228881836,
        6.6090898513793945,
        -0.23930484056472778
      ],
      [
        -1.1826879978179932,
        -0.29402080178260803,
        -1.2145963907241821,
        -0.8413664102554321,
        1.1792877912521362,
        0.6119600534439087,
        -1.076916217803955,
        0.6347416043281555,
        1.564508318901062,
        0.826977014541626,
        -1.954152226448059,
        -1.0976922512054443,
        0.5275239944458008,
        -0.7021491527557373,
        0.34914740920066833,
        0.09042108058929443,
        0.2745203375816345,
        0.2597794532775879,
        -0.22487138211727142,
        -0.6278195381164551,
        -0.6766614317893982,
        0.8203440308570862,
        -0.9577197432518005,
        -0.08911757171154022,
        0.05546123906970024,
        1.1515785455703735,
        -1.1188329458236694,
        -0.3506380319595337,
        -1.0682038068771362,
        -0.4568924009799957,
        -1.7583929300308228,
        0.19641968607902527
      ],
      [
        0.4666270315647125,
        0.11675769090652466,
        0.1677599996328354,
        -0.11508657038211823,
        -0.4620082676410675,
        -0.2741236984729767,
        0.201013445854187,
        -0.42265498638153076,
        -0.9005483388900757,
        -0.42690250277519226,
        0.3373386561870575,
        0.5006510615348816,
        0.1626199185848236,
        0.8500522971153259,
        0.39188525080680847,
        0.020169412717223167,
        0.17125998437404633,
        -0.3447881042957306,
        0.3360348343849182,
        0.007702450733631849,
        -0.5242484211921692,
        -0.03005533292889595,
        0.36707013845443726,
        0.08541388064622879,
        0.05775393918156624,
        -0.3392297327518463,
        0.038326166570186615,
        0.7127286791801453,
        -0.03384273126721382,
        0.13300147652626038,
        -0.2611069977283478,
        -0.5907812118530273
      ],
      [
        -1.2706620693206787,
        0.09380847960710526,
        0.41755205392837524,
        -0.44590669870376587,
        -1.3255808353424072,
        3.695319890975952,
        0.5746802687644958,
        1.3603438138961792,
        -1.3268018960952759,
        0.029351968318223953,
        -1.5071772336959839,
        -2.4132912158966064,
        5.407918453216553,
        -1.643484115600586,
        0.8739526271820068,
        2.6812429428100586,
        -0.2583252191543579,
        -0.6231350898742676,
        0.785420835018158,
        -0.6898965835571289,
        0.7630069851875305,
        1.308695912361145,
        3.5414106845855713,
        0.4710480570793152,
        -1.342361569404602,
        0.2175270915031433,
        -1.1684294939041138,
        3.9995455741882324,
        2.564277172088623,
        -0.2103821486234665,
        2.713974714279175,
        -0.49718227982521057
      ],
      [
        0.0983119085431099,
        0.12934055924415588,
        -0.48286211490631104,
        0.439992219209671,
        0.9484579563140869,
        -1.560313105583191,
        -0.8535799980163574,
        -0.5301535725593567,
        1.1260790824890137,
        0.10044825822114944,
        0.9229398369789124,
        2.149658679962158,
        -2.43532133102417,
        0.11697951704263687,
        -0.7869250178337097,
        -0.2729624807834625,
        -0.3409733772277832,
        -0.10381295531988144,
        -0.5666889548301697,
        0.6287124752998352,
        0.025824330747127533,
        -0.4889015257358551,
        -0.5255909562110901,
        -0.5682080388069153,
        0.9092478156089783,
        -0.20934994518756866,
        0.2997548580169678,
        -0.5942297577857971,
        -0.612816333770752,
        0.3031875491142273,
        -0.6573028564453125,
        -0.4837512671947479
      ],
      [
        -0.5619244575500488,
        -0.37407025694847107,
        0.5729187726974487,
        -0.264833927154541,
        -0.045222438871860504,
        -0.138163760304451,
        0.33031055331230164,
        0.1155838891863823,
        -0.5625237226486206,
        -0.16105671226978302,
        -0.4644831717014313,
        -0.27792930603027344,
        0.1443401426076889,
        -0.6282700300216675,
        -0.5169147253036499,
        0.2988918423652649,
        0.5884910821914673,
        0.029771365225315094,
        -0.0842510238289833,
        -0.051285628229379654,
        0.6578225493431091,
        -0.14081817865371704,
        0.5248242616653442,
        0.37897276878356934,
        -0.05617184564471245,
        0.2866951823234558,
        -0.12650440633296967,
        -0.26936760544776917,
        -0.47103452682495117,
        0.4011845886707306,
        -0.5092734098434448,
        -0.07705850899219513
      ],
      [
        -0.17468911409378052,
        5.955361366271973,
        -0.8007367849349976,
        -1.6902551651000977,
        0.3683253228664398,
        -0.46827974915504456,
        1.6445410251617432,
        0.11023915559053421,
        0.5341683030128479,
        4.2649126052856445,
        0.1531207114458084,
        2.660640001296997,
        -0.6519935131072998,
        0.22654326260089874,
        -0.41646790504455566,
        -0.6362560391426086,
        -0.36854326725006104,
        -0.0446820892393589,
        1.6015307903289795,
        -0.25283321738243103,
        -0.06088792160153389,
        -1.44868004322052,
        2.072766065597534,
        1.51422119140625,
        -0.3313538730144501,
        4.578547954559326,
        -0.678487241268158,
        -0.11686866730451584,
        2.0600743293762207,
        1.0083379745483398,
        0.10097202658653259,
        -0.4677559733390808
      ],
      [
        -0.14080047607421875,
        -0.2010081261396408,
        2.6182403564453125,
        2.2336456775665283,
        -0.6305842399597168,
        0.36769697070121765,
        -1.295223355293274,
        -0.24332651495933533,
        -0.31282490491867065,
        0.05764022842049599,
        -0.50518399477005,
        -2.2472543716430664,
        0.4231882095336914,
        -0.5762784481048584,
        -0.23240841925144196,
        0.3061729371547699,
        -0.3596261143684387,
        -0.031083088368177414,
        -1.4279210567474365,
        -0.4321002960205078,
        0.9796286225318909,
        0.2723771333694458,
        -0.3219048082828522,
        -0.4514371454715729,
        2.0570104122161865,
        -0.7294632196426392,
        -0.056866440922021866,
        -0.2924760580062866,
        -0.7275769710540771,
        -0.7512212991714478,
        -0.6084011793136597,
        0.19430822134017944
      ],
      [
        0.03853609412908554,
        0.17687854170799255,
        -0.8445159196853638,
        -1.0295324325561523,
        -0.21633313596248627,
        -0.20893606543540955,
        0.23864518105983734,
        -0.28436553478240967,
        0.46562182903289795,
        0.6221851110458374,
        0.2260323315858841,
        0.8422929644584656,
        -0.3149662911891937,
        0.13739323616027832,
        -0.35984236001968384,
        -9.245006367564201e-05,
        -0.03878900408744812,
        0.9373072385787964,
        0.781041145324707,
        0.005248058121651411,
        -0.33297672867774963,
        -0.46986523270606995,
        0.7087458372116089,
        0.055844537913799286,
        -0.07918589562177658,
        -0.576032280921936,
        -0.001675180858001113,
        -0.019616160541772842,
        -0.337042897939682,
        -0.19867795705795288,
        0.6881319284439087,
        0.02390872687101364
      ],
      [
        -0.25194793939590454,
        -0.13133317232131958,
        -0.5269019603729248,
        0.8047778010368347,
        2.84212064743042,
        -2.645764112472534,
        1.8154237270355225,
        -0.1387399137020111,
        -0.3280266225337982,
        0.06609432399272919,
        -1.5072849988937378,
        0.443778395652771,
        2.2024075984954834,
        -1.0939816236495972,
        0.12198110669851303,
        -0.5270688533782959,
        -0.048431459814310074,
        -0.3999967575073242,
        -0.8717214465141296,
        6.572022914886475,
        -0.05675068870186806,
        3.5353221893310547,
        2.2452728748321533,
        -0.3526705503463745,
        2.335139513015747,
        -0.2678801715373993,
        1.0605474710464478,
        -1.3616394996643066,
        1.270756483078003,
        -0.28806328773498535,
        0.7555480003356934,
        -0.4835004210472107
      ],
      [
        0.1395902931690216,
        0.1112629845738411,
        0.5931111574172974,
        -0.26293888688087463,
        -1.6034575700759888,
        2.4573326110839844,
        -1.1625202894210815,
        -0.14085844159126282,
        -0.10899491608142853,
        -0.33857786655426025,
        1.1045533418655396,
        -0.18584048748016357,
        -1.3966819047927856,
        -0.1718442440032959,
        -0.10398145020008087,
        -0.6912017464637756,
        -0.27335143089294434,
        0.1689404398202896,
        1.4164174795150757,
        -0.9089498519897461,
        -0.8998008966445923,
        -0.8711769580841064,
        -0.8977781534194946,
        0.837997317314148,
        -1.2920223474502563,
        -1.0208771228790283,
        -0.40464526414871216,
        1.796983242034912,
        -0.5891457796096802,
        0.7275313138961792,
        -0.8042401075363159,
        0.31997692584991455
      ],
      [
        -0.2879386842250824,
        0.021348608657717705,
        0.12114308774471283,
        0.1910834163427353,
        0.8263240456581116,
        -0.5713685750961304,
        -0.4820130467414856,
        0.02149934694170952,
        0.21013323962688446,
        0.1272462010383606,
        -0.21557950973510742,
        -0.19436079263687134,
        0.2035670280456543,
        0.25804340839385986,
        -0.2284221202135086,
        -0.10620493441820145,
        0.08346279710531235,
        0.3881355822086334,
        -0.22886089980602264,
        0.32833024859428406,
        0.26989275217056274,
        1.0857399702072144,
        0.3005888760089874,
        0.6014007329940796,
        0.38351336121559143,
        -0.7212696075439453,
        0.5304473638534546,
        -0.7340675592422485,
        0.3309144973754883,
        0.3257095217704773,
        0.19972649216651917,
        -0.5109828114509583
      ]
    ],
    "b1": [
      0.054306939244270325,
      -0.5571834444999695,
      0.019843004643917084,
      0.12638325989246368,
      0.516370415687561,
      1.3502107858657837,
      -0.4097977876663208,
      0.04166454076766968,
      1.1472141742706299,
      -0.8304789066314697,
      1.2037636041641235,
      -1.5909351110458374,
      -1.0743757486343384,
      0.45709851384162903,
      -0.1134323924779892,
      0.38226068019866943,
      -0.09747805446386337,
      0.17266890406608582,
      -0.29847419261932373,
      0.23947320878505707,
      -0.11090359091758728,
      -0.4382983446121216,
      -1.9228148460388184,
      -0.39355534315109253,
      0.5524157285690308,
      -0.6088540554046631,
      -0.4812923073768616,
      0.16928237676620483,
      -2.4624078273773193,
      -0.400634765625,
      -2.411733388900757,
      -0.11704006046056747
    ],
    "w2": [
      [
        -2.877594232559204,
        0.9182446599006653,
        0.09767760336399078,
        0.4469515383243561
      ],
      [
        -0.025456804782152176,
        -0.035032741725444794,
        -7.930425643920898,
        0.7889956831932068
      ],
      [
        -5.347605228424072,
        -0.5849109888076782,
        1.8437387943267822,
        0.5829489827156067
      ],
      [
        -1.9694477319717407,
        0.9232988953590393,
        1.481518030166626,
        -1.0481396913528442
      ],
      [
        1.4163185358047485,
        1.0725246667861938,
        -0.547502875328064,
        -3.8075363636016846
      ],
      [
        1.1603678464889526,
        -4.730371475219727,
        0.4708941578865051,
        2.275294065475464
      ],
      [
        -1.376585841178894,
        -0.8050651550292969,
        -1.8557078838348389,
        -1.6130834817886353
      ],
      [
        0.4340978264808655,
        -1.7800556421279907,
        -0.023562805727124214,
        -0.015622659586369991
      ],
      [
        1.5709246397018433,
        1.3304044008255005,
        -0.5604692697525024,
        0.1285826712846756
      ],
      [
        0.7308559417724609,
        -0.09601300954818726,
        -5.3888139724731445,
        -0.0343438982963562
      ],
      [
        -4.156473636627197,
        1.2501378059387207,
        -0.2717699408531189,
        1.7205421924591064
      ],
      [
        -2.0728306770324707,
        2.208796977996826,
        -2.6614322662353516,
        -0.26082709431648254
      ],
      [
        0.8867316842079163,
        -6.05138635635376,
        0.9134998321533203,
        -2.316124677658081
      ],
      [
        -1.7244038581848145,
        1.0133709907531738,
        -0.4260047674179077,
        1.0998493432998657
      ],
      [
        -0.15216445922851562,
        -0.9272119402885437,
        0.15808016061782837,
        -0.07160615921020508
      ],
      [
        0.1933249682188034,
        -3.103184461593628,
        0.6778689622879028,
        0.11437052488327026
      ],
      [
        0.05400160700082779,
        0.0338156558573246,
        0.036191120743751526,
        0.0003394146333448589
      ],
      [
        0.5295612812042236,
        0.41088423132896423,
        -0.1236686035990715,
        -0.008779811672866344
      ],
      [
        -0.34945428371429443,
        -0.7585430145263672,
        -2.038530111312866,
        1.2264152765274048
      ],
      [
        -0.489028662443161,
        0.762165367603302,
        0.13362614810466766,
        -8.920783042907715
      ],
      [
        -0.5954006910324097,
        -0.5997101068496704,
        0.5189884901046753,
        -0.32924214005470276
      ],
      [
        1.377648949623108,
        -1.2576944828033447,
        0.5751920938491821,
        -3.6540586948394775
      ],
      [
        -2.733285427093506,
        -3.034062385559082,
        -1.406851887702942,
        -1.9164167642593384
      ],
      [
        0.27344971895217896,
        -0.6502982974052429,
        -1.4443639516830444,
        0.7471734285354614
      ],
      [
        -0.11222200095653534,
        1.2784924507141113,
        0.8647708892822266,
        -3.1203598976135254
      ],
      [
        0.9131442904472351,
        -0.35612916946411133,
        -5.7439799308776855,
        -0.24473869800567627
      ],
      [
        -3.2990922927856445,
        0.8739588856697083,
        0.32397839426994324,
        -1.0073473453521729
      ],
      [
        -0.6413406133651733,
        -4.868454933166504,
        0.3627101480960846,
        1.648215889930725
      ],
      [
        -1.9549201726913452,
        -1.6938823461532593,
        -1.801932692527771,
        -1.18873131275177
      ],
      [
        -0.3294477164745331,
        0.2853395342826843,
        -1.1078649759292603,
        0.4758756160736084
      ],
      [
        -5.525242805480957,
        -3.0671846866607666,
        -0.9060177803039551,
        -1.0931973457336426
      ],
      [
        -0.10856964439153671,
        0.09992114454507828,
        -0.2243734896183014,
        -0.008900905027985573
      ]
    ],
    "b2": [
      -0.4789113402366638,
      -0.46991410851478577,
      -1.1609477996826172,
      -0.6168411374092102
    ]
  }
}