{
  "type": "nn",
  "encoding": "v1",
  "hidden": 32,
  "epsilon": 0.6057704364907278,
  "weights": {
    "w1": [
      [
        0.7095819115638733,
        -0.7898072600364685,
        1.5294830799102783,
        0.7283719182014465,
        -1.0018713474273682,
        -0.4359983801841736,
        0.5134416818618774,
        -0.083720862865448,
        -0.0020843343809247017,
        -0.727704644203186,
        1.3522218465805054,
        1.3098503351211548,
        -0.23312409222126007,
        0.8224461674690247,
        0.2996906340122223,
        -0.32509157061576843,
        0.07376028597354889,
        -0.41773420572280884,
        0.5165289640426636,
        -0.07987593114376068,
        0.21889717876911163,
        -0.9387816786766052,
        1.333621621131897,
        -0.08637896925210953,
        -0.007794379256665707,
        -0.5483900904655457,
        0.9688136577606201,
        0.6621174812316895,
        0.8058046102523804,
        0.22439801692962646,
        3.305633544921875,
        -0.16091004014015198
      ],
      [
        -0.20269609987735748,
        0.005029882304370403,
        0.27147817611694336,
        0.4532725214958191,
        0.029416067525744438,
        -0.3181930482387543,
        -0.10858466476202011,
        0.290581613779068,
        0.3560791611671448,
        0.4792155921459198,
        -0.22001414000988007,
        0.41053706407546997,
        0.19241894781589508,
        0.13302618265151978,
        0.3620932996273041,
        0.09685254096984863,
        0.2795391380786896,
        0.027589039877057076,
        0.17819707095623016,
        0.4685204029083252,
        -0.5738624334335327,
        -0.0218316912651062,
        0.004670992493629456,
        -0.21035681664943695,
        -0.06591735780239105,
        0.8703311085700989,
        -0.26996085047721863,
        0.4365907311439514,
        -0.5083006024360657,
        -0.11669938266277313,
        0.28374871611595154,
        0.23946534097194672
      ],
      [
        0.2791600823402405,
        0.43354877829551697,
        -0.15701070427894592,
        -0.19213195145130157,
        0.4180236756801605,
        -0.004979547578841448,
        -0.47081002593040466,
        -0.45135557651519775,
        -0.3761625587940216,
        0.28497403860092163,
        -0.0060338713228702545,
        0.32713449001312256,
        -0.032552771270275116,
        0.05083668604493141,
        0.27256637811660767,
        -0.07447345554828644,
        0.18635688722133636,
        -0.27023014426231384,
        -0.14254845678806305,
        -0.0662316381931305,
        -0.5254367589950562,
        0.3124995231628418,
        -0.135854572057724,
        0.008605247363448143,
        0.21471045911312103,
        0.28026455640792847,
        0.2530108392238617,
        -0.039190467447042465,
        -0.09435153007507324,
        -0.02274477109313011,
        -0.6693041920661926,
        -0.5907812118530273
      ],
      [
        -0.577347457408905,
        -0.1324780285358429,
        0.2840571999549866,
        -0.43892771005630493,
        0.10358492285013199,
        1.2956539392471313,
        0.21436752378940582,
        0.45604178309440613,
        -0.3905050456523895,
        0.26278334856033325,
        -0.4856880307197571,
        -0.31887558102607727,
        2.182523727416992,
        -0.7378401160240173,
        0.32830342650413513,
        0.7324742674827576,
        -0.2503265142440796,
        -0.6053708791732788,
        0.2568426728248596,
        0.1925758421421051,
        0.2874516546726227,
        1.0014166831970215,
        1.6599148511886597,
        0.08751017600297928,
        -0.6709312200546265,
        0.40080755949020386,
        -0.08395920693874359,
        1.2041317224502563,
        0.9202653765678406,
        0.04012525454163551,
        1.8485031127929688,
        -0.48531049489974976
      ],
      [
        -0.23052804172039032,
        -0.040105488151311874,
        -0.25664156675338745,
        -0.5288480520248413,
        0.35532069206237793,
        -0.08121395111083984,
        -0.3876955807209015,
        -0.42417991161346436,
        0.1706145852804184,
        0.6129148602485657,
        0.7584395408630371,
        1.4974347352981567,
        0.062418874353170395,
        -0.3644629716873169,
        -0.8745337724685669,
        0.07200887054204941,
        -0.33130520582199097,
        -0.16956889629364014,
        -0.2437240481376648,
        0.13346339762210846,
        0.444039911031723,
        0.10124633461236954,
        -0.06698735058307648,
        -0.3375346064567566,
        -0.657767653465271,
        0.10518134385347366,
        0.016820669174194336,
        0.5939927697181702,
        0.23237057030200958,
        0.4609946310520172,
        -0.2511308193206787,
        -0.4837512671947479
      ],
      [
        -0.37143442034721375,
        -0.2258017659187317,
        0.955548882484436,
        -0.30608710646629333,
        0.39951032400131226,
        -0.31616321206092834,
        0.5733782052993774,
        0.17436420917510986,
        -0.07105667144060135,
        0.0615551732480526,
        -0.2167971283197403,
        0.36104393005371094,
        0.014350992627441883,
        -0.4829241633415222,
        -0.5136998891830444,
        0.10474033653736115,
        0.608596920967102,
        0.06531630456447601,
        0.006721870042383671,
        0.2677921652793884,
        0.5826089382171631,
        0.172106072306633,
        0.06666208803653717,
        0.4386371672153473,
        0.18352852761745453,
        0.6945866346359253,
        0.15379945933818817,
        -0.4197732210159302,
        -0.3806862533092499,
        0.700721263885498,
        1.0958369970321655,
        -0.07328841090202332
      ],
      [
        -0.1470298171043396,
        2.62652325630188,
        -0.5954886078834534,
        -0.354890376329422,
        0.602662980556488,
        -0.023813268169760704,
        1.0650670528411865,
        -0.024963904172182083,
        0.344819039106369,
        2.027388334274292,
        0.20877687633037567,
        1.8979637622833252,
        -0.7175328731536865,
        0.20545345544815063,
        -0.38214176893234253,
        -0.4684242308139801,
        -0.3617345094680786,
        -0.1388068050146103,
        0.7771739959716797,
        0.1997595578432083,
        0.185444638133049,
        0.11468636989593506,
        0.40635156631469727,
        0.787030816078186,
        0.4106523394584656,
        2.1410415172576904,
        -0.023152567446231842,
        -0.11488130688667297,
        1.0516341924667358,
        0.46317851543426514,
        0.45546597242355347,
        -0.4428327977657318
      ],
      [
        0.1065911054611206,
        -0.044864472001791,
        1.1301367282867432,
        0.7645846605300903,
        -0.41522276401519775,
        -0.04462561383843422,
        -0.691888689994812,
        -0.22753365337848663,
        0.1049145981669426,
        0.3617978096008301,
        -0.21476145088672638,
        -0.32645708322525024,
        -0.9456368088722229,
        -0.06197498366236687,
        -0.4088292121887207,
        -0.19035014510154724,
        -0.35797691345214844,
        -0.03898259997367859,
        -0.7095472812652588,
        -0.7562216520309448,
        0.9162342548370361,
        -0.6078811883926392,
        -0.45325568318367004,
        0.7563982009887695,
        1.1426113843917847,
        -0.611419677734375,
        -0.12580828368663788,
        0.21166355907917023,
        0.6622188687324524,
        -0.40806540846824646,
        0.021386489272117615,
        0.31259119510650635
      ],
      [
        0.1894756555557251,
        -0.12421620637178421,
        -0.03983408212661743,
        -0.5788653492927551,
        -0.21552351117134094,
        -0.054925475269556046,
        0.050785355269908905,
        -0.23203504085540771,
        0.20943990349769592,
        0.41003334522247314,
        0.14179828763008118,
        0.13699474930763245,
        -0.16791652143001556,
        0.021875616163015366,
        -0.29497411847114563,
        0.12758119404315948,
        -0.03971708565950394,
        0.8385410904884338,
        0.6552376747131348,
        -0.04344818741083145,
        -0.2980771064758301,
        -0.6206391453742981,
        0.38076257705688477,
        0.1794120967388153,
        0.13982939720153809,
        -0.7567811608314514,
        0.33615756034851074,
        0.24572664499282837,
        -0.47254863381385803,
        -0.21752533316612244,
        0.05127638950943947,
        0.021419480443000793
      ],
      [
        -0.14618980884552002,
        -0.1760309338569641,
        -0.2503509223461151,
        0.22749659419059753,
        1.1085325479507446,
        -1.0044171810150146,
        0.45166581869125366,
        0.08537188917398453,
        0.036297958344221115,
        -0.029337521642446518,
        -0.8679602742195129,
        0.08784861862659454,
        1.743674397468567,
        -0.6390999555587769,
        0.29025915265083313,
        -0.06878232955932617,
        -0.05512265861034393,
        -0.4254758656024933,
        -0.2967943847179413,
        1.6945724487304688,
        -0.07256654649972916,
        1.5447032451629639,
        0.9248507022857666,
        -0.21305370330810547,
        0.8490458726882935,
        0.18472599983215332,
        0.43954673409461975,
        -0.5110681653022766,
        0.38097432255744934,
        -0.19945785403251648,
        0.6396773457527161,
        -0.48104044795036316
      ],
      [
        0.4384257197380066,
        -0.16236016154289246,
        0.8151776790618896,
        0.3688938021659851,
        0.7636042833328247,
        0.4101826548576355,
        -0.4713037312030792,
        0.01901351287961006,
        -0.47846993803977966,
        -0.22743724286556244,
        0.8034194707870483,
        0.47833359241485596,
        0.1692381650209427,
        -0.326833575963974,
        0.061157215386629105,
        -0.41832590103149414,
        -0.2739918828010559,
        0.08640874177217484,
        0.5492056608200073,
        0.3926096260547638,
        -0.9348682165145874,
        0.2414446920156479,
        0.5370201468467712,
        0.15727879106998444,
        0.6038661599159241,
        -0.8572936058044434,
        -0.050662051886320114,
        0.5142837166786194,
        -0.37932154536247253,
        0.5939961671829224,
        1.1254761219024658,
        0.3549727201461792
      ],
      [
        -0.19083720445632935,
        0.486769437789917,
        0.5747482180595398,
        0.14631886780261993,
        0.15370281040668488,
        0.08218219876289368,
        -0.17389877140522003,
        -0.042576659470796585,
        -0.0562724843621254,
        0.278989315032959,
        0.5071074962615967,
        -0.10168294608592987,
        0.03297235071659088,
        0.6661279797554016,
        -0.286744087934494,
        -0.3335687220096588,
        0.08051076531410217,
        0.32180920243263245,
        0.06830789148807526,
        0.6792291402816772,
        0.3812234103679657,
        0.3540506660938263,
        0.45985278487205505,
        0.9677490592002869,
        -0.027364244684576988,
        -0.6763070821762085,
        0.7742853164672852,
        -0.0932023823261261,
        0.25377339124679565,
        0.5736839175224304,
        -0.18940375745296478,
        -0.5109828114509583
      ]
    ],
    "b1": [
      0.4145745635032654,
      1.368261694908142,
      0.8332697153091431,
      0.3244660496711731,
      0.603722870349884,
      0.6872975826263428,
      1.7524926662445068,
      0.14475099742412567,
      0.13212589919567108,
      1.126054048538208,
      0.7034483551979065,
      1.880260705947876,
      1.7080836296081543,
      0.470859169960022,
      0.1347433477640152,
      0.49408066272735596,
      -0.08387549966573715,
      -0.03890078142285347,
      0.5081839561462402,
      1.4439667463302612,
      0.3664725422859192,
      0.8749445080757141,
      1.9861221313476562,
      0.2060643434524536,
      0.17353689670562744,
      1.1135433912277222,
      0.577441394329071,
      0.729620099067688,
      1.9178547859191895,
      0.3028103709220886,
      3.141839027404785,
      0.004874953534454107
    ],
    "w2": [
      [
        -0.8889650106430054,
        0.04185027629137039,
        0.08657360076904297,
        0.1932416409254074
      ],
      [
        0.2709328234195709,
        -0.5667420625686646,
        -2.8805580139160156,
        -0.6244872808456421
      ],
      [
        -1.9392067193984985,
        -0.7728245854377747,
        0.2582527995109558,
        0.03014463372528553
      ],
      [
        -0.7585743069648743,
        0.17914333939552307,
        0.222100168466568,
        -0.1680137664079666
      ],
      [
        0.5599890947341919,
        -0.472368985414505,
        -0.5244782567024231,
        -1.2417209148406982
      ],
      [
        0.3600066900253296,
        -1.1816765069961548,
        0.00026161596179008484,
        0.42653903365135193
      ],
      [
        -0.9568521976470947,
        -0.9027847051620483,
        -1.4567207098007202,
        -1.1774828433990479
      ],
      [
        -0.016946114599704742,
        -0.4113635718822479,
        -0.04387756437063217,
        -0.1292172372341156
      ],
      [
        0.17475590109825134,
        0.3409533202648163,
        -0.3587106168270111,
        0.15785585343837738
      ],
      [
        0.30044543743133545,
        -0.6895571947097778,
        -2.2870569229125977,
        -0.7418235540390015
      ],
      [
        -1.5268046855926514,
        0.16742905974388123,
        -0.36608293652534485,
        0.6767852902412415
      ],
      [
        -1.8150886297225952,
        -0.42418980598449707,
        -2.589317798614502,
        -1.0575968027114868
      ],
      [
        -0.02905498817563057,
        -2.5578665733337402,
        0.28655290603637695,
        -1.999464511871338
      ],
      [
        -0.7923856377601624,
        0.062172893434762955,
        -0.41898247599601746,
        0.21316704154014587
      ],
      [
        -0.23640324175357819,
        -0.3390529453754425,
        0.17143963277339935,
        -0.10793666541576385
      ],
      [
        0.14294680953025818,
        -0.7589266300201416,
        0.31713640689849854,
        -0.05118253827095032
      ],
      [
        0.09101047366857529,
        0.04293869063258171,
        -0.01574859581887722,
        -0.008578693494200706
      ],
      [
        0.3322995901107788,
        0.35505807399749756,
        0.009644431993365288,
        0.03875230252742767
      ],
      [
        -0.579195499420166,
        -0.5663246512413025,
        -0.8041311502456665,
        0.04771799594163895
      ],
      [
        -0.3634592592716217,
        -0.7751597166061401,
        -0.7003383040428162,
        -2.126020669937134
      ],
      [
        -0.5243905782699585,
        -0.45335066318511963,
        -0.38396817445755005,
        0.021520936861634254
      ],
      [
        0.7477467060089111,
        -1.2284711599349976,
        -0.18447642028331757,
        -1.7062162160873413
      ],
      [
        -1.6631383895874023,
        -2.234532117843628,
        -0.777571439743042,
        -1.412614107131958
      ],
      [
        -0.08869858831167221,
        -0.3422364294528961,
        -0.6912151575088501,
        0.3992752730846405
      ],
      [
        -0.304443895816803,
        0.28732359409332275,
        -0.16411586105823517,
        -0.5946809649467468
      ],
      [
        0.33371031284332275,
        -0.689084529876709,
        -2.340362548828125,
        -0.8864045143127441
      ],
      [
        -1.1178491115570068,
        -0.12160547077655792,
        -0.12693195044994354,
        -0.5079987049102783
      ],
      [
        -0.7945970296859741,
        -1.3217425346374512,
        -0.3140471577644348,
        0.2434593290090561
      ],
      [
        -1.2014992237091064,
        -1.412850260734558,
        -1.5278618335723877,
        -1.0582869052886963
      ],
      [
        -0.38176068663597107,
        -0.18216276168823242,
        -0.6088721752166748,
        -0.29075491428375244
      ],
      [
        -3.99295973777771,
        -3.0437729358673096,
        -1.0513383150100708,
        -1.538336992263794
      ],
      [
        -0.13160528242588043,
        0.08699295669794083,
        -0.26510515809059143,
        -0.04821694642305374
      ]
    ],
    "b2": [
      -1.0471607446670532,
      -1.1036049127578735,
      -1.3007335662841797,
      -0.9343115091323853
    ]
  }
}