{
  "type": "nn",
  "encoding": "v1",
  "hidden": 32,
  "epsilon": 0.01,
  "weights": {
    "w1": [
      [
        2.666320323944092,
        -0.9107661843299866,
        3.672139883041382,
        -1.2309740781784058,
        -1.2646812200546265,
        0.34621766209602356,
        0.9499461650848389,
        -1.8150428533554077,
        -3.104503870010376,
        -1.6422045230865479,
        4.355809688568115,
        0.7013388276100159,
        -0.23271243274211884,
        1.5187631845474243,
        0.13591553270816803,
        -0.6872872710227966,
        -0.5188987851142883,
        -1.4188448190689087,
        0.905352771282196,
        -2.185967445373535,
        0.12409896403551102,
        -1.9025795459747314,
        0.6455039978027344,
        0.08000551164150238,
        -0.756197452545166,
        -2.5115973949432373,
        3.5527431964874268,
        -0.2088160514831543,
        -0.8235799074172974,
        -0.6033134460449219,
        8.466387748718262,
        -0.25960150361061096
      ],
      [
        -0.46197423338890076,
        -2.892428159713745,
        -0.28001344203948975,
        -0.3370416760444641,
        0.7103783488273621,
        -1.0597131252288818,
        -1.182416319847107,
        2.4136874675750732,
        2.570817232131958,
        -0.07167875021696091,
        -1.437711238861084,
        -1.8395671844482422,
        0.5764066576957703,
        -1.5583575963974,
        0.7250893115997314,
        0.9055582880973816,
        1.6298136711120605,
        2.828432321548462,
        -1.1544184684753418,
        -0.9395958781242371,
        -1.1352450847625732,
        1.4024991989135742,
        -1.4621036052703857,
        0.3099154233932495,
        -1.149796485900879,
        2.2345681190490723,
        0.42637690901756287,
        -0.5422582626342773,
        -0.8933466076850891,
        -1.1543378829956055,
        0.651615560054779,
        0.11772075295448303
      ],
      [
        0.29275235533714294,
        0.11517427116632462,
        -0.9254396557807922,
        0.16193972527980804,
        -0.8023347854614258,
        0.08637560904026031,
        0.396493524312973,
        -1.0038353204727173,
        -0.8047804832458496,
        -0.2831840217113495,
        -0.8942387104034424,
        1.2408702373504639,
        -0.1609329730272293,
        1.0859599113464355,
        0.2925010025501251,
        0.0664498433470726,
        -0.6634403467178345,
        -1.5655468702316284,
        0.14066307246685028,
        0.31474563479423523,
        -0.3277696967124939,
        -1.4687939882278442,
        0.0488152839243412,
        -0.4640484154224396,
        0.20668469369411469,
        -0.4629462957382202,
        0.32052066922187805,
        -1.215997338294983,
        -0.5464692115783691,
        0.5880298018455505,
        0.9584593772888184,
        -0.5907812118530273
      ],
      [
        -2.112018346786499,
        -1.5568578243255615,
        -0.5406063199043274,
        -1.2417700290679932,
        -3.045889377593994,
        4.322118759155273,
        1.366466999053955,
        2.1054697036743164,
        -1.9620920419692993,
        -1.8786145448684692,
        -2.2596311569213867,
        -3.9162096977233887,
        6.805269718170166,
        -1.9979578256607056,
        1.923507809638977,
        3.90544056892395,
        0.28106534481048584,
        -0.08941885083913803,
        1.6641433238983154,
        -2.566531181335449,
        2.8755688667297363,
        -0.07304559648036957,
        1.8016314506530762,
        0.9379100799560547,
        -1.7858160734176636,
        -0.9246441721916199,
        -0.12710775434970856,
        4.394221305847168,
        6.294818878173828,
        -1.0125139951705933,
        2.7972328662872314,
        -0.49977385997772217
      ],
      [
        0.14549748599529266,
        -0.033056214451789856,
        -0.9810793399810791,
        1.8632855415344238,
        0.7233179807662964,
        -2.555370807647705,
        0.09396438300609589,
        0.27679240703582764,
        2.602085590362549,
        -1.3371710777282715,
        1.5567638874053955,
        4.6776442527771,
        0.25506898760795593,
        0.296059250831604,
        -0.3343730866909027,
        0.3438451588153839,
        -1.0942769050598145,
        -1.107995629310608,
        -1.2838808298110962,
        0.07657523453235626,
        -0.6135715246200562,
        -1.452436923980713,
        0.20816010236740112,
        -1.0297192335128784,
        1.6292855739593506,
        -0.45519188046455383,
        0.17063868045806885,
        3.3731629848480225,
        -0.02043531835079193,
        0.23479917645454407,
        -1.7267836332321167,
        -0.4837512671947479
      ],
      [
        0.5097994804382324,
        -0.5010812878608704,
        0.34195756912231445,
        -0.5940341353416443,
        0.2512631118297577,
        0.06709132343530655,
        0.33918333053588867,
        -0.27972233295440674,
        -0.6757339239120483,
        -0.10969087481498718,
        -0.11550135910511017,
        -1.5122270584106445,
        0.10302401334047318,
        0.266818106174469,
        -0.5675998330116272,
        -0.790077805519104,
        0.8159629106521606,
        0.432216078042984,
        -0.2826133072376251,
        -0.3932010233402252,
        1.131335973739624,
        -0.7792426943778992,
        0.7027809023857117,
        -0.025900710374116898,
        -0.4433835446834564,
        0.2924047112464905,
        0.14891745150089264,
        -0.3265502452850342,
        0.23650014400482178,
        0.26304471492767334,
        0.14111848175525665,
        -0.08574548363685608
      ],
      [
        -0.825746476650238,
        3.6955018043518066,
        -3.973254442214966,
        -2.6644692420959473,
        -1.9807080030441284,
        0.43256402015686035,
        1.528661847114563,
        -0.5654991865158081,
        0.2973097264766693,
        3.7340550422668457,
        -0.9434937238693237,
        3.29666805267334,
        0.9451576471328735,
        0.07993514090776443,
        -0.7448461651802063,
        -1.6277668476104736,
        -0.9682514071464539,
        -0.8889959454536438,
        6.864603042602539,
        -0.3357161283493042,
        -0.4237273931503296,
        -1.2450754642486572,
        4.932672500610352,
        4.421156406402588,
        -0.3188798427581787,
        4.746309757232666,
        0.3009952902793884,
        -0.47678741812705994,
        2.139098882675171,
        2.584458351135254,
        2.235135793685913,
        -0.46625688672065735
      ],
      [
        -0.8200578689575195,
        -0.23407918214797974,
        2.747497797012329,
        4.774499416351318,
        0.01003007311373949,
        0.25530171394348145,
        -1.1593961715698242,
        -0.2160462886095047,
        -1.0865147113800049,
        0.20652417838573456,
        -0.7740871906280518,
        -1.4402185678482056,
        0.0483655221760273,
        -1.254607081413269,
        -0.6838238835334778,
        0.8059768676757812,
        0.13301071524620056,
        0.511303186416626,
        -0.5130652785301208,
        -1.0261114835739136,
        1.7528021335601807,
        0.7792951464653015,
        0.43312397599220276,
        0.021050363779067993,
        1.408107876777649,
        -0.9359561800956726,
        -0.9685848355293274,
        -0.4886587858200073,
        -2.172311782836914,
        -1.0531232357025146,
        -0.8153171539306641,
        0.1591765433549881
      ],
      [
        0.5404467582702637,
        -0.13633549213409424,
        -1.740405559539795,
        -2.122981548309326,
        0.056574489921331406,
        -0.06690333038568497,
        0.3059672713279724,
        -0.44237297773361206,
        0.29972609877586365,
        -0.8740421533584595,
        0.8458021283149719,
        0.6130502820014954,
        -0.2856026887893677,
        -0.1389555186033249,
        -0.4274292290210724,
        -0.3474010229110718,
        -0.21834124624729156,
        0.20659390091896057,
        -0.03375595808029175,
        0.009471983648836613,
        -0.737092912197113,
        -0.23699688911437988,
        -0.10312829911708832,
        -1.8083091974258423,
        -0.10047869384288788,
        -0.3885310888290405,
        0.2305096983909607,
        0.15276214480400085,
        1.1013450622558594,
        -0.7381950616836548,
        1.0354526042938232,
        0.026072291657328606
      ],
      [
        0.09348586201667786,
        -1.5994842052459717,
        -0.17835283279418945,
        -0.8766463994979858,
        4.137585163116455,
        -1.0693720579147339,
        8.443262100219727,
        0.11384713649749756,
        -1.7297860383987427,
        -1.3985111713409424,
        -1.5556479692459106,
        -0.2357739508152008,
        1.9451709985733032,
        -1.9370936155319214,
        -0.04311395809054375,
        -1.4118095636367798,
        0.2683424651622772,
        -0.8407756686210632,
        -0.3933492600917816,
        4.625340938568115,
        0.21901966631412506,
        6.24193000793457,
        3.4380483627319336,
        0.026943737640976906,
        3.431622266769409,
        0.08456332981586456,
        1.166501760482788,
        -0.6683961153030396,
        0.7042434811592102,
        -1.6048269271850586,
        0.4763815402984619,
        -0.4873443841934204
      ],
      [
        0.19254159927368164,
        0.5599793791770935,
        0.06284917891025543,
        0.037740860134363174,
        -1.8157187700271606,
        4.879475116729736,
        0.8271613717079163,
        -1.4085453748703003,
        1.8993301391601562,
        -1.1766486167907715,
        1.3345565795898438,
        -2.1903316974639893,
        -2.191664695739746,
        2.415034532546997,
        -0.39776724576950073,
        -0.7377721667289734,
        -0.42667949199676514,
        -0.36801275610923767,
        0.7529231905937195,
        0.9245011806488037,
        -1.788276195526123,
        1.3678197860717773,
        -1.332949161529541,
        -0.47539475560188293,
        -1.541404366493225,
        -1.6566318273544312,
        -0.00601581297814846,
        -1.220908522605896,
        -1.2831554412841797,
        2.554823637008667,
        -1.3053295612335205,
        0.3730495870113373
      ],
      [
        -0.4681383967399597,
        -0.4104306995868683,
        0.005791397299617529,
        -0.051262471824884415,
        -0.21705268323421478,
        -1.7571519613265991,
        -0.9190253019332886,
        0.33299583196640015,
        -0.9185174107551575,
        1.7891817092895508,
        0.03701148182153702,
        1.0042823553085327,
        0.5316290855407715,
        -0.5954275131225586,
        -0.04524591565132141,
        0.45151007175445557,
        -0.004281764850020409,
        0.4880498945713043,
        -0.04457183927297592,
        -0.03886491060256958,
        0.27055326104164124,
        -0.25413253903388977,
        -1.0779047012329102,
        0.2982524335384369,
        -0.45060858130455017,
        -0.07791528850793839,
        -0.17750322818756104,
        0.5749318599700928,
        0.31230416893959045,
        -0.7925232648849487,
        0.7157931327819824,
        -0.5109828114509583
      ]
    ],
    "b1": [
      -0.3277788460254669,
      -4.70522403717041,
      -0.2760900557041168,
      1.6952155828475952,
      0.8221325874328613,
      -0.1998203545808792,
      -5.0833330154418945,
      -1.9180580377578735,
      2.9401514530181885,
      -3.9143054485321045,
      -0.2879914939403534,
      -2.59194016456604,
      -3.8334031105041504,
      -0.13004933297634125,
      -0.6362941265106201,
      -0.7094570994377136,
      0.23087792098522186,
      0.6153948903083801,
      -2.7266252040863037,
      -5.679555416107178,
      -1.6769543886184692,
      -2.8738484382629395,
      -6.8174262046813965,
      -1.4941359758377075,
      -1.332641363143921,
      -2.464219808578491,
      -2.5370309352874756,
      -4.387921333312988,
      -8.644144058227539,
      -1.2678325176239014,
      -7.535859107971191,
      -0.14724858105182648
    ],
    "w2": [
      [
        -5.041131019592285,
        0.5045462846755981,
        -0.15153545141220093,
        0.376310259103775
      ],
      [
        -0.21842114627361298,
        -0.16648736596107483,
        -10.917909622192383,
        0.2232588678598404
      ],
      [
        -9.154458999633789,
        -0.2058664709329605,
        0.8908203840255737,
        0.08071410655975342
      ],
      [
        -1.6644387245178223,
        0.8709909915924072,
        2.2510993480682373,
        0.3441353738307953
      ],
      [
        1.0810195207595825,
        0.7515891790390015,
        -0.06936752796173096,
        -7.535701274871826
      ],
      [
        -0.6462212800979614,
        -9.241340637207031,
        -0.11116509139537811,
        1.685645341873169
      ],
      [
        -1.1625218391418457,
        -0.6449646353721619,
        0.03452061116695404,
        -10.635387420654297
      ],
      [
        1.367780327796936,
        -3.3069729804992676,
        -0.5807318687438965,
        -1.1272574663162231
      ],
      [
        1.8248260021209717,
        1.9269828796386719,
        -0.383788138628006,
        1.774288535118103
      ],
      [
        0.6212244629859924,
        0.23701925575733185,
        -9.455536842346191,
        -0.9770885109901428
      ],
      [
        -8.231030464172363,
        0.1551690399646759,
        -0.15994086861610413,
        0.41446682810783386
      ],
      [
        -0.21250009536743164,
        1.7111573219299316,
        -2.9627177715301514,
        -1.4763535261154175
      ],
      [
        -0.6468883156776428,
        -10.693619728088379,
        0.01780296489596367,
        -0.877635657787323
      ],
      [
        -1.4475265741348267,
        0.37648600339889526,
        0.743432879447937,
        1.6425142288208008
      ],
      [
        0.27604734897613525,
        -2.6335465908050537,
        -0.021958548575639725,
        0.10335894674062729
      ],
      [
        0.7746870517730713,
        -6.907797336578369,
        0.10583151876926422,
        0.3390020728111267
      ],
      [
        0.6391667723655701,
        -0.710995614528656,
        0.21085485816001892,
        -0.176742285490036
      ],
      [
        1.4623947143554688,
        -0.25634878873825073,
        0.5587316751480103,
        -0.32298073172569275
      ],
      [
        -0.3524447977542877,
        -1.359122395515442,
        -11.104150772094727,
        -0.4944583475589752
      ],
      [
        -0.9351009726524353,
        -0.23592829704284668,
        -1.15337336063385,
        -14.826858520507812
      ],
      [
        -0.720986008644104,
        -2.97297739982605,
        0.3825381100177765,
        -0.14084473252296448
      ],
      [
        0.16065387427806854,
        -1.0640382766723633,
        -0.04531393572688103,
        -10.982182502746582
      ],
      [
        -0.9168727397918701,
        -0.4149690568447113,
        -4.927323818206787,
        -2.464815139770508
      ],
      [
        0.12606516480445862,
        -0.773749589920044,
        -7.6864094734191895,
        -0.5693423748016357
      ],
      [
        0.0915716290473938,
        0.7067481279373169,
        -0.08310551196336746,
        -6.575631141662598
      ],
      [
        0.6859567165374756,
        -0.5632162690162659,
        -10.533916473388672,
        -1.0069475173950195
      ],
      [
        -7.303918361663818,
        -0.18530644476413727,
        -0.3197730779647827,
        -0.5263342261314392
      ],
      [
        -0.9558311104774475,
        -10.45334243774414,
        -1.4634337425231934,
        -1.2261059284210205
      ],
      [
        -0.8095785975456238,
        -8.449376106262207,
        -1.7815475463867188,
        -1.039119005203247
      ],
      [
        0.2767077684402466,
        0.29758140444755554,
        -3.1977157592773438,
        0.9963334798812866
      ],
      [
        -14.343031883239746,
        -1.7276084423065186,
        -0.8570250868797302,
        -1.0742470026016235
      ],
      [
        -0.10992617905139923,
        0.10893440991640091,
        -0.24064044654369354,
        0.092068612575531
      ]
    ],
    "b2": [
      0.3846438229084015,
      0.08057047426700592,
      -0.6220146417617798,
      0.5134912133216858
    ]
  }
}